Bias_data_mat_h31,Bias_data_mat_h32,Bias_data_mat_h33
9,2,-1.083333333
9,3,-3.093333333
9,4,-1.893333333
9,5,-0.603333333
9,6,1.14
9,7,0.300000000000001
9,8,0.970000000000001
9,9,1.296666667
9,10,NaN
9,11,0.00333333299999872
9,12,-1.016666667
9,14,-1.893333333
9,15,-1.433333333
9,16,-0.603333333
9,17,-2.46
9,18,-1.676666667
9,19,-1.646666667
9,21,0.056666667
9,22,0.443333333
9,23,-0.0366666670000004
9,24,0.123333333000001
9,25,0.41
9,28,2.74
9,29,1.11
9,30,0.243333333000001
12,1,NaN
12,2,NaN
12,4,NaN
12,6,NaN
12,7,0.300000000000001
12,8,1.07
12,9,1.296666667
12,10,1.62
12,11,-0.196666667000001
12,12,-1.916666667
12,14,-1.893333333
12,17,-1.21
12,18,-1.376666667
12,20,-1.313333333
12,21,0.556666667
12,22,0.843333332999999
12,23,-0.236666667
12,24,-0.676666667
12,27,1.526666667
12,28,2.14
12,31,-1.346666667
12,32,-1.04
12,33,-0.553333333
12,34,-0.423333333
13,1,NaN
13,2,-5.183333333
13,4,-3.893333333
13,6,0.140000000000001
13,8,1.17
13,9,1.596666667
13,10,2.02
13,11,0.103333333
13,12,-1.036666667
13,13,-2.29
13,16,-1.603333333
13,17,-1.86
13,18,-2.176666667
13,19,-2.346666667
13,20,-1.963333333
13,22,0.243333333
13,29,0.71
15,4,-5.893333333
15,12,-3.316666667
15,13,-4.04
15,15,-3.083333333
15,16,-0.353333333
15,17,-1.01
15,18,-1.776666667
15,20,-0.363333333
15,21,0.306666667
15,22,1.293333333
15,23,1.013333333
15,24,-0.376666666999999
15,25,-0.39
15,26,1.51
15,27,1.626666667
15,28,1.04
15,30,-0.806666667
15,31,-0.746666667
15,33,0.746666667
15,34,0.226666667
15,35,-0.609999999999999
16,1,0.42
16,2,-4.683333333
16,3,-4.593333333
16,4,-1.893333333
16,5,-1.603333333
16,7,0.800000000000001
16,8,1.27
16,9,1.296666667
16,10,1.12
16,12,-1.816666667
19,1,-0.58
19,2,-4.183333333
19,3,-4.593333333
19,4,-4.093333333
19,5,-0.803333332999999
19,6,2.64
19,7,1
19,8,1.17
19,9,0.796666667
19,10,1.32
19,11,-0.196666667000001
19,12,-2.316666667
19,13,-3.84
19,14,-2.693333333
19,15,-1.233333333
20,2,-4.683333333
20,4,-3.493333333
20,5,-3.203333333
20,9,1.396666667
20,11,-0.106666667000001
20,12,-1.916666667
20,14,-1.993333333
20,15,-1.833333333
20,16,-2.003333333
20,17,-2.06
20,18,-1.576666667
20,19,-1.946666667
20,20,-1.463333333
20,21,-0.543333333000001
20,23,0.163333333
20,24,-0.176666667
20,26,0.51
20,27,1.726666667
20,28,2.74
20,29,2.41
20,32,-0.24
20,33,-0.553333333
20,35,-0.71
20,36,-2.176666667
20,38,-1.953333333
20,40,-2.206666667
20,42,-2.416666667
20,43,-1.83
20,45,0.566666667
20,46,-0.096666667
20,47,-0.64
20,48,0.273333333
20,49,1.006666667
20,50,1.496666667
20,51,1.98
20,52,2.456666667
20,54,0.566666667
20,55,-0.73
20,56,-1.17
20,57,-0.58
20,58,-0.523333333
20,59,-0.273333333
20,61,0.0466666670000002
20,63,0.0999999999999996
20,64,-0.016666667
20,66,-0.236666667
20,67,-0.816666667000001
20,69,-0.516666667
20,70,-0.109999999999999
20,72,1.03
20,73,1.313333333
20,74,1.416666667
20,75,0.836666667
20,76,-1.183333333
20,77,-2.11
20,78,-2.86
20,79,-4.103333333
20,80,-2.88
20,81,-1.966666667
20,82,-1.456666667
20,83,-0.656666667
20,84,-0.593333333
20,85,-0.66
20,86,-0.67
20,87,-0.413333333
20,88,-0.283333333
20,89,-0.0633333329999999
20,90,0.486666667
20,91,1.046666667
20,92,1.586666667
20,93,1.563333333
20,94,1.8
20,95,1.776666667
20,98,0.976666666999999
20,99,0.993333333
20,100,0.0133333330000003
20,101,0.0466666669999993
20,102,-0.616666667
20,103,-1.57
20,104,-2.906666667
20,105,-3.173333333
20,106,-2.806666667
20,108,-3.096666667
20,109,-2.256666667
20,112,-0.293333333
23,1,-2.18
23,2,-3.683333333
23,3,-2.993333333
23,5,-2.103333333
23,6,2.14
23,8,1.5
23,9,1.696666667
23,10,1.62
23,12,-0.716666667
23,14,-3.193333333
23,15,-3.533333333
23,16,-1.903333333
23,17,-2.7
23,18,-2.576666667
23,20,-1.363333333
23,21,0.556666667
30,1,-1.58
30,2,-4.183333333
30,3,-5.093333333
30,4,-4.293333333
30,5,-4.203333333
30,6,0.940000000000001
30,7,0.5
30,8,0.57
30,9,-0.603333333
30,10,0.540000000000001
30,11,-1.196666667
30,12,-2.216666667
30,13,-2.94
30,14,-2.893333333
30,15,-2.833333333
30,16,-2.853333333
30,17,-1.81
30,18,-1.906666667
30,19,-1.846666667
30,20,-1.663333333
30,21,-1.043333333
30,22,0.0333333329999999
30,23,-0.336666667
30,24,-0.426666667
30,25,0.39
30,26,0.41
30,27,1.126666667
30,28,1.89
30,29,1.15
30,30,0.243333333000001
30,31,-1.346666667
30,32,-0.94
30,33,-0.753333333
30,34,-0.673333333
30,35,-0.899999999999999
30,36,-2.226666667
30,38,-2.373333333
30,40,-3.206666667
30,41,-2.24
30,42,-2.216666667
30,43,-1.71
30,44,-1.44
30,45,-1.083333333
30,46,-0.216666667
30,47,-0.94
30,48,-0.606666667
30,50,1.076666667
31,1,1.92
31,2,-0.683333333
31,3,-1.593333333
31,4,-1.143333333
31,6,1.14
31,8,2.17
31,10,1.32
31,12,-2.616666667
31,13,-3.84
31,14,-3.393333333
31,16,-1.553333333
31,17,-3.56
31,20,-2.163333333
35,1,-0.0800000000000001
35,2,-5.183333333
35,3,-5.693333333
35,4,-4.093333333
35,5,NaN
35,6,0.640000000000001
35,7,0.800000000000001
35,8,1.67
35,9,2.496666667
35,10,3.02
35,11,NaN
35,12,NaN
35,14,NaN
35,15,NaN
35,16,-1.603333333
35,17,-2.76
35,18,-2.676666667
35,19,-2.546666667
35,20,-0.653333333
35,21,-0.323333333000001
35,22,0.673333333
35,23,0.163333333
35,24,-0.376666666999999
35,25,0.00999999999999979
35,26,0.609999999999999
35,27,1.126666667
35,28,1.94
35,29,1.11
35,30,0.143333333
35,31,-1.246666667
35,32,-0.640000000000001
35,33,0.246666667
35,34,0.0766666669999996
35,35,-0.74
35,36,-1.996666667
35,37,-1.96
35,38,-1.703333333
35,39,-1.86
35,40,-2.606666667
35,41,-3.02
35,42,-2.616666667
35,43,-1.03
35,44,-1.54
40,1,-0.779999999999999
40,2,-3.933333333
40,3,-5.293333333
40,4,-4.693333333
40,6,1.18
40,7,1.38
40,8,1.77
40,9,0.686666667000001
40,10,2.36
40,11,-0.0266666670000006
40,12,-1.506666667
40,13,-3.44
40,14,-2.093333333
40,15,-0.633333332999999
40,16,-0.353333333
40,17,-0.99
40,18,-1.536666667
40,19,-1.646666667
40,20,0.346666667
40,21,0.056666667
40,22,0.973333332999999
40,23,-0.096666667
40,24,-0.0266666669999998
40,26,1.23
40,27,1.846666667
40,28,1.91
40,30,-0.0766666669999996
40,31,-0.266666667
40,32,0.45
40,34,-0.0733333329999999
40,35,-0.64
40,36,-1.536666667
40,38,-1.263333333
40,39,-1.8
40,40,-1.706666667
40,42,-2.106666667
40,43,-1.28
40,44,-1.4
40,46,-0.166666667
40,47,-0.0899999999999999
40,51,1.47
40,52,1.116666667
40,53,0.856666667
40,54,0.00666666699999929
40,55,-0.83
40,56,-1.16
40,57,-0.56
40,58,-0.0233333330000001
40,59,0.256666667
40,60,-0.0100000000000007
40,61,-0.0433333329999996
40,63,0.0700000000000003
40,64,-0.436666667
40,66,-0.456666667
40,67,-0.846666667
40,68,-0.683333333
40,70,0.45
40,71,0.773333333
40,72,0.649999999999999
40,73,0.703333333
40,74,0.966666667
40,75,0.256666667
40,77,-2.44
40,78,-2.93
40,79,-3.283333333
40,80,-1.99
40,81,-1.456666667
40,82,-0.256666667
40,83,-0.676666667
40,84,-1.423333333
40,85,-0.86
40,86,-0.86
40,87,-0.663333333
40,88,-0.443333333
40,89,-0.293333333
40,90,0.036666667
40,91,0.506666667
40,93,0.763333333
43,1,-0.0800000000000001
43,5,0.396666667
43,6,1.64
43,7,0.800000000000001
43,8,0.869999999999999
43,9,1.496666667
43,10,2.32
43,11,0.553333332999999
43,12,-2.816666667
43,13,-4.04
43,14,-2.893333333
43,15,-1.833333333
43,16,NaN
43,17,-0.36
43,18,-0.986666667
43,19,-1.146666667
43,21,-0.393333333
43,22,0.0433333329999996
43,23,-0.636666667
43,24,-0.776666667
43,25,-0.19
43,26,0.31
43,28,0.639999999999999
43,29,0.41
47,2,-2.683333333
47,3,-4.593333333
47,4,-4.093333333
47,5,-2.403333333
47,6,0.34
47,7,0.100000000000001
47,8,0.550000000000001
47,9,0.146666667
47,10,0.720000000000001
47,11,-0.496666667000001
51,4,-4.293333333
51,5,-0.403333333000001
51,6,1.54
51,7,1.3
51,10,1.62
51,14,-2.893333333
51,17,-1.16
51,19,-1.846666667
51,20,-0.763333332999999
51,21,-0.0433333330000005
51,22,0.943333333
51,23,0.163333333
51,24,-0.226666667
51,25,0.21
51,26,1.11
51,30,0.243333333000001
51,31,-0.546666666999999
51,33,-0.253333333
51,34,-0.0233333330000001
60,3,-2.493333333
60,4,-3.593333333
60,5,-2.103333333
60,6,1.74
60,7,2.1
60,8,2.17
60,9,1.996666667
60,10,2.22
60,11,0.503333332999999
60,12,-2.016666667
60,13,-2.74
60,14,-2.093333333
60,16,-0.403333333
60,17,-0.86
60,18,-1.476666667
60,19,-1.646666667
60,20,-0.263333332999999
60,21,0.656666667
60,22,1.043333333
60,23,0.863333333
60,24,-0.276666667
60,25,0.21
60,26,1.51
60,27,2.226666667
60,28,2.54
60,29,1.41
60,30,1.043333333
60,31,-0.146666667
60,32,-0.04
60,33,0.246666667
60,34,0.476666667
60,35,-0.00999999999999979
60,36,-0.976666667
60,37,-1.44
60,38,-1.623333333
60,39,-1.76
60,40,-1.806666667
60,41,-2.32
60,42,-1.916666667
60,43,-1.13
60,44,-1.44
60,45,-0.533333333
60,46,-0.496666667
60,47,-0.74
60,48,-0.756666667
60,49,-0.0133333329999998
62,1,1.42
62,2,-0.683333333
62,3,NaN
62,4,-0.893333332999999
62,5,-0.103333333
62,6,2.14
62,7,1.5
62,8,2.17
62,9,1.096666667
62,10,3.32
62,11,2.303333333
62,12,NaN
62,13,-1.54
62,14,-1.093333333
62,15,0.166666667
62,16,-0.103333333
62,17,0.14
62,18,-0.476666667
62,19,-0.846666667
62,20,0.0366666670000004
62,22,0.443333333
62,23,0.263333333
62,24,-0.476666667
62,25,-0.0899999999999999
62,26,2.01
62,27,2.226666667
62,28,NaN
62,29,1.21
62,30,0.743333333000001
62,31,-0.946666667
62,32,-0.24
62,33,0.946666667000001
62,34,0.976666667
62,35,0.24
62,36,-0.976666667
62,37,-1.19
62,38,-1.123333333
62,39,-1.46
62,40,-2.206666667
62,41,-2.52
62,42,-1.816666667
62,43,-0.53
62,44,-1.54
62,45,-0.783333333
62,46,-0.296666667
65,1,-1.38
65,3,-1.693333333
65,4,-3.693333333
65,5,-2.603333333
65,7,1.3
65,9,1.146666667
65,11,-0.846666667000001
65,12,NaN
65,13,-3.19
65,15,-1.233333333
65,16,-1.653333333
65,17,-1.56
65,18,-1.676666667
65,19,-1.846666667
65,20,-0.663333333
65,21,-0.143333333
65,22,0.793333333
65,23,0.363333333
65,24,-1.026666667
65,25,-1.09
65,27,2.776666667
65,34,0.726666667
65,36,-1.426666667
65,37,-1.69
65,38,-1.653333333
65,39,-0.96
65,40,-2.036666667
65,41,-2.52
65,42,-2.266666667
65,43,-1.61
65,44,-1.69
65,45,-1.633333333
65,46,-0.866666667
65,47,-1.02
65,48,-0.206666667
65,49,0.686666667
65,50,1.306666667
65,51,2.03
65,52,2.136666667
65,53,1.646666667
65,54,0.266666667
65,55,-0.82
65,56,-1.47
65,57,-0.48
65,58,0.346666667
65,59,0.226666667
65,60,0.0599999999999996
65,61,-0.303333332999999
65,62,0.0466666670000002
65,63,0.04
65,64,-0.446666667
65,65,-0.0233333330000001
65,66,-0.126666667
65,67,-0.146666667000001
65,68,-0.493333333000001
65,69,-0.346666667
65,70,0.850000000000001
65,71,0.843333332999999
65,72,1.52
65,73,0.813333332999999
65,74,1.016666667
65,75,-0.0833333329999997
65,76,-1.383333333
65,77,-2.34
65,78,-2.43
65,79,-2.793333333
65,80,-1.98
65,81,-1.586666667
65,82,-0.556666667
65,83,-0.566666667
65,84,-0.843333333
65,86,-0.87
65,87,-0.183333333
65,88,-0.283333333
65,89,-0.0233333330000001
65,90,0.386666667
65,92,1.036666667
65,93,-0.236666667
65,94,-0.14
65,95,0.426666667
65,96,0.993333333
65,97,0.803333333
65,98,0.606666667
65,99,0.303333333
65,100,0.183333333
65,101,-0.363333333
65,102,-0.696666667
65,104,-3.156666667
65,105,-3.473333333
66,1,NaN
66,2,NaN
66,4,NaN
66,5,-1.103333333
66,6,1.84
66,7,0.5
66,8,0.67
66,9,0.796666667
66,10,1.42
66,11,-0.296666667
66,12,-1.516666667
66,13,-2.24
66,14,-1.893333333
66,15,-1.633333333
66,16,-0.503333333
66,17,-1.36
66,19,-2.346666667
66,20,-1.563333333
66,22,0.143333332999999
66,23,-0.436666667
66,24,-0.576666667
66,25,-0.0899999999999999
66,26,0.81
66,27,1.826666667
66,28,1.74
66,29,1.31
66,31,-0.746666667
66,34,-0.0233333330000001
67,2,-2.183333333
67,3,-3.793333333
67,4,-3.893333333
67,6,1.64
67,7,1.8
67,8,1.47
67,9,1.496666667
67,10,1.72
67,13,-2.34
67,14,-2.493333333
67,17,-1.61
68,1,-2.58
68,2,-3.183333333
68,3,-5.593333333
68,4,-4.093333333
68,5,-1.403333333
68,6,0.34
68,8,0.67
68,9,0.396666667
68,11,-0.896666667
68,12,-2.216666667
68,13,-3.54
68,14,-2.593333333
68,15,-2.333333333
68,16,-1.103333333
68,17,-2.16
68,18,-1.926666667
68,19,-2.146666667
68,20,-0.763333332999999
68,21,0.00666666699999929
68,22,0.743333333
69,1,-2.58
69,2,NaN
69,3,-4.593333333
69,4,-3.893333333
69,5,-2.303333333
69,6,0.640000000000001
69,7,0.300000000000001
69,11,-0.196666667000001
69,13,-5.04
69,17,-0.66
69,18,-0.976666667
69,19,-1.446666667
69,20,-0.963333333
69,21,0.00666666699999929
69,24,-0.776666667
69,25,-0.59
69,26,0.51
69,29,0.91
69,30,0.743333333000001
69,31,0.153333333
69,33,0.746666667
69,34,0.276666667
70,1,-2.08
70,2,-4.683333333
70,3,-6.793333333
70,4,-6.693333333
70,5,-2.803333333
70,6,-0.359999999999999
70,7,-0.699999999999999
70,8,0.470000000000001
70,9,0.596666667000001
70,10,0.32
70,11,-2.196666667
70,12,-2.616666667
70,13,-3.24
70,14,-1.793333333
70,15,-2.533333333
70,16,-1.903333333
70,17,-1.76
70,18,-1.876666667
70,19,-2.146666667
70,20,0.136666667
70,21,0.856666667
70,22,1.443333333
70,23,0.163333333
70,24,0.223333333
70,25,0.51
70,26,1.61
70,27,1.026666667
70,28,0.94
70,29,0.81
70,30,0.643333333
70,31,-0.146666667
70,32,0.56
70,33,0.946666667000001
70,34,0.776666667
70,36,-1.676666667
70,37,-1.54
70,38,-1.023333333
70,40,-2.406666667
72,1,0.42
72,2,NaN
72,3,-3.843333333
72,4,-3.593333333
72,5,NaN
72,6,2.14
72,8,1.67
72,9,2.296666667
72,11,0.303333332999999
72,12,-1.616666667
72,14,-1.643333333
72,15,-0.333333333
72,18,-1.226666667
72,19,-1.646666667
72,20,-1.963333333
72,22,1.343333333
72,23,0.863333333
72,24,0.223333333
72,25,1.21
72,26,2.01
72,27,2.426666667
72,29,NaN
72,30,1.093333333
75,1,0.42
75,2,-2.683333333
75,3,-3.093333333
75,4,-2.393333333
75,5,-1.603333333
75,6,0.140000000000001
75,8,1.87
75,12,-2.716666667
75,16,-2.853333333
75,17,-2.61
79,1,-0.98
79,2,-1.183333333
79,3,-6.093333333
79,4,-4.493333333
79,5,-2.603333333
79,6,1.44
79,7,0.300000000000001
79,8,1.27
79,9,0.596666667000001
79,10,1.12
79,14,-4.393333333
79,15,-1.633333333
79,16,-0.203333333
79,17,-0.260000000000001
79,18,-0.976666667
79,20,-0.763333332999999
79,21,-1.043333333
79,22,0.143333332999999
79,23,-0.136666667
79,24,-0.376666666999999
79,25,0.91
79,26,-0.49
80,2,-4.383333333
80,4,-4.093333333
80,5,-2.203333333
80,7,1.1
80,8,1.47
80,9,0.396666667
80,10,2.42
80,13,-3.14
80,17,-0.86
80,18,-1.476666667
80,19,-1.446666667
80,22,0.843333332999999
80,24,-0.876666666999999
82,1,0.32
82,2,0.616666667000001
82,7,1.2
82,8,2.07
82,9,1.746666667
82,10,2.32
82,11,-0.0466666670000002
82,12,-2.516666667
82,13,-3.54
82,14,-3.893333333
82,15,-1.683333333
82,16,-0.803333333
82,17,-2.16
82,18,-2.076666667
82,19,-1.946666667
82,20,-0.663333333
82,21,0.756666666999999
82,22,0.943333333
82,23,0.263333333
82,24,-0.576666667
82,25,-0.29
82,26,1.51
82,27,2.126666667
82,31,-1.546666667
82,32,-0.74
82,35,0.59
84,1,-1.58
84,2,-4.683333333
84,4,-4.893333333
84,5,0.396666667
84,6,1.84
84,7,0.800000000000001
84,9,-0.703333333
84,10,0.620000000000001
84,11,-0.996666667000001
84,12,-3.816666667
84,14,-2.893333333
84,15,-2.333333333
84,16,-2.603333333
84,17,-2.06
84,18,-2.476666667
84,19,-2.146666667
84,20,-0.463333333
84,21,1.156666667
84,22,1.443333333
84,24,-1.076666667
84,25,-1.29
84,26,-0.99
84,28,-0.460000000000001
84,29,-0.59
84,30,-0.856666666999999
84,31,-2.846666667
84,32,-1.24
84,33,-0.753333333
84,34,-0.273333333
84,35,-1.01
84,36,NaN
84,37,-0.94
84,38,-1.123333333
84,39,-1.66
84,40,-2.106666667
84,41,-3.02
84,42,-1.666666667
84,43,-0.23
84,44,-0.04
84,45,0.466666667
84,46,0.403333333
84,48,NaN
84,49,0.786666667
84,50,1.376666667
84,51,1.18
84,52,0.236666667
84,53,-0.403333333
84,54,-1.733333333
84,55,-2.24
84,56,-1.57
84,57,-1.38
84,58,-0.803333333
84,59,-0.0233333330000001
84,60,-0.44
84,61,-1.053333333
84,62,-0.453333333
84,63,-0.21
84,64,-1.046666667
84,65,-0.823333333
84,66,-0.476666667
84,67,-1.146666667
84,68,NaN
84,70,1.35
84,71,1.043333333
84,72,1.02
84,73,0.613333333
84,74,1.116666667
84,75,0.116666667
84,76,-1.983333333
84,77,-1.84
84,78,-2.33
84,79,-2.093333333
84,80,-1.58
84,81,-1.686666667
84,82,0.143333333
84,83,-0.466666667
84,84,NaN
84,85,-0.66
84,86,-0.27
84,88,-0.083333333
84,89,0.176666667
84,90,0.286666667
84,92,0.536666667
84,93,0.363333333
84,94,0.46
84,96,-0.00666666700000018
84,97,-0.196666667000001
84,98,-0.593333333
84,100,-0.516666667
84,101,-1.163333333
84,102,-0.996666667
84,103,-1.86
84,104,-3.156666667
84,105,-2.873333333
84,106,-2.006666667
84,108,-1.686666667
84,109,-1.526666667
84,110,-0.443333333
84,112,-0.093333333
84,113,-0.153333333
84,114,-0.043333333
86,1,3.02
86,3,-4.093333333
86,5,-2.203333333
86,11,1.003333333
86,12,-0.416666666999999
86,13,-1.84
86,16,-3.103333333
86,21,0.156666667
86,23,-0.0366666670000004
86,24,-1.176666667
86,25,-1.19
87,1,-1.58
87,3,NaN
87,5,NaN
87,6,3.14
87,7,1.8
87,8,2.07
87,10,NaN
87,11,-0.296666667
87,13,-4.24
87,15,-2.333333333
87,16,-1.103333333
87,26,NaN
87,27,NaN
87,28,NaN
87,33,1.246666667
87,34,0.976666667
94,5,NaN
94,6,0.640000000000001
94,7,1.25
94,8,1.77
94,9,1.096666667
94,10,1.82
94,12,-1.716666667
94,14,-1.893333333
94,15,0.0666666670000007
94,16,-1.503333333
94,18,-0.976666667
94,19,-1.146666667
94,21,-0.123333333000001
94,22,0.843333332999999
94,23,0.333333333
94,24,-0.376666666999999
94,25,-0.14
94,26,1.89
94,28,2.44
94,29,0.81
94,31,0.153333333
94,32,0.46
94,35,-0.109999999999999
94,37,-1.04
94,39,-1.06
94,40,-2.106666667
94,41,-2.42
94,42,-1.516666667
94,43,-1.33
94,44,-1.14
94,45,-0.533333333
94,46,-0.296666667
94,47,-0.64
94,48,-0.256666667
94,49,NaN
94,50,1.376666667
94,51,1.68
94,52,1.136666667
94,53,0.196666667
94,54,-0.133333333
94,56,-0.27
94,57,0.52
94,58,0.596666667
94,59,0.576666667
94,60,-0.340000000000001
94,61,-0.853333333
94,63,-0.31
94,64,-0.746666667
94,65,-0.523333333
94,66,-0.576666667
94,68,-0.193333333
94,69,0.153333333
94,71,0.563333332999999
94,72,1.14
94,73,0.603333332999999
94,75,0.306666667
94,79,-2.293333333
94,80,-1.48
99,7,1.72
99,8,0.93
99,9,1.416666667
99,10,2.22
99,11,0.483333332999999
99,14,-1.193333333
99,15,-1.033333333
99,16,-0.503333333
99,17,-1.96
99,18,-2.176666667
99,19,-1.646666667
99,20,-1.263333333
99,25,-0.0899999999999999
99,27,1.776666667
99,28,2.04
99,29,1.81
99,30,-0.256666666999999
99,31,-0.546666666999999
99,32,-0.140000000000001
99,33,-0.0533333329999994
99,35,-1.21
99,37,-1.64
99,39,-1.86
99,40,-2.106666667
99,41,-2.22
99,42,-2.416666667
99,43,-1.13
99,44,-1.34
99,46,-0.296666667
99,47,-0.14
99,48,0.0433333329999996
99,49,0.586666667
99,50,0.976666667
99,51,1.48
99,53,0.796666667
99,55,-0.98
99,56,-0.87
99,58,-0.303333333
99,60,0.159999999999999
99,62,-0.253333333
99,64,-0.246666667
99,66,0.0233333330000001
99,68,-1.293333333
99,70,0.850000000000001
99,71,0.843333332999999
99,74,0.316666667
99,78,-2.93
99,79,-3.493333333
99,81,-2.186666667
99,83,-1.366666667
99,84,-1.243333333
99,85,-1.01
99,86,-1.07
99,87,-1.183333333
99,88,-0.983333333
99,90,0.286666667
99,91,0.206666667
99,92,0.636666667
99,94,0.36
99,95,0.426666667
99,96,0.493333333
99,98,0.606666667
99,99,0.203333333
99,100,0.183333333
99,102,-0.096666667
99,104,-2.856666667
99,107,-2.403333333
99,109,-2.026666667
99,110,-0.943333333
99,114,-0.243333333
100,9,0.406666667
100,17,-1.76
100,19,-1.846666667
100,20,-0.263333332999999
100,21,-0.343333333
100,22,0.543333333
100,23,-0.236666667
100,24,-0.526666667
100,25,0.21
100,26,1.01
100,27,1.476666667
100,28,1.54
100,29,0.61
100,30,-0.406666667
100,31,-1.596666667
100,33,-0.253333333
100,34,-0.273333333
100,35,-1.71
404,37,-1.15
404,38,-1.073333333
404,39,-1.48
404,40,-2.176666667
404,41,-1.72
404,42,-1.526666667
404,43,-1.42
404,44,-1.21
404,45,-0.723333333
404,46,-0.516666667
404,47,-0.43
404,48,-0.00666666700000018
404,49,0.486666667
404,50,1.026666667
404,52,1.066666667
404,53,0.176666667
404,54,-0.963333333
404,55,-1.82
404,56,-1.14
404,57,-0.45
404,58,-0.0533333330000003
404,59,-0.253333333
404,60,-0.36
404,61,-0.683333333
404,62,-0.483333333
404,63,-0.28
404,64,-0.446666667
404,65,-0.103333333
404,66,-0.426666667
404,67,-0.936666667000001
404,70,0.45
404,71,0.823333333
404,73,0.533333333
405,37,0.0599999999999996
405,38,-0.553333332999999
405,39,-0.86
405,40,-1.506666667
405,41,-1.62
405,42,-1.516666667
405,43,-1.73
405,45,-0.433333333
405,46,-0.496666667
405,48,NaN
405,49,0.586666667
405,50,0.876666667
405,51,1.58
405,52,1.436666667
405,53,0.696666667
405,55,-1.54
405,56,-1.97
405,58,-0.203333333
405,60,-0.140000000000001
405,61,0.146666667
405,71,0.943333333
405,74,NaN
405,84,-1.543333333
405,85,-1.06
405,86,-0.77
405,87,-0.983333333
405,89,-0.823333333
405,90,-0.313333333
405,94,0.56
405,99,0.203333333
405,100,0.283333333
405,102,-0.196666667
405,103,-1.01
405,104,-2.356666667
407,37,-0.94
407,38,-1.623333333
407,39,-1.06
407,40,-2.206666667
407,41,-2.32
407,42,-2.316666667
407,43,-1.63
407,44,-1.74
407,45,-0.833333333
407,46,-0.696666667
407,47,-0.84
407,48,-0.906666667000001
407,49,0.736666667
407,50,1.296666667
407,51,1.63
407,52,1.536666667
407,53,0.296666667
407,54,-1.033333333
407,55,-0.74
407,56,-1.07
407,57,0.0199999999999996
407,58,-0.00333333299999961
407,59,0.436666667
407,60,-0.12
407,61,-0.353333333
407,62,-0.753333333
407,63,-0.41
407,65,-1.023333333
407,67,-1.046666667
407,68,-1.393333333
407,69,-0.946666667000001
407,70,0.850000000000001
407,71,0.343333332999999
407,72,0.92
407,73,0.513333332999999
407,74,0.916666667
407,75,0.216666667
407,76,-1.183333333
407,77,-2.34
407,78,-2.63
407,80,-2.38
407,81,-2.386666667
407,82,-1.556666667
407,83,-2.366666667
407,84,-2.143333333
407,85,-1.16
407,86,-0.87
407,87,-0.783333333
407,88,-1.383333333
407,89,-0.523333333
407,97,0.633333332999999
407,99,0.403333333
407,101,-0.463333333
407,102,-0.196666667
407,103,-1.283
407,104,-2.856666667
407,106,-2.285666667
407,107,-1.803333333
407,108,-2.329666667
407,109,-2.442666667
407,110,-1.456333333
407,112,-1.318333333
407,118,-0.689666667
407,119,-1.174666667
407,120,-1.333333333
407,121,-0.151333333
407,122,-0.371666667
407,125,-0.15
407,126,-0.166666667
407,130,-0.116333333
407,131,-0.119666667
409,38,-1.123333333
409,43,-1.18
409,44,-1.79
409,45,-1.183333333
409,46,-1.096666667
409,48,-0.906666667000001
409,51,0.78
409,52,1.136666667
409,53,0.296666667
409,54,-0.633333333
409,55,-0.69
409,56,-1.02
409,57,-0.0800000000000001
409,58,-0.00333333299999961
409,59,0.176666667
411,38,-0.913333333
411,39,-1.12
411,40,-2.106666667
411,42,-2.096666667
411,43,-0.73
411,44,-1.14
411,45,-0.463333333
411,46,-0.286666667
411,47,-0.34
411,48,0.373333333
411,49,0.506666667
411,50,0.876666667
411,51,1.63
411,52,1.296666667
411,54,-0.973333333
411,55,-0.94
411,56,-1.23
411,57,-0.15
411,58,0.0266666669999998
411,61,0.0766666670000005
411,62,0.0466666670000002
411,63,0.0800000000000001
411,64,-0.256666666999999
411,65,-0.0533333330000003
411,66,-0.176666667
411,67,-0.806666667
411,68,-0.623333333000001
411,69,-0.526666667000001
411,70,0.4
411,73,1.113333333
411,75,0.366666667
411,78,-3.03
411,79,-2.893333333
411,80,-1.81
411,81,-1.536666667
411,82,-0.956666667
411,83,-1.716666667
411,85,-1.24
411,87,-0.643333333
411,89,-0.0933333329999999
411,91,0.986666667
411,92,0.866666667
411,94,0.49
411,95,0.426666667
411,96,0.533333333
411,97,0.353333333
411,98,0.346666667
411,99,0.133333333
411,100,0.223333333
411,102,-0.646666667
411,103,-1.55
411,104,-2.886666667
411,105,-3.133333333
411,106,-2.606666667
411,107,-2.423333333
411,108,-1.556666667
411,109,-2.526666667
411,110,-0.543333333
411,111,-0.373333333
411,112,-0.143333333
411,113,-0.093333333
411,114,-0.093333333
411,115,-0.083333333
411,116,-0.333333333
411,117,-0.213333333
411,118,-0.226666667
411,119,-0.346666667
411,120,-0.533333333
411,122,-0.076666667
411,125,-0.22
411,126,-0.083766667
411,127,-0.017266667
411,128,-0.060233333
411,129,0.003333333
411,131,-0.078966667
411,133,-0.2298
411,134,-0.19
411,135,-0.396666667
411,136,-0.233333333
411,137,-0.503333333
411,138,NaN
411,141,0.15
411,142,0.236666667
411,143,0.206666667
411,144,0.26
411,145,0.24
411,146,0.54
411,147,0.216666667
411,148,-0.113333333
411,149,-0.4
411,150,-0.92
414,38,-0.623333333
414,39,-1.66
414,40,-1.406666667
414,41,-1.32
414,42,-2.016666667
414,43,-2.13
414,44,-0.74
414,45,-0.633333333
414,46,-0.346666667
414,47,0.21
414,48,0.693333333
414,49,1.236666667
414,50,1.576666667
414,51,1.58
414,52,1.936666667
414,53,1.596666667
414,55,-0.59
414,56,-1.82
414,57,-0.73
414,60,0.46
414,61,-0.553333332999999
414,62,-0.153333333
414,63,0.0899999999999999
414,64,-0.516666667
414,65,0.376666667
414,66,-0.176666667
414,67,-0.846666667
414,68,-1.103333333
414,69,-1.146666667
414,71,0.743333333
414,72,0.92
414,73,0.613333333
414,75,-0.0833333329999997
416,38,-1.373333333
416,39,-1.96
416,40,-2.906666667
416,41,-3.02
416,42,-2.016666667
416,43,-1.43
416,44,-1.94
416,45,-1.033333333
416,46,-0.596666667
416,47,-0.94
416,48,0.0433333329999996
416,49,0.736666667
416,50,1.326666667
416,51,1.48
416,52,0.986666667
416,54,0.616666667
416,55,-0.74
416,56,-0.32
420,38,-0.773333333
420,40,-1.856666667
420,42,-1.726666667
420,43,-0.48
420,45,-0.133333333
420,46,-0.246666667
420,47,-0.19
420,49,0.606666667
420,50,0.926666667
420,51,NaN
420,52,1.786666667
420,53,1.146666667
420,54,-0.633333333
420,55,-1.24
420,56,-1.02
420,57,-0.73
420,58,-0.453333333
420,59,-0.0233333330000001
420,60,-0.19
420,62,0.0466666670000002
420,63,0.0899999999999999
420,64,0.00333333300000049
420,65,0.0266666669999998
420,66,-0.176666667
420,67,-0.696666667000001
420,68,-0.793333333000001
420,69,-0.796666667
420,70,0.15
420,72,1.27
420,73,0.813333332999999
420,74,NaN
420,75,0.216666667
420,76,-1.783333333
420,77,-1.94
420,78,-2.38
420,81,-1.436666667
420,82,-0.356666667
420,84,-1.643333333
420,85,-1.61
420,87,-1.883333333
420,88,-1.783333333
420,89,-0.823333333
420,90,-0.263333333
420,92,0.586666667
420,93,0.563333333
420,94,0.61
420,95,0.576666667
420,97,0.953333333
420,98,0.606666667
420,99,0.503333333
420,101,-0.0633333330000001
420,102,-0.296666666999999
420,103,-0.91
420,104,-2.256666667
420,105,-2.673333333
420,106,-2.006666667
420,107,-2.003333333
420,109,-1.826666667
420,110,-0.943333333
420,111,-0.243333333
420,112,-0.193333333
420,113,-0.053333333
420,115,-0.363333333
420,117,-0.153333333
420,118,-0.176666667
420,119,-0.286666667
420,120,-0.233333333
420,121,-0.113333333
420,122,0.00333333299999999
420,123,-0.013333333
420,124,-0.013333333
420,125,0.02
420,127,-0.006666667
420,128,-0.053333333
420,129,-0.066666667
420,130,-0.073333333
420,131,-0.076666667
420,132,-0.073333333
420,133,-0.13
421,38,-1.523333333
421,39,-1.26
421,40,-2.206666667
421,41,-2.32
421,42,-2.216666667
421,43,-1.23
421,44,-2.04
421,45,-0.433333333
421,46,-0.246666667
421,47,-0.54
421,48,NaN
421,49,0.386666667
421,50,0.846666667
421,51,1.55
421,52,1.236666667
421,53,0.846666667
421,54,-0.633333333
421,55,-0.44
421,56,-0.77
421,57,0.52
421,58,0.796666667
421,59,0.976666667
421,60,0.0599999999999996
421,61,0.0466666670000002
421,62,0.0466666670000002
421,63,0.49
421,64,-0.396666667
421,65,-0.623333333
421,66,-0.576666667
421,68,-1.343333333
421,69,-1.196666667
421,70,0.4
421,71,0.393333332999999
421,72,0.819999999999999
421,74,0.116666667
421,75,0.116666667
421,76,-1.483333333
421,77,-2.34
421,78,-2.83
421,79,-3.193333333
421,80,-2.68
421,81,-2.786666667
421,83,-2.466666667
421,84,-3.293333333
421,85,-2.06
421,86,-1.02
421,87,-1.833333333
421,88,-0.383333333
421,89,-0.573333333
421,90,-0.613333333
421,91,-0.293333333
421,92,-0.0633333330000001
421,93,-0.936666667
421,94,-1.04
421,95,-0.173333333
421,96,-0.00666666700000018
421,97,0.203333333
421,98,0.306666667
421,99,0.0533333330000003
421,100,-0.0666666669999998
421,102,-0.346666667
421,103,-1.21
421,104,-2.256666667
421,106,-2.206666667
421,107,-2.803333333
421,108,-3.086666667
421,109,-2.576666667
421,110,-1.343333333
421,111,-0.543333333
421,112,-0.493333333
421,114,-1.543333333
421,115,-2.163333333
421,116,-1.423333333
421,117,-0.753333333
421,118,-0.826666667
421,122,-0.096666667
421,123,-0.113333333
421,124,-0.163333333
421,125,-0.17
421,127,-0.106666667
421,128,-0.173333333
421,129,-0.136666667
421,130,-0.223333333
421,131,-0.326666667
421,132,-0.373333333
421,134,-1.18
421,135,-0.826666667
421,137,-1.043333333
421,138,-0.653333333
421,139,-1.07
421,140,-1.06
421,141,-0.46
421,142,-0.113333333
421,143,-0.243333333
421,144,-0.04
421,145,-0.0399999999999998
421,146,0.16
421,147,0.0866666669999998
421,148,-0.0933333329999999
421,149,-0.39
421,150,-0.97
422,38,-1.423333333
422,39,-0.26
422,40,-1.606666667
422,41,-1.96
422,42,-2.216666667
422,43,-1.73
422,44,-2.24
422,46,-0.196666667
422,47,-0.74
422,48,-0.656666667
422,49,0.386666667
422,50,0.776666667
422,51,1.48
422,98,0.406666667
422,99,0.403333333
422,100,0.233333333
422,101,0.236666667
422,102,-0.196666667
422,104,-2.456666667
422,105,-2.373333333
422,106,-2.506666667
422,107,-1.903333333
422,108,-1.286666667
422,113,-0.353333333
422,114,-0.503333333
422,115,-0.563333333
422,116,-1.073333333
422,117,-0.103333333
422,118,-0.626666667
422,119,-0.136666667
422,120,-0.483333333
422,121,-0.463333333
422,122,0.023333333
422,123,0.056666667
422,124,0.036666667
422,125,0
422,127,-0.036666667
422,128,-0.053333333
422,129,-0.016666667
422,130,-0.003333333
422,131,-0.056666667
422,132,-0.023333333
422,133,-0.16
422,134,-0.01
422,135,-0.066666667
422,136,-0.213333333
422,137,-0.443333333
422,138,-0.503333333
422,139,0.17
422,140,0.09
422,141,0.0587
422,142,0.076666667
422,143,-0.0490333330000001
422,144,-0.04
422,145,0.23
422,146,0.2812
422,147,0.147766667
422,148,-0.150833333
422,149,-0.522
423,38,-2.073333333
423,40,-1.996666667
423,41,-1.92
423,42,-1.996666667
423,43,-1.34
423,44,-1.28
423,45,-0.823333333
423,46,0.173333333
423,47,-0.2
423,48,0.253333333
423,49,0.796666667
423,52,2.016666667
423,54,-0.333333333000001
423,56,-0.95
423,57,-0.58
423,58,-0.103333333
423,60,-0.12
423,63,0.22
423,64,-0.376666666999999
423,65,0.0466666670000002
423,69,NaN
423,70,-0.22
423,73,1.173333333
423,74,NaN
423,76,-0.893333333
423,77,-1.94
423,78,-3.01
423,79,-3.953333333
423,80,-2.44
423,82,-0.616666667
423,83,-0.206666667
423,84,-0.623333333
423,86,-0.51
423,91,NaN
423,94,1.64
423,96,0.333333333000001
423,97,0.703333333
423,100,-0.016666667
423,101,-0.763333333
423,104,-2.830166667
423,107,-2.353333333
423,110,-0.533333333
423,111,-0.093333333
423,112,-0.213333333
423,113,-0.073333333
423,116,-0.253333333
423,117,-0.423333333
423,119,-0.186666667
423,120,-0.547033333
423,121,-0.203333333
423,123,-0.008233333
423,124,-0.00333333299999999
423,125,-0.0352
423,127,-0.006666667
423,134,-0.06
423,135,-0.156666667
424,38,-1.123333333
424,39,-0.96
424,40,NaN
424,41,-3.07
424,42,-1.916666667
424,43,-0.68
424,44,-1.04
424,45,0.466666667
424,46,0.503333333
424,47,-0.44
424,48,NaN
424,49,0.986666667
424,50,1.276666667
424,52,0.236666667
424,96,NaN
424,97,NaN
424,98,NaN
424,99,NaN
424,100,NaN
424,101,NaN
424,102,NaN
424,103,NaN
424,104,NaN
424,105,NaN
424,106,NaN
424,107,NaN
424,108,NaN
424,109,NaN
424,111,NaN
424,112,NaN
424,113,NaN
424,114,NaN
424,115,NaN
424,116,NaN
424,117,NaN
424,118,NaN
424,119,NaN
424,120,NaN
424,122,NaN
424,123,NaN
424,124,NaN
424,125,NaN
424,129,NaN
424,131,NaN
424,136,NaN
424,137,NaN
424,138,NaN
424,139,NaN
424,140,NaN
424,141,NaN
424,142,NaN
424,143,NaN
424,144,NaN
424,146,NaN
424,147,NaN
424,148,NaN
424,149,NaN
426,39,-1.8
426,40,-2.076666667
426,41,-2.61
426,42,-1.676666667
426,43,-0.7
426,44,-1.15
426,45,-0.693333333
426,46,-0.426666667
426,47,-0.45
426,48,-0.236666667
426,49,0.746666667
426,50,1.376666667
426,51,1.83
426,52,1.476666667
426,53,0.946666667
426,54,0.016666667
426,55,-0.95
426,56,-0.38
426,57,-0.79
426,58,0.0766666670000005
426,59,0.176666667
426,60,-0.0200000000000005
426,61,-0.00333333299999961
426,62,0.336666667
426,63,0.17
426,64,-0.456666666999999
426,65,-0.483333333
426,66,-0.486666667
426,67,-0.726666667000001
426,69,-0.296666667
426,70,0.75
426,71,0.763333332999999
426,72,1.2
426,73,1.173333333
426,75,0.306666667
426,76,-1.053333333
426,77,-2.39
426,78,-2.81
426,81,-1.596666667
426,82,-0.946666667
426,83,-0.946666667
426,84,-1.283333333
426,85,-1.04
426,86,-0.9
426,87,-0.723333333
426,88,-0.403333333
426,89,0.216666667
426,90,0.376666667
426,91,0.656666667
426,92,0.886666667
426,94,0.5
426,95,0.616666667
426,97,0.803333333
426,98,0.536666667
426,99,0.0533333330000003
426,100,0.113333333
426,101,-0.293333333000001
426,102,-0.606666667
426,103,-1.53
426,104,-2.626666667
426,105,-3.013333333
426,107,-2.333333333
426,108,-1.486666667
426,109,-1.926666667
426,110,-1.143333333
426,111,-0.193333333
426,112,-0.062433333
426,113,-0.076533333
426,114,-0.489933333
426,115,-0.832233333
426,116,-0.608133333
426,117,-0.643333333
426,118,-0.686666667
426,119,-0.133766667
426,120,-0.161633333
426,121,-0.084033333
426,122,0.088333333
426,123,0.072666667
426,124,0.006566667
426,125,-0.0271
426,126,-0.040666667
426,127,-0.016766667
426,128,-0.033433333
426,129,-0.021466667
426,130,-0.018933333
426,131,-0.031666667
426,132,-0.029133333
426,133,-0.03
426,134,-0.005
426,135,-0.054166667
426,136,-0.358233333
426,137,-0.657233333
426,138,-1.098333333
426,139,-0.6467
426,140,-0.3983
426,141,0.185
426,142,0.084366667
426,143,-0.0952333330000001
426,144,0.2383
426,145,0.5183
426,148,0.731666667
426,149,0.645
426,150,-0.57
427,39,-1.26
427,40,-1.606666667
427,41,-1.72
427,42,-2.216666667
427,43,-1.03
427,44,-1.54
427,45,-1.233333333
427,46,NaN
427,47,-0.34
427,48,-0.156666667
427,49,0.486666667
427,50,1.076666667
428,39,-1.53
428,40,-2.546666667
428,41,-2.48
428,42,-1.206666667
428,43,-0.83
428,44,-1.61
428,45,-0.553333333
428,46,-0.356666667
428,47,-0.55
428,49,0.486666667
428,51,1.61
428,52,1.346666667
428,53,1.036666667
428,54,-0.943333333
428,55,-1.49
428,56,-1.77
428,57,-0.920000000000001
428,58,-0.583333333
428,59,0.276666667
428,60,-0.11
428,61,-0.523333333
428,62,-0.503333333
428,63,-0.42
428,64,-0.716666666999999
428,65,-0.783333333
428,66,-0.876666667
428,67,-1.486666667
428,68,-0.733333333
428,69,-0.646666667
428,70,0.41
428,71,0.633333332999999
428,72,1.11
428,73,0.753333333
428,74,0.766666667
428,75,0.146666667
428,76,-1.693333333
428,77,-2.38
428,78,-2.83
428,79,-2.873333333
428,80,-2.87
428,81,-1.996666667
428,82,-1.756666667
428,83,-1.346666667
428,84,-1.573333333
428,85,-1.2
428,86,-1.04
428,87,-1.363333333
428,88,-1.173333333
428,89,-0.403333333
428,90,0.016666667
428,91,0.0566666670000002
428,92,0.226666667
428,94,0.27
428,95,0.526666667
428,96,0.693333333
428,97,0.143333333
428,98,0.216666666999999
428,99,0.173333333
428,100,0.243333333
428,101,-0.263333333
428,102,-0.326666667
428,103,-1.668
428,105,-3.373333333
428,106,-2.886666667
428,108,-1.276666667
428,109,-2.056666667
428,110,-1.313333333
428,111,-0.093333333
428,112,-0.073333333
428,114,-0.133333333
428,115,-0.583333333
428,116,-0.553333333
428,117,-0.703333333
428,118,-0.426666667
428,119,-0.416666667
428,123,0.106666667
428,124,0.020166667
428,125,-0.06
428,126,-0.176666667
428,127,-0.186666667
428,129,-0.126666667
428,130,-0.033333333
428,131,-0.046666667
428,132,-0.023333333
428,133,-0.06
428,134,-0.13
428,135,-0.452666667
428,136,-0.464333333
428,137,-0.593333333
428,138,-0.353333333
428,146,0.29
428,147,0.256666667
428,148,-0.362433333
428,149,-0.4716
428,150,-0.8088
429,39,-1.48
429,40,-1.656666667
429,41,-2.01
429,42,-1.656666667
429,43,-1.08
429,44,-1.39
429,45,-0.633333333
429,46,-0.646666667
429,47,-0.36
429,48,0.383333333
429,49,0.926666667
429,50,1.236666667
429,51,1.85
429,52,2.026666667
429,53,1.596666667
429,55,-1.58
429,56,-0.66
429,57,-0.350000000000001
429,58,-0.253333333
429,60,-0.130000000000001
429,61,-0.0933333329999995
429,62,0.0366666670000004
429,63,-0.00999999999999979
429,64,-0.416666666999999
429,65,-0.193333333
429,66,-1.526666667
429,67,-0.776666667000001
429,68,-0.603333333
429,69,-0.546666667
429,70,1.17
429,71,0.583333333
429,72,1.05
429,74,0.476666667
429,75,-0.313333333
429,79,-2.853333333
429,80,-1.63
429,81,-1.956666667
429,82,-0.00666666699999996
429,83,-1.116666667
429,84,-1.293333333
429,85,-1.4
429,86,-0.84
429,87,-0.943333333
429,88,-0.483333333
429,89,-0.703333333
429,90,-0.343333333
429,91,0.286666667
429,92,0.476666667
429,93,0.493333333
429,94,0.9
429,95,0.666666667
429,97,0.773333333
429,98,0.486666667
429,99,0.423333333
429,100,0.0633333330000001
429,101,-0.163333333000001
429,102,-0.526666667
429,104,-2.766666667
429,105,-3.193333333
429,106,-2.156666667
429,108,-1.286666667
429,110,-0.353333333
429,130,-0.136333333
429,131,-0.170666667
429,132,-0.176333333
429,134,-0.266
429,135,-0.408666667
429,136,-0.331333333
429,138,-0.761333333
429,140,-0.0820000000000001
429,142,0.148566667
429,143,0.181366667
429,144,0.16
429,146,0.54
429,148,-0.209133333
429,150,-0.6615
431,39,-0.76
431,40,-1.506666667
431,42,-1.216666667
431,44,-0.74
431,45,-0.533333333
431,46,-0.246666667
431,47,-0.04
431,48,0.243333333
431,49,0.986666667
431,50,1.176666667
431,51,1.88
431,52,1.236666667
431,54,-0.0333333330000007
431,55,-0.49
431,57,0.27
431,58,0.446666667
431,59,0.476666667
431,60,0.56
431,61,0.0466666670000002
431,62,0.246666667
431,63,0.0899999999999999
431,64,-0.346666667
431,66,-0.226666667
431,67,-0.846666667
431,68,-0.683333333
431,70,1
431,71,0.893333332999999
431,72,1.02
431,74,1.286666667
431,75,0.216666667
431,76,-1.583333333
431,77,-2.34
431,78,-2.83
431,79,-2.643333333
431,80,-1.43
431,81,-0.986666667
431,83,-0.766666667
431,84,-1.593333333
431,86,-0.34
431,87,-0.853333333
431,88,-0.543333333
431,90,0.316666667
431,91,0.976666667
431,95,0.336666667
431,96,0.893333333
431,97,0.780333333
431,98,0.556666667
431,99,0.343333333
431,100,0.223333333
431,102,-0.336666666999999
431,103,-1.55
431,104,-2.896666667
431,105,-3.133333333
431,106,-2.446666667
431,107,-2.183333333
431,108,-1.726666667
431,109,-2.056666667
431,110,-0.833333333
431,111,-1.163333333
431,112,-0.263333333
431,116,-0.413333333
431,118,-0.526666667
431,120,-0.173333333
431,121,NaN
431,122,-0.096666667
431,123,-0.00333333299999999
431,124,-0.00333333299999999
431,125,-0.11
432,39,-1.46
432,40,NaN
432,41,-2.22
432,42,-1.416666667
432,43,-0.33
432,44,-0.74
432,45,-0.433333333
432,46,0.303333333
432,47,0.56
432,48,0.743333333
432,49,1.386666667
432,50,1.276666667
432,51,1.68
432,52,1.036666667
432,53,0.096666667
433,39,-1.74
433,40,-2.106666667
433,41,-2.12
433,42,-2.016666667
433,43,-0.93
433,44,-0.88
433,45,-0.593333333
433,46,-0.196666667
433,47,-0.14
433,48,0.333333333
433,49,0.906666667
433,50,1.196666667
433,51,1.91
433,52,1.656666667
433,53,1.056666667
433,54,-0.473333333
433,55,-1.36
433,56,-1.19
433,57,0.17
433,58,0.326666667
433,59,0.586666667
433,60,0.409999999999999
433,61,0.516666667
433,62,0.256666667
433,63,0.56
433,64,-0.376666666999999
433,65,-0.0333333329999999
433,66,-0.446666667
433,67,-0.876666667
433,68,-0.593333333
433,69,-0.796666667
433,70,0.65
433,71,0.793333333
433,72,1.32
433,74,1.066666667
433,75,0.216666667
433,76,-1.583333333
433,77,-2.56
433,78,-3.38
433,79,-2.643333333
433,80,-1.88
433,81,-1.796666667
433,82,-0.356666667
433,83,-0.666666667
433,84,-1.153333333
433,85,-1.17
433,86,-0.68
433,87,-1.153333333
433,88,-0.623333333
433,89,0.076666667
433,90,0.066666667
433,91,-0.193333333
433,92,0.336666667
433,93,-0.336666667
433,94,-0.11
433,95,-0.153333333
433,96,0.0733333329999999
433,97,0.403333333
433,98,0.156666667
433,99,0.253333333
433,100,0.0833333329999997
433,101,-0.563333333
433,103,-1.42
433,105,-3.043333333
433,110,-0.193333333
433,112,-0.393333333
433,113,-0.513333333
433,121,-0.013333333
433,122,0.098333333
433,123,-0.013333333
433,124,0.076666667
433,125,-0.05
433,126,0.013333333
433,127,-0.00866666699999999
433,128,-0.033333333
433,129,-0.016666667
433,130,-0.009533333
433,131,-0.066666667
433,132,-0.037133333
433,133,-0.18
433,134,-0.102
433,135,-0.201066667
433,136,-0.038233333
433,137,-0.338433333
433,138,-0.195833333
433,139,-0.2067
433,140,-0.2967
433,141,0.0433
433,142,0.357866667
433,143,0.306666667
433,144,0
433,145,0.48
433,146,0.18
433,147,0.316666667
433,148,0.106666667
433,149,-0.41
433,150,-1
434,39,-1.96
434,40,-2.006666667
434,41,-2.32
434,43,-1.73
434,44,-1.84
434,45,-1.033333333
434,46,-1.396666667
434,47,-0.94
434,48,-0.956666667
434,50,0.676666667
434,52,0.936666667
434,53,-0.00333333299999961
437,40,-2.106666667
437,42,-1.316666667
437,43,-1.73
437,44,-2.14
437,46,-0.496666667
437,49,-0.0133333329999998
437,51,1.38
437,52,0.936666667
437,53,0.196666667
437,54,-1.233333333
439,41,-2.57
439,42,-2.916666667
439,43,-1.23
439,44,-1.29
439,45,NaN
439,46,NaN
439,47,NaN
439,48,NaN
439,49,NaN
439,50,NaN
439,51,1.53
439,52,0.736666667
439,53,0.596666667
439,54,-1.133333333
439,55,-1.74
439,57,-0.58
439,58,-0.153333333
439,59,-0.273333333
439,60,0.26
439,61,-0.203333333
439,62,-0.703333333
439,63,-0.51
439,64,-0.446666667
439,65,-0.273333333
439,66,-0.676666667
439,68,-1.193333333
439,69,-1.146666667
439,71,0.543333333
439,72,0.819999999999999
439,74,0.766666667
439,76,-1.983333333
439,78,-3.33
439,79,-2.993333333
439,81,-1.386666667
439,83,-0.966666667
439,84,-1.443333333
439,85,-1.43
439,86,-0.65
439,87,-0.833333333
439,88,-0.783333333
439,104,-3.469966667
440,41,-1.87
440,42,-1.926666667
440,43,-1.03
440,44,-1.79
440,45,-0.833333333
440,46,-0.496666667
440,47,-0.28
440,48,0.0433333329999996
440,49,0.606666667
440,50,0.846666667
440,51,1.6
440,52,1.326666667
442,46,-0.076666667
442,47,-0.44
442,48,0.523333333
442,49,0.866666667
442,50,1.516666667
442,51,1.92
442,52,1.086666667
442,53,0.836666667
442,54,-0.363333333000001
442,55,-1
442,56,-0.62
442,57,0.17
442,58,0.236666667
442,59,0.766666667
442,60,0.489999999999999
442,61,0.516666667
442,63,0.0199999999999996
442,65,-0.273333333
442,66,-0.246666667
442,67,-0.756666667
446,48,-0.056666667
446,50,0.876666667
446,51,1.58
446,52,0.436666667
446,53,0.296666667
446,54,-0.933333333
446,55,-1.24
446,56,-1.27
446,57,-0.380000000000001
446,58,0.196666667
446,59,0.276666667
446,60,0.159999999999999
446,61,0.146666667
446,62,0.246666667
446,63,0.0899999999999999
446,64,-0.446666667
446,65,-0.123333333
446,67,-0.746666667
446,68,-0.693333333
446,69,-0.0466666670000002
446,70,1.25
446,71,1.043333333
446,72,0.92
446,73,0.813333332999999
446,74,0.816666667
446,76,-1.883333333
446,77,-2.74
446,78,-2.83
446,79,-2.393333333
446,80,-2.08
446,82,-1.056666667
446,83,-1.366666667
446,84,-1.643333333
446,85,-0.86
446,86,-0.97
446,87,-0.983333333
446,88,-0.483333333
446,89,-0.0233333330000001
446,91,0.906666667
446,92,0.536666667
446,93,0.263333333
446,94,0.59
446,95,0.326666667
446,96,0.393333333
446,97,0.403333333
446,98,0.406666667
446,99,0.403333333
446,100,0.0833333329999997
446,101,-0.413333333000001
446,102,-0.596666667
446,103,-1.51
446,104,-2.856666667
446,105,-3.273333333
446,106,-2.356666667
446,107,-1.603333333
446,108,-0.936666667
446,109,-1.876666667
446,110,-0.443333333
446,111,-0.243333333
446,112,-0.153333333
446,113,-0.133333333
446,114,-0.123333333
446,115,-0.113333333
446,116,-0.173333333
446,117,-0.303333333
446,118,-0.126666667
446,119,-0.136666667
446,120,-0.233333333
446,121,-0.113333333
446,122,-0.046666667
446,123,-0.063333333
446,124,-0.113333333
446,125,-0.15
446,126,-0.105266667
446,127,-0.037466667
446,128,-0.038733333
446,129,-0.028566667
446,130,-0.031633333
446,131,-0.052666667
446,132,-0.018933333
446,133,-0.0484
446,134,-0.685
446,140,-0.285
446,141,-0.0625
446,142,0.0521666669999999
446,143,0.046466667
446,144,-0.0149999999999999
446,146,0.33
446,147,0.276666667
446,148,-0.154033333
448,48,-0.456666667
448,49,0.486666667
448,50,1.076666667
448,51,1.53
448,52,0.636666667
448,53,NaN
448,54,NaN
448,55,NaN
448,56,-1.87
448,57,-1.48
448,58,0.246666667
448,85,-1.46
448,86,-1.27
448,88,-0.483333333
448,89,0.026666667
448,90,0.236666667
448,91,0.506666667
448,92,0.236666667
448,93,-0.556666667
448,94,0.61
448,95,0.176666667
448,96,0.393333333
448,97,0.203333333
448,98,0.156666667
448,99,0.403333333
448,100,0.633333333
448,101,-0.213333333
448,102,-0.346666667
448,103,-1.11
448,106,-1.756666667
448,107,-2.153333333
450,49,0.436666667
450,50,0.926666667
450,52,1.186666667
450,54,-0.833333333000001
450,55,-1.19
450,56,-0.92
450,57,-0.380000000000001
450,58,0.196666667
450,59,NaN
450,62,-0.203333333
450,63,-0.0600000000000005
451,50,0.676666667
451,51,1.38
451,52,1.736666667
451,53,0.796666667
451,55,-0.86
451,56,-1.07
451,57,-0.98
451,58,-0.00333333299999961
451,60,0.46
451,61,0.0466666670000002
451,65,-0.0233333330000001
452,52,1.036666667
452,53,1.396666667
452,54,0.0666666669999998
452,55,-0.54
452,56,-1.07
452,57,-0.680000000000001
452,58,-0.303333333
452,59,0.876666667
452,60,NaN
452,62,NaN
452,63,0.29
452,64,0.0533333330000003
452,65,-0.123333333
452,66,-0.276666667
452,67,-1.346666667
452,68,0.106666667
452,69,-0.746666667
452,70,0.260000000000001
456,54,-1.433333333
456,55,-1.74
456,56,-2.37
456,57,-1.28
456,58,NaN
456,59,-0.723333333
456,60,-1.14
456,61,-1.353333333
456,62,NaN
456,63,NaN
456,64,NaN
456,66,-0.776666667
456,67,-1.246666667
456,68,NaN
456,69,NaN
456,70,NaN
456,71,NaN
456,72,NaN
456,73,NaN
456,74,NaN
456,75,0.166666667
456,76,-2.083333333
456,77,NaN
456,78,NaN
456,79,NaN
456,80,-1.58
456,81,NaN
456,82,NaN
456,84,NaN
456,85,NaN
456,87,-0.233333333
456,88,0.016666667
456,90,0.486666667
456,91,1.006666667
456,92,0.536666667
456,93,NaN
456,94,NaN
456,95,NaN
456,96,0.143333333
456,97,NaN
456,98,NaN
456,99,NaN
456,100,NaN
456,103,-1.01
456,104,-2.306666667
456,105,-3.523333333
456,106,-2.356666667
456,113,-0.103333333
456,114,0.00666666700000001
456,115,0.086666667
456,116,0.026666667
456,118,-0.076666667
456,119,-0.236666667
456,121,-0.013333333
456,122,NaN
456,123,0.086666667
456,125,0.05
456,127,0.013333333
456,129,-0.016666667
456,135,-0.501666667
456,136,-0.588333333
456,137,NaN
456,138,-0.828333333
456,139,-0.595
456,140,-0.185
456,141,0.115
456,142,0.036666667
456,143,-0.068333333
456,144,0.0350000000000001
456,145,0.0650000000000002
456,146,0.0150000000000001
456,147,NaN
456,149,-0.475
458,56,-1.22
458,57,-1.33
458,59,-0.523333333
458,61,-0.703333333
458,62,-0.703333333
458,63,-1.16
458,64,-1.046666667
458,65,-1.073333333
458,66,-1.476666667
458,67,-1.246666667
458,69,-1.046666667
458,70,-0.0999999999999996
458,71,-0.206666667
458,72,0.27
458,74,0.016666667
458,76,-1.733333333
462,56,-0.94
462,57,-0.24
462,58,-0.413333333
462,59,NaN
462,60,0.239999999999999
462,61,-0.373333333
462,62,-0.373333333
462,64,-0.586666666999999
462,65,-0.423333333
462,66,-0.266666667
462,67,-0.366666667000001
462,68,-0.443333333
462,70,0.81
462,71,0.663333333
463,56,-0.470000000000001
463,57,-1.18
463,58,-0.403333333
463,59,0.276666667
463,60,0.26
463,61,-0.0533333329999994
463,62,-0.153333333
463,63,-0.0600000000000005
463,64,-0.546666666999999
463,65,-0.423333333
463,66,-0.576666667
463,67,-1.126666667
463,68,-0.943333333
463,69,-0.746666667
463,70,0.45
463,71,0.943333333
463,72,1.52
463,73,0.813333332999999
463,74,1.066666667
463,75,0.166666667
463,76,-1.383333333
463,77,-2.39
463,78,-2.93
463,79,-2.543333333
463,80,-1.58
463,81,-1.886666667
463,82,-1.256666667
463,83,-1.616666667
463,84,-1.993333333
463,85,-0.96
463,86,-1.52
463,87,-0.483333333
463,88,-0.633333333
463,90,0.036666667
463,91,0.506666667
463,92,0.956666667
463,95,0.276666667
463,96,-0.256666667
463,97,0.453333333
463,98,0.256666666999999
463,99,0.0533333330000003
463,100,-0.216666667
463,101,-0.633333333
463,102,-1.146666667
463,103,-2.11
463,104,-3.506666667
463,105,-3.823333333
463,106,-3.086666667
463,107,-2.653333333
463,108,-2.236666667
463,109,-2.686666667
463,110,-1.343333333
463,111,-0.343333333
463,112,-0.393333333
463,113,-0.753333333
463,114,-0.643333333
463,115,-0.273333333
463,116,-0.773333333
463,117,-0.553333333
463,118,-0.176666667
463,120,-0.683333333
463,121,-0.113333333
463,122,0.023333333
463,124,-0.113333333
463,125,-0.15
463,126,-0.166666667
463,127,-0.036666667
463,128,-0.083333333
463,129,-0.128866667
463,130,-0.153333333
463,131,-0.156666667
463,132,-0.193333333
463,133,-0.38
463,136,-1.132833333
463,137,-0.747133333
463,138,-0.098733333
463,140,-0.21
463,141,0.1634
463,142,-0.0133333330000001
463,143,0.146666667
463,144,0.0600000000000001
463,145,0.15
463,150,-0.92
464,56,-1.42
464,57,NaN
464,58,-0.103333333
464,61,-0.203333333
464,63,-0.71
464,65,-0.823333333
464,66,-0.676666667
464,67,-0.746666667
464,70,0.95
464,71,0.243333333
464,72,0.819999999999999
464,73,0.313333332999999
464,75,0.316666667
464,77,-2.54
465,58,0.596666667
465,59,0.976666667
465,60,-0.44
465,61,0.246666667
465,62,0.296666667
465,63,0.59
465,64,0.153333333
465,65,-0.223333333
465,66,0.323333333
465,67,-0.346666667
465,69,-0.296666667
465,71,0.943333333
465,72,1.02
465,73,1.163333333
465,74,0.916666667
465,75,0.016666667
465,76,-1.283333333
465,78,-2.63
465,79,-2.593333333
465,80,-2.53
465,81,-1.786666667
465,83,-1.416666667
465,84,-1.243333333
465,85,-1.26
465,86,-0.62
465,87,-0.883333333
466,56,-0.970000000000001
466,57,-0.98
466,60,-0.890000000000001
466,63,-0.21
466,64,-1.196666667
466,65,-1.023333333
466,66,-0.876666667
466,69,-0.896666667
466,70,-0.0999999999999996
466,71,0.443333333
466,73,0.713333333
466,74,0.366666667
469,56,-0.470000000000001
469,57,-0.28
469,58,0.096666667
469,59,0.376666667
469,60,0.0599999999999996
469,61,-0.153333333
469,62,-0.0533333329999994
469,63,0.0899999999999999
469,64,-0.346666667
469,65,-0.223333333
469,66,-0.276666667
469,67,-0.826666667
469,69,-0.546666667
469,70,0
469,71,0.143333332999999
469,72,0.52
469,73,0.413333333
469,74,1.216666667
469,75,0.116666667
469,76,-1.483333333
470,57,NaN
470,60,0.159999999999999
470,61,-0.553333332999999
470,64,-0.846666667
470,65,-0.923333333
470,66,-1.076666667
470,67,-0.746666667
470,69,-0.646666667
470,70,0.27
470,72,0.92
470,73,0.913333333
470,74,NaN
470,75,NaN
471,56,-0.970000000000001
471,57,-0.48
471,58,-0.00333333299999961
471,59,0.346666667
471,60,-0.510000000000001
471,61,-0.633333332999999
471,62,-0.483333333
471,63,-0.49
471,64,-0.376666666999999
471,65,-0.323333333
471,66,-0.326666667
472,56,-0.56
472,57,-0.25
472,58,0.216666667
472,59,0.686666667
472,60,0.279999999999999
472,61,0.266666667
472,62,0.616666667000001
472,63,-0.63
472,64,-0.436666667
472,65,0.126666667
472,66,-0.146666667
472,67,-0.896666667000001
472,68,-0.913333333000001
472,69,-0.606666667
472,70,0.100000000000001
472,71,0.623333333
472,72,1.12
472,73,1.573333333
472,74,1.516666667
472,75,0.286666667
472,76,-1.203333333
472,77,-2.07
472,79,-3.043333333
472,80,-2.35
472,82,-0.936666667
472,84,-2.133333333
472,86,-0.58
472,90,-0.463333333
472,92,-0.443333333
472,94,0.327
472,95,0.102666667
472,96,0.213333333
472,97,0.709333333
472,98,0.769666667
472,99,0.169333333
472,100,0.317333333
472,101,0.216166667
472,102,-0.256666666999999
472,103,-1.3426
472,104,-2.326666667
472,105,-2.413333333
472,106,-2.156666667
472,107,-1.721433333
472,108,-2.044966667
472,109,-2.563366667
472,110,-0.974533333
472,111,-0.823333333
472,112,-0.936633333
472,113,-0.800033333
472,114,-0.753333333
472,115,0.086666667
472,116,-0.224933333
472,117,-0.113333333
472,118,-0.154466667
472,120,-0.490333333
472,121,-0.063333333
472,122,0.063333333
472,123,0.076666667
472,125,-0.04
472,126,-0.066666667
472,127,-0.006666667
472,138,-0.623333333
472,139,-0.78
472,140,-0.04
472,141,0.31
472,142,-0.393333333
472,143,-0.283333333
472,145,0.27
472,146,0.21
472,147,0.276666667
472,148,0.276666667
472,149,-0.0700000000000003
472,150,-1.06
475,56,-0.69
475,57,0.0199999999999996
475,58,0.096666667
475,59,0.226666667
475,60,0.0599999999999996
475,61,-0.453333333
475,62,-0.203333333
475,63,-0.51
475,64,-0.646666667
475,65,-0.473333333
475,66,-0.176666667
475,67,-0.946666667000001
475,68,-0.843333333
475,69,-0.646666667
475,71,0.363333333
475,72,0.819999999999999
475,73,0.713333333
475,74,0.816666667
475,76,-1.703333333
475,77,-1.84
475,78,-2.58
475,79,-1.843333333
481,56,-1.27
481,57,-0.83
481,58,-0.603333333
481,59,0.176666667
481,60,-0.11
481,62,-0.503333333
481,63,-0.41
481,64,-0.696666667
481,65,-0.773333333
481,66,-0.676666667
481,67,-1.346666667
481,68,-0.893333333
481,69,-0.646666667
481,70,0.45
481,71,0.793333333
481,74,0.716666667
481,75,-0.0833333329999997
483,56,-2.19
483,57,-1.1
483,60,-0.340000000000001
483,61,0.016666667
483,64,-0.196666667
483,65,-0.273333333
483,66,-0.826666667
483,68,-1.243333333
483,69,-0.496666667
483,71,0.593333332999999
483,74,0.366666667
483,76,-1.683333333
483,78,-3.08
483,79,-1.843333333
483,81,-0.786666667
483,83,-0.166666667
483,84,-0.793333333
483,85,-0.41
483,87,-0.783333333
483,88,-0.493333333
483,89,-0.333333333
483,91,0.446666667
483,92,0.726666667
483,93,0.806333333
483,94,0.703
483,95,0.319666667
483,96,0.486333333
483,97,-0.0536666669999999
483,98,-0.166333333000001
483,99,-0.294666667
483,100,-0.923366667
483,101,-1.063333333
483,102,-0.446666667
483,103,-1.7767
483,104,-3.206666667
483,105,-3.573333333
483,106,-2.756666667
483,107,-1.453333333
483,108,-1.236666667
483,109,-0.626666667
483,110,-0.093333333
483,111,-0.543333333
483,112,-0.643333333
483,113,-0.523333333
483,114,-0.513333333
483,115,-0.783333333
483,116,-0.593333333
483,117,-0.003333333
483,118,-0.296666667
483,119,-0.306666667
483,120,-0.253333333
483,121,0.016666667
483,122,0.033333333
483,123,0.016666667
483,124,0.016666667
483,125,-0.02
483,126,-0.066666667
484,56,-0.32
484,58,-0.403333333
484,59,-0.223333333
484,60,-0.140000000000001
484,62,-0.353333333
484,63,-0.26
484,64,-0.496666667
484,65,-0.173333333
484,66,-0.386666667
484,67,-0.846666667
484,68,-0.773333333
484,69,-0.806666667
484,70,-0.25
484,71,0.293333333
484,72,0.72
484,73,0.863333333
484,74,1.066666667
484,75,0.816666667
484,76,-0.783333333
484,77,NaN
484,79,-3.703333333
484,80,-3.42
484,81,-2.086666667
484,83,-0.586666667
484,84,-0.963333333
484,85,-1.2
484,87,-0.663333333
484,88,-0.423333333
484,89,-0.173333333
484,90,0.086666667
484,91,1.036666667
484,93,1.263333333
484,94,1.06
484,95,1.276666667
484,97,1.153333333
484,98,1.156666667
484,99,0.543333333
484,100,0.233333333
484,101,-0.163333333000001
484,102,-0.546666666999999
484,103,-1.51
484,104,-2.856666667
484,105,-3.483333333
484,106,-2.756666667
484,107,-2.603333333
484,108,-2.986666667
484,109,-3.126666667
484,110,-0.543333333
484,111,-0.693333333
484,112,-0.643333333
484,114,-0.243333333
484,115,-0.263333333
484,116,-0.323333333
484,117,-0.403333333
484,118,-0.326666667
484,119,-0.536666667
484,120,-0.483333333
484,121,-0.413333333
484,123,-0.013333333
484,124,-0.013333333
484,125,-0.07
484,126,-0.106666667
484,127,-0.036666667
484,128,-0.063333333
484,129,-0.086666667
484,131,-0.106666667
484,132,-0.043333333
484,133,-0.06
484,134,0.01
484,136,0.036666667
484,137,0.056666667
484,138,0.196666667
484,139,0.06
484,140,0.22
484,141,0.54
484,142,0.676666667
484,143,0.406666667
484,144,0.51
484,145,0.67
484,146,0.59
484,147,0.516666667
484,148,0.166666667
484,149,-0.15
484,150,-0.52
485,56,-1.32
485,57,-0.73
485,58,0.596666667
485,59,0.126666667
485,60,0.56
485,61,-0.453333333
485,62,0.296666667
485,63,0.0899999999999999
485,64,-1.196666667
485,65,-0.773333333
485,66,-0.926666667
485,67,-0.246666667
485,68,-1.593333333
485,70,0.9
485,77,-2.44
485,78,-1.58
485,79,-2.593333333
485,80,-2.03
485,81,-1.286666667
485,82,0.643333333
485,83,0.583333333
485,84,-1.593333333
485,86,-0.07
485,87,-0.083333333
485,88,-0.333333333
485,89,0.076666667
485,90,0.436666667
485,91,0.806666667
486,56,-1.57
486,57,-0.73
486,58,-0.153333333
486,61,-0.553333332999999
486,62,-0.453333333
486,64,-0.496666667
486,66,-0.576666667
486,67,-1.046666667
486,68,-0.993333333000001
486,74,0.616666667
486,75,-0.183333333
486,76,-2.033333333
488,56,-0.470000000000001
488,57,0.0199999999999996
488,58,-0.00333333299999961
488,59,0.276666667
488,60,-0.54
488,61,-0.653333333
488,62,-0.153333333
488,63,0.0899999999999999
488,64,-0.546666666999999
488,65,-0.523333333
488,66,-0.776666667
488,67,-0.946666667000001
488,69,-0.646666667
488,71,0.543333333
488,73,0.713333333
488,74,0.516666667
488,78,-3.23
488,81,-1.686666667
488,82,-0.656666667
497,69,-0.516666667
497,70,0.600000000000001
497,71,0.643333332999999
497,73,0.823333333
497,76,-1.783333333
497,77,-2.28
497,78,-3.03
497,79,-2.893333333
497,80,-2.07
497,82,NaN
497,84,NaN
497,85,-1.24
497,86,-0.96
497,87,-0.643333333
497,90,0.486666667
497,91,0.106666667
497,92,0.424666667
497,93,0.363333333
497,94,0.697
497,95,0.425666667
497,97,0.337333333
497,98,0.136666667
497,99,0.640333333
497,100,0.0116333329999998
497,101,0.024666667
497,102,-0.312266666999999
497,103,-1.3429
497,104,-2.469166667
497,105,-2.712533333
497,109,-2.806766667
497,110,-0.540533333
498,70,0.95
498,71,0.693333333
498,72,1.12
498,73,1.063333333
498,74,1.066666667
498,75,0.316666667
498,76,-1.233333333
498,77,-1.89
498,78,-2.88
498,79,-2.493333333
498,80,-1.53
498,81,-1.636666667
498,82,-0.506666667
498,83,-1.066666667
498,85,-1.26
498,86,-0.52
498,87,-0.683333333
498,89,NaN
498,90,NaN
498,92,NaN
498,93,NaN
498,94,NaN
498,95,NaN
498,99,1.553333333
498,102,0.153333333
498,104,-1.706666667
498,106,-2.006666667
498,107,-0.603333333
498,112,-0.243333333
498,113,-0.103333333
498,114,-0.043333333
498,115,-0.363333333
498,116,-0.623333333
498,117,-0.103333333
498,118,-0.126666667
498,119,-0.186666667
498,120,NaN
498,121,-0.013333333
498,122,0.053333333
499,72,0.619999999999999
499,73,1.313333333
499,74,0.716666667
499,75,-0.233333333
499,77,-2.54
499,78,-3.33
499,79,-2.693333333
499,80,-2.48
499,81,-1.366666667
499,82,-0.956666667
499,83,-0.666666667
500,73,0.213333333
500,74,0.286666667
500,75,0.0366666669999995
500,76,-1.813333333
500,77,NaN
500,78,-3.13
500,79,-2.943333333
500,80,-2.31
500,81,-1.536666667
500,83,-1.226666667
500,84,-1.343333333
500,85,-1.25
500,86,-0.69
500,87,-0.533333333
500,88,-0.763333333
502,72,1.12
502,73,1.313333333
502,74,NaN
502,76,-1.183333333
502,77,-2.54
502,78,-2.83
502,79,-2.793333333
502,80,-1.98
502,81,-1.686666667
502,83,-1.266666667
502,84,-1.543333333
502,85,-1.26
502,87,-1.083333333
502,89,-0.0233333330000001
502,91,0.706666667
502,95,0.626666667
504,72,1.02
504,73,0.713333333
504,74,1.116666667
504,75,NaN
504,77,NaN
504,78,NaN
504,79,NaN
504,80,NaN
504,81,NaN
504,82,NaN
504,84,NaN
504,85,NaN
504,86,NaN
504,87,NaN
504,88,NaN
504,89,NaN
504,90,NaN
504,91,NaN
504,92,NaN
504,93,-0.486666667
504,94,-0.44
504,95,0.0266666670000002
504,96,0.343333333
504,97,0.653333333
504,98,0.356666667
504,99,NaN
504,100,NaN
504,101,NaN
504,102,-1.039366667
504,103,-1.4527
504,105,-3.193333333
504,106,-1.576666667
504,107,-2.273333333
504,108,-1.356666667
504,109,-1.396666667
504,110,-0.413333333
504,111,-0.178333333
504,112,-0.103333333
504,113,-0.043333333
504,114,-0.108333333
504,115,0.076666667
504,116,-0.033333333
504,117,-0.258333333
504,118,-0.261666667
504,119,-0.201666667
504,120,-0.098333333
504,121,-0.008333333
504,122,0.083333333
504,123,0.066666667
504,124,0.016666667
504,125,-0.04
504,126,-0.066666667
504,127,0.013333333
504,128,-0.023333333
504,129,-0.006666667
504,130,0.006666667
504,131,-0.046666667
504,132,-0.023333333
504,133,-0.02
504,134,0.02
504,135,0.083333333
504,136,-0.368333333
504,137,-0.299533333
504,138,-0.479833333
504,139,-0.6162
504,140,-0.4162
504,141,-0.3469
504,142,-0.0252333330000001
504,143,-0.344533333
504,144,-0.04
504,145,0.24
504,146,-0.02
504,147,-0.0733333330000003
504,148,-0.343333333
504,149,-0.63
504,150,-1.335
506,72,1.12
506,73,0.713333333
506,74,1.076666667
506,75,0.466666667
506,76,-1.383333333
506,77,-2.74
506,78,-2.83
506,79,-2.593333333
506,80,-1.65
506,82,-0.756666667
506,86,-0.95
506,87,-1.253333333
506,88,-0.513333333
506,89,0.076666667
506,90,0.476666667
506,91,0.606666667
506,92,0.696666667
506,93,0.403333333
506,94,0.59
506,95,0.486666667
506,96,0.443333333
506,97,0.363333333
506,98,0.303666667
506,99,0.323333333
506,100,-0.0266666669999998
506,101,-0.443333333
506,102,-0.196666667
506,104,-2.846666667
506,105,-3.293333333
506,108,-1.079366667
506,110,-0.806633333
506,111,-0.173333333
506,112,-0.293333333
506,114,-0.493333333
506,115,-0.773333333
506,116,-1.153333333
506,118,-0.276666667
506,119,-0.416566667
506,120,-0.393333333
506,122,0.040533333
506,123,0.026666667
506,124,-0.00613333299999999
506,126,-0.076666667
506,127,-0.018866667
506,128,-0.047833333
506,129,-0.056666667
506,130,-0.043333333
506,131,-0.039766667
506,132,-0.049833333
506,133,-0.1271
506,134,-0.5355
506,135,-0.618666667
506,136,-0.466733333
506,137,NaN
506,138,-0.654933333
506,139,-0.3024
506,140,-0.3887
506,141,0.1491
506,142,0.317666667
506,143,0.0128666669999999
506,145,0.3349
507,72,0.619999999999999
507,73,0.713333333
507,74,0.916666667
507,75,0.316666667
507,76,-1.683333333
507,77,-2.14
507,79,-3.693333333
507,80,-3.35
507,81,-2.086666667
507,82,-0.956666667
507,83,-1.066666667
507,84,-1.813333333
507,85,-2.16
507,86,-1.82
507,87,-0.883333333
507,88,-0.683333333
507,89,-0.923333333
507,90,0.236666667
507,91,0.306666667
507,92,0.323666667
507,93,-0.0596666670000001
507,94,0.177
507,95,0.169666667
507,97,0.369333333
507,99,0.153333333
507,100,0.00333333299999961
507,101,-0.0631333330000006
507,102,-0.646666667
507,103,-1.6933
507,104,-3.006666667
507,105,-3.523333333
507,106,-2.356666667
507,107,-2.103333333
507,108,-1.476666667
507,110,-0.843333333
507,111,-0.393333333
507,112,-0.476633333
507,114,-0.135033333
507,115,-0.213333333
507,116,-0.706633333
507,117,-0.153333333
507,118,-0.156666667
507,119,-0.189966667
507,120,-0.350033333
507,121,-0.013333333
507,122,-0.046666667
507,123,0.006666667
507,124,-0.00333333299999999
507,125,-0.06
507,126,-0.066666667
507,127,-0.036666667
507,128,-0.033333333
507,129,-0.033666667
507,130,-0.033333333
507,131,-0.076666667
507,133,-0.18
507,134,-0.335
507,135,-0.426666667
507,136,-0.163333333
507,138,-0.383333333
507,139,-0.0817000000000001
507,140,-0.0725
507,141,0.015
507,142,0.036666667
507,144,0.11
507,145,0.4233
507,146,0.427
507,149,-0.35
507,150,-0.67
508,72,0.6
508,73,0.533333333
508,74,0.696666667
508,75,0.616666667
508,76,-1.683333333
508,77,-2.24
508,78,NaN
508,79,-3.163333333
508,80,NaN
508,81,-1.896666667
508,82,-0.856666667
508,83,-1.346666667
508,84,-2.423333333
508,85,-1.62
508,86,-0.73
508,88,NaN
508,90,-0.0733333330000001
508,92,0.349666667
508,93,0.576333333
508,94,0.508
508,95,-0.0773333329999999
508,96,0.894333333
508,97,0.684333333
508,98,0.350666667
508,99,-0.435666667
508,100,0.149133333
508,103,-1.2063
508,104,-2.618466667
508,105,-2.805533333
508,106,-2.557566667
508,107,-1.858933333
508,108,-2.175266667
508,110,-0.953133333
508,111,-0.559133333
508,112,-0.570533333
508,114,-0.358933333
508,115,-0.577433333
508,118,-0.268066667
508,119,-0.254466667
508,120,-0.728333333
508,122,-0.106766667
508,123,0.006666667
508,124,-0.022633333
508,125,-0.05
508,128,-0.033333333
508,130,-0.127633333
508,131,-0.056666667
508,132,-0.053333333
508,133,-0.08
508,135,-0.576666667
508,137,-0.743333333
508,138,-0.455033333
508,139,-0.6672
508,140,-0.1859
508,141,0.1609
508,142,0.257966667
508,143,0.265366667
508,144,0.16
508,145,0.1864
508,146,0.409
508,147,0.145666667
508,148,0.160966667
508,149,-0.3747
508,150,-0.8748
510,72,0.52
510,73,0.913333333
510,74,1.016666667
510,75,0.216666667
510,76,-1.183333333
510,77,-1.34
510,79,-2.393333333
510,80,-2.28
510,81,-2.286666667
510,83,-1.666666667
510,84,-2.643333333
510,86,-2.57
510,87,-1.783333333
510,89,-1.423333333
510,92,-0.463333333
510,93,-0.136666667
510,94,-0.04
510,95,0.126666667
510,96,0.793333333
510,97,0.703333333
510,98,1.106666667
510,99,0.503333333
510,100,0.233333333
510,101,0.0366666669999995
510,102,0.00333333300000049
510,103,-0.61
510,104,-2.206666667
510,105,-2.373333333
510,106,-2.306666667
510,107,-2.203333333
510,108,-1.586666667
510,109,-1.826666667
510,110,-1.343333333
510,111,-0.643333333
510,112,-0.293333333
510,113,-0.353333333
510,114,-0.643333333
510,115,-0.623333333
510,116,-1.573333333
510,120,-1.233333333
510,121,-1.163333333
510,122,-0.076666667
510,123,-0.073333333
510,124,NaN
510,125,-0.06
510,126,-0.166666667
510,127,-0.076666667
510,128,-0.053333333
510,129,-0.146666667
510,130,-0.133333333
510,131,-0.176666667
510,132,-0.223333333
510,133,-0.73
510,134,-0.96
510,135,-1.126666667
510,136,-0.713333333
510,137,-0.993333333
510,138,-0.453333333
510,139,-0.15
510,140,-0.41
510,141,-0.01
510,142,-0.163333333
510,143,-0.0933333330000001
510,144,0.16
510,145,0.0900000000000001
510,146,0.24
510,147,0.436666667
510,148,0.186666667
510,149,-0.1
510,150,-0.52
512,74,1.216666667
512,75,0.816666667
512,76,-0.983333333
512,77,-1.74
512,78,-2.83
512,79,-2.593333333
512,80,-1.88
512,81,-2.286666667
512,82,-0.656666667
512,83,-2.066666667
512,84,-1.793333333
512,85,-0.86
512,86,-1.07
512,87,-0.633333333
512,88,-0.383333333
512,89,-0.323333333
512,90,0.286666667
512,91,0.906666667
512,92,0.536666667
512,93,1.013333333
512,95,0.076666667
512,96,0.593333333
512,97,0.203333333
512,98,-0.493333333000001
512,99,-0.596666667
512,100,-0.116666667
512,101,-0.463333333
512,102,-0.896666667
512,103,-1.81
512,104,-3.166666667
512,105,-3.373333333
512,106,-2.716666667
512,107,-1.503333333
512,108,-1.636666667
512,109,-1.856666667
512,110,-0.873333333
512,111,-0.363333333
512,112,-0.643333333
512,113,-1.013333333
512,124,-0.00333333299999999
512,126,-0.136666667
512,127,-0.166666667
512,128,-0.053333333
512,129,-0.056666667
512,130,-0.073333333
512,131,-0.126666667
512,132,-0.073333333
512,133,-0.11
512,134,-0.12
512,135,0.093333333
512,136,0.036666667
512,137,0.00666666700000001
512,139,0.18
512,141,0.64
512,142,0.536666667
512,143,0.586666667
512,144,0.49
512,145,0.61
512,146,0.57
516,79,-2.593333333
516,80,-1.38
516,81,-1.886666667
516,82,-0.706666667
516,83,-1.266666667
516,84,-2.443333333
516,85,-1.36
516,86,-1.42
516,87,-0.933333333
516,88,-0.123333333
516,90,0.136666667
516,91,0.156666667
516,93,-0.186666667
516,94,-0.19
516,95,-0.123333333
516,96,0.293333333000001
516,97,0.253333333
516,98,0.306666667
516,99,-0.0716666669999997
516,100,0.158333333
516,101,-0.488333333
516,102,-0.371666667
516,103,-1.36
516,104,-2.856666667
516,105,-3.394933333
516,106,-2.306666667
516,107,-1.453333333
516,108,-1.786666667
516,109,-1.376666667
516,110,-0.143333333
516,111,-0.043333333
516,112,-0.043333333
516,113,-0.053333333
516,114,0.056666667
516,115,-0.063333333
516,116,-0.173333333
516,118,-0.176666667
516,119,-0.186666667
516,120,-0.233333333
516,121,-0.113333333
518,80,-1.63
518,81,-1.986666667
518,82,-0.186666667
518,83,-0.786666667
518,84,-1.543333333
518,85,-0.64
518,86,-0.47
518,88,-0.763333333
518,89,0.056666667
518,90,0.306666667
518,91,0.436666667
518,92,0.715666667
518,93,0.435333333
518,94,0.384
518,95,0.268666667
518,96,0.442333333
518,97,0.363333333
518,98,0.110666666999999
518,99,0.300333333
518,100,0.102333333
518,101,-0.0983333330000002
518,103,-0.9815
518,104,-2.374466667
518,105,-2.636233333
518,106,-2.404866667
518,107,-1.971333333
518,109,-2.426666667
518,110,-1.203133333
518,111,-0.704433333
518,112,-0.213933333
518,113,-0.286033333
518,114,-0.314233333
518,115,-1.028833333
518,116,-1.210933333
518,117,-0.536933333
518,118,-0.340866667
518,119,-0.422066667
518,120,-0.451533333
518,121,0.034566667
518,122,-0.058266667
518,123,0.079566667
518,124,0.059166667
518,125,0.0212
518,126,-0.000666667000000003
518,127,0.016233333
518,128,-0.025733333
518,129,-0.016666667
518,130,-0.027633333
518,132,-0.044233333
518,133,-0.1106
518,134,-0.1641
518,135,-0.440366667
518,136,-0.353733333
518,137,-0.747933333
518,138,-0.278033333
518,139,-0.11
518,140,-0.01
518,141,0.319
518,142,0.223766667
518,143,0.456666667
518,144,0.4172
518,145,0.3473
518,146,0.4105
518,147,0.540066667
518,148,0.340466667
518,149,0.0498999999999996
518,150,-0.5886
519,82,-1.006666667
519,83,-1.916666667
519,84,-2.173333333
519,85,-1.38
519,86,NaN
519,87,-1.053333333
519,88,-1.733333333
519,89,-0.503333333
519,90,-0.533333333
519,91,0.226666667
519,92,0.416666667
519,93,0.373333333
519,96,0.531333333
519,97,0.342333333
519,98,0.304666666999999
519,99,0.493333333
519,100,0.303333333
519,101,-0.283333333
519,103,-1.55
519,104,-2.696666667
519,105,-3.213333333
519,106,-2.646666667
519,107,-1.663333333
519,108,-1.898966667
519,109,-2.226666667
519,110,-0.893333333
520,83,-1.746666667
520,84,-2.113333333
520,85,-2.26
520,86,-1.17
520,87,-1.203333333
520,88,-1.533333333
520,89,-0.323333333
520,91,0.806666667
520,92,0.436666667
520,93,0.463333333
520,94,0.36
520,95,-0.0733333329999999
520,97,0.603333333
520,98,0.706666666999999
520,100,-0.116666667
520,101,-0.263333333
520,102,-0.596666667
520,103,-1.51
520,104,-2.856666667
520,106,-2.406666667
520,107,-2.203333333
520,108,-1.886666667
520,109,-2.026666667
520,110,-1.343333333
520,111,-1.193333333
520,112,-0.393333333
520,113,-0.603333333
520,114,-0.343333333
520,115,-0.563333333
520,116,-0.873333333
520,117,-0.303333333
520,118,-0.196666667
520,119,-0.236666667
520,120,-0.283333333
520,121,-0.113333333
520,122,-0.096666667
520,123,-0.013333333
520,124,-0.063333333
520,125,-0.15
520,126,-0.166666667
520,127,-0.086666667
520,128,-0.153333333
520,129,-0.166666667
520,130,-0.173333333
520,131,-0.076666667
520,132,-0.073333333
520,133,NaN
520,134,-0.16
520,135,-0.476666667
520,136,-0.463333333
520,137,-0.743333333
520,138,-0.153333333
520,139,-0.47
520,140,-0.16
520,141,0.14
521,83,NaN
521,84,-2.043333333
521,85,-0.76
521,86,-0.47
521,87,NaN
521,88,NaN
521,90,0.536666667
521,91,1.006666667
521,92,0.886666667
521,93,0.213333333
521,94,NaN
521,95,0.326666667
521,96,0.243333333
521,97,0.603333333
521,98,NaN
521,99,0.253333333
521,100,-0.266666667
521,101,-0.813333333
521,102,-0.996666667
521,103,-1.71
521,104,-3.099966667
521,105,-3.323333333
521,106,-2.206666667
521,107,-2.103333333
521,108,-1.186666667
521,109,-1.293366667
523,87,-1.283333333
523,88,-0.583333333
523,90,NaN
523,93,-0.836666667
523,94,0.86
523,97,1.393333333
523,98,0.806666667
523,101,-0.363333333
523,102,-1.106666667
523,107,-3.233333333
523,108,-2.486666667
523,109,-2.986666667
523,120,-1.443333333
523,123,0.056666667
523,136,-1.473333333
523,138,0.216666667
523,140,-1.52
523,141,-0.32
523,143,0.367666667
523,148,NaN
523,150,-0.48
524,87,-1.083333333
524,89,-0.323333333
524,90,-0.813333333
524,91,-0.793333333
524,92,0.256666667
524,93,-0.436666667
524,94,0.39
524,95,0.526666667
524,96,0.653333333
524,97,0.403333333
524,99,0.540333333
524,100,0.153333333
524,101,0.0182666669999998
524,102,-0.502066666999999
524,103,-1.4487
524,104,-2.456666667
524,105,-2.703333333
524,106,-2.812266667
524,107,-1.933333333
524,108,-1.442866667
524,110,-0.357733333
524,111,-0.143333333
524,112,-0.083333333
524,113,-0.043333333
524,114,-0.283333333
524,115,-0.503333333
524,116,-0.703333333
524,118,-0.956666667
524,119,-0.946666667
524,120,-0.853333333
524,121,-0.363333333
524,122,0.00333333299999999
524,123,-0.00333333299999999
524,124,-0.023333333
524,125,-0.06
524,126,-0.076666667
524,127,-0.040466667
524,128,-0.043333333
524,129,-0.046666667
524,130,-0.063333333
524,131,-0.086666667
524,132,-0.113333333
524,133,-0.28
524,134,-0.22
524,135,-0.991066667
524,138,-1.203333333
524,139,-0.5075
524,140,-0.4
524,145,0.0559000000000001
524,146,0.2644
524,149,-0.4349
526,89,-0.0533333329999999
526,90,0.306666667
526,92,0.762666667
526,93,0.760333333
526,94,0.917
526,95,0.448666667
526,96,0.422333333
526,97,0.726333333
526,98,0.672666667
526,99,0.670333333
526,100,0.578333333
526,101,-0.00833333300000039
526,102,-0.191366667
526,103,-1.359
526,104,-2.703666667
526,105,-3.123033333
526,106,-1.962666667
526,107,-1.917333333
526,108,-0.977666667
526,109,-0.932666667
526,111,-0.002133333
526,112,-0.330033333
526,118,-0.126666667
526,119,-0.126666667
526,120,-0.093333333
526,122,-0.036766667
526,125,-0.11
526,126,-0.126666667
526,127,-0.095666667
526,128,-0.107333333
526,130,-0.112333333
526,132,-0.160333333
526,133,-0.426
526,134,-0.406
527,93,-0.416666667
527,94,0.46
527,95,0.126666667
527,96,0.343333333
527,97,0.253333333
527,98,0.306666667
527,99,0.403333333
527,100,-0.266666667
527,101,-0.0633333330000001
527,102,-0.346666667
527,103,-1.51
527,104,-2.356666667
527,105,-3.323333333
527,106,-2.006666667
527,107,-1.253333333
527,109,-2.176666667
527,110,-1.193333333
527,112,-0.093333333
527,113,-0.083333333
527,114,-0.343333333
527,115,-0.813333333
527,116,-1.143333333
527,117,-0.103333333
527,118,-0.126666667
527,119,-0.126666667
527,120,-0.483333333
527,121,0.036666667
527,122,0.043333333
527,123,0.056666667
527,124,0.006666667
527,125,-0.04
527,126,-0.066666667
527,127,-0.016666667
527,128,-0.033333333
527,130,-0.053333333
527,131,-0.106666667
527,133,-0.38
527,134,-0.29
527,135,-0.326666667
527,136,-0.313333333
527,137,-0.643333333
527,139,-0.32
527,141,0.31
527,142,0.236666667
527,143,0.00666666699999996
527,144,0.31
527,145,0.44
527,146,0.39
528,95,NaN
528,96,NaN
528,97,NaN
528,98,NaN
528,99,NaN
528,100,NaN
528,101,NaN
528,102,NaN
528,103,NaN
528,104,NaN
528,105,NaN
528,106,NaN
528,107,NaN
528,108,NaN
528,109,NaN
528,110,NaN
528,111,NaN
528,112,-0.348333333
528,113,-0.803333333
528,114,-0.891033333
528,115,-0.833333333
528,116,-1.253333333
528,117,-0.503333333
528,118,-0.176666667
528,119,-0.296666667
528,127,-0.046666667
528,128,-0.013333333
528,129,-0.066666667
528,137,-0.518333333
528,138,-0.818333333
528,139,-0.595
528,141,0.615
528,149,-0.4681
528,150,-0.7983
532,96,0.0933333330000004
532,97,0.203333333
532,98,0.506666666999999
532,99,0.203333333
532,100,-0.016666667
532,101,-1.263333333
532,102,-1.196666667
532,103,-1.91
532,104,-3.256666667
532,105,-3.673333333
532,106,-2.206666667
532,107,-2.403333333
532,108,-2.086666667
532,109,-2.326666667
532,110,-1.093333333
532,111,-0.143333333
532,114,-0.843333333
532,115,-0.863333333
532,116,-0.073333333
532,117,-0.153333333
532,118,-0.176666667
532,119,-0.186666667
532,120,-0.233333333
532,121,-0.213333333
532,122,0.00333333299999999
532,123,-0.013333333
532,124,-0.013333333
532,125,-0.05
532,126,-0.066666667
532,127,-0.036666667
532,128,-0.053333333
532,129,-0.066666667
532,130,-0.073333333
532,131,-0.076666667
532,132,-0.073333333
532,133,-0.08
532,136,-0.213333333
532,138,-0.603333333
532,139,0.03
532,140,-0.31
532,142,0.436666667
532,143,NaN
532,144,0.26
532,145,0.54
532,146,0.64
532,147,0.416666667
532,148,0.186666667
532,149,-0.4
532,150,-1.02
533,96,0.893333333
533,97,0.703333333
533,98,0.656666667
533,99,0.653333333
533,101,0.336666666999999
533,103,-1.11
533,105,-2.873333333
533,109,-1.326666667
533,120,-0.183333333
533,125,0.04
533,132,-0.023333333
533,134,-0.21
533,136,-0.513333333
533,137,-0.593333333
533,138,-0.00333333299999999
533,139,0.08
533,140,-0.03
533,147,0.516666667
535,96,-0.116666667
535,97,-0.236666667000001
535,98,-0.183333333
535,99,-0.476666667
535,100,-0.416666667
535,101,-0.573333333
535,102,-0.796666666999999
535,103,-1.91
535,104,-3.406666667
535,105,-3.973333333
535,106,-2.906666667
535,107,-1.403333333
535,108,-1.686666667
535,109,-2.126666667
535,110,-0.743333333
535,111,-0.393333333
535,112,-0.493333333
535,113,-0.603333333
535,115,-2.613333333
535,116,-0.673333333
535,117,-0.303333333
535,118,-0.176666667
535,119,-0.586666667
535,120,-1.633333333
535,122,0.063333333
535,123,0.056666667
535,124,-0.013333333
535,125,-0.1
535,127,-0.026666667
535,128,-0.043333333
535,130,-0.063333333
535,131,-0.076666667
535,132,-0.083333333
535,133,-0.28
535,134,-0.69
535,136,-0.673333333
535,137,-1.143333333
535,138,-1.133333333
535,139,-1.07
535,140,-0.39
535,141,-0.11
535,142,-0.213333333
535,143,-0.293333333
535,144,-0.14
535,145,0.15
535,146,0.12
535,147,0.106666667
535,148,-0.133333333
535,149,-0.5
535,150,-1.01
538,96,-0.366666667
538,97,-0.246666667
538,98,0.00666666699999929
538,100,-0.466666667
538,105,-3.323333333
538,110,-0.593333333
538,111,-0.443333333
538,112,-0.193333333
538,115,-0.013333333
538,119,-0.146666667
539,96,-0.306666667
539,97,-0.196666667000001
539,98,-0.0933333330000004
539,99,-0.096666667
539,100,-0.516666667
539,101,-0.763333333
539,102,-1.396666667
539,103,-2.31
539,104,-3.356666667
539,106,-3.006666667
539,107,-1.703333333
540,101,-1.123333333
540,102,-1.186666667
540,103,-1.99
540,104,-3.416666667
540,105,-3.413333333
540,106,-2.416666667
540,107,-1.923333333
540,108,-2.006666667
540,109,-2.356666667
540,110,-1.773333333
540,111,-0.343333333
540,112,-0.403333333
540,113,-0.413333333
540,114,-0.443333333
540,115,-0.373333333
540,116,-0.503333333
540,117,-0.333333333
540,118,-0.206666667
540,119,-0.236666667
540,120,-0.313333333
540,121,-0.343333333
540,122,-0.216666667
540,123,-0.013333333
540,124,-0.063333333
540,125,-0.1
540,126,-0.186666667
540,127,-0.106666667
540,128,-0.113333333
540,129,-0.076666667
540,130,-0.103333333
540,138,-0.443333333
541,96,0.643333333
541,97,0.703333333
541,98,0.406666667
541,99,NaN
541,100,NaN
541,101,-0.0133333330000003
541,102,NaN
541,103,-1.46
541,104,-3.206666667
541,105,-3.723333333
541,107,NaN
541,108,NaN
541,109,NaN
541,111,NaN
541,112,NaN
541,114,-0.043333333
541,115,-0.063333333
541,116,-0.473333333
541,118,-0.136666667
542,96,NaN
542,97,0.603333333
542,98,0.507666667
542,99,0.369333333
542,100,-0.296666667
542,102,-1.263566667
542,103,-2.08
542,104,-3.456666667
542,105,-3.886933333
542,106,-2.912466667
542,107,-2.203333333
542,108,-1.984666667
542,109,-2.689466667
542,110,NaN
542,111,-0.243333333
542,112,-0.093333333
542,115,-0.563333333
542,116,-0.873333333
542,118,-0.126666667
542,119,-0.136666667
542,120,-0.133333333
542,121,-0.113333333
542,122,0.00333333299999999
542,123,0.076666667
542,124,-0.013333333
542,125,-0.05
542,126,-0.066666667
542,127,-0.036666667
542,128,-0.053333333
542,129,-0.066666667
542,130,-0.073333333
542,131,-0.076666667
542,132,-0.073333333
542,133,NaN
542,134,NaN
542,135,NaN
542,136,NaN
542,137,NaN
542,138,NaN
542,139,NaN
542,140,NaN
542,141,NaN
542,143,NaN
542,145,-0.26
542,146,NaN
542,150,NaN
543,96,0.533333333
543,97,0.475333333
543,98,0.346666667
543,99,NaN
543,100,0.222533333
543,101,-0.225833333000001
543,102,-0.659166667
543,103,-1.5539
543,104,-2.891366667
543,105,-3.144033333
543,106,-2.657666667
543,107,-1.990233333
543,108,-1.531366667
543,109,-2.435566667
543,110,-0.540533333
543,111,-0.317233333
543,112,-0.098733333
543,113,-0.113733333
544,96,0.393333333
544,97,0.353333333
544,98,0.346666667
544,99,0.00333333299999961
544,100,-0.116666667
544,101,-0.463333333
544,102,-0.646666667
544,103,-1.58
544,104,-2.916666667
544,105,-3.323333333
544,106,-2.586666667
544,108,-1.636666667
544,110,-0.293333333
544,111,-0.313333333
544,112,-0.153333333
546,97,0.353333333
546,98,-0.293333333000001
546,99,-0.446666667
546,100,-0.366666667
546,101,-0.863333333
546,102,-1.196666667
546,103,-2.16
546,104,-2.856666667
546,105,-3.373333333
546,106,-2.606666667
546,107,-1.903333333
546,108,-1.386666667
546,109,-2.226666667
546,110,-0.943333333
546,111,-0.343333333
546,112,-0.493333333
546,114,-0.843333333
546,115,-0.813333333
546,116,-0.823333333
546,117,-0.103333333
546,118,-0.126666667
546,120,-0.933333333
546,121,-0.013333333
546,122,0.053333333
546,123,0.036666667
546,124,-0.013333333
546,125,-0.05
546,126,-0.066666667
546,127,-0.036666667
546,128,-0.053333333
546,129,-0.066666667
546,130,-0.073333333
546,131,-0.126666667
546,132,-0.173333333
546,133,-0.43
546,134,-0.56
546,135,-0.676666667
546,136,-0.563333333
546,137,-0.743333333
546,138,-0.553333333
546,139,-0.67
546,140,-0.31
546,141,0.19
546,142,0.236666667
546,143,0.106666667
546,144,0.11
546,145,0.14
546,146,0.0900000000000001
546,147,0.216666667
546,148,-0.0133333329999998
546,149,-0.45
546,150,-1.62
548,97,0.383333332999999
548,98,0.303666667
548,99,-0.198666667
548,100,-0.222066667
548,101,-0.654533333000001
548,102,-0.0892666669999995
548,103,-1.1912
548,104,-2.930566667
548,105,-3.339433333
548,106,-3.025966667
548,107,-1.403333333
548,108,-1.745966667
548,109,-2.800166667
548,110,-0.995933333
548,111,NaN
548,112,-0.297633333
548,114,-0.541033333
548,115,-1.510933333
548,116,-1.586633333
548,118,-0.300666667
548,119,-0.335766667
548,120,-0.661133333
548,122,0.020633333
548,123,0.043866667
548,124,0.00736666700000001
548,125,-0.031
548,126,-0.085666667
548,127,-0.015466667
548,128,-0.044933333
548,129,-0.077166667
548,130,-0.057833333
548,131,-0.034766667
548,132,-0.036533333
548,133,-0.2259
548,134,-0.31
548,135,-0.206666667
548,136,-0.00333333299999999
548,137,-0.303333333
548,138,-0.423333333
548,139,-0.53
548,140,-0.17
548,141,-0.08
548,142,0.316666667
548,143,-0.103333333
548,144,0.39
548,145,0.37
548,146,0.34
548,147,0.536666667
548,148,0.0666666670000002
549,99,0.653333333
549,100,1.083333333
549,101,0.836666667
549,102,0.103333333
549,103,-0.31
549,104,-2.156666667
549,105,-2.973333333
549,106,-2.206666667
549,107,-1.603333333
549,108,-1.186666667
549,109,-1.426666667
549,110,-0.693333333
549,111,-0.143333333
549,112,-0.243333333
549,113,-0.353333333
549,114,-0.093333333
549,115,-0.363333333
549,116,-0.973333333
549,117,-0.323333333
549,118,-0.226666667
549,119,NaN
549,120,NaN
549,121,NaN
549,122,NaN
549,123,NaN
549,124,NaN
549,125,NaN
549,126,NaN
549,127,NaN
549,128,NaN
549,129,NaN
549,130,NaN
549,131,NaN
549,132,-0.053333333
549,133,-0.06
549,134,-0.26
549,135,-0.586666667
549,136,-0.263333333
549,137,-0.403333333
549,138,-0.183333333
549,139,-0.36
549,140,-0.0600000000000001
549,141,NaN
549,142,0.336666667
549,143,0.426666667
549,144,0.37
549,145,0.51
549,146,0.32
549,147,0.216666667
549,148,0.056666667
549,149,-0.14
549,150,-0.79
553,106,-2.806666667
553,107,-3.403333333
553,108,-1.986666667
553,109,-2.126666667
553,110,-0.343333333
553,111,-0.243333333
553,112,-0.393333333
553,114,-0.343333333
553,115,-0.663333333
553,116,-0.873333333
553,119,-0.126666667
553,120,-0.183333333
553,122,0.043333333
553,123,0.076666667
553,124,0.006666667
553,125,-0.05
553,126,-0.076666667
553,127,-0.236666667
553,128,-0.053333333
553,129,-0.116666667
553,130,-0.123333333
553,131,-0.086666667
553,132,-0.073333333
553,133,-0.18
553,134,-0.46
553,135,-0.676666667
553,137,-0.453333333
553,138,-0.603333333
553,139,-0.72
553,140,-0.56
553,141,0.13
553,142,0.206666667
553,143,0.106666667
553,145,0.44
553,146,0.37
553,147,0.164666667
553,148,0.0346666670000002
553,149,-0.3
555,106,-2.306666667
555,107,-2.503333333
555,108,-1.986666667
555,109,-1.726666667
555,110,-0.543333333
555,111,-0.343333333
555,112,-0.293333333
555,113,-0.253333333
555,114,-0.043333333
555,115,-0.413333333
555,116,-1.073333333
555,117,-0.253333333
555,118,-0.276666667
555,119,-0.286666667
555,120,-0.533333333
555,121,-0.163333333
555,122,-0.046666667
555,123,-0.063333333
555,125,-0.15
555,126,-0.166666667
555,127,-0.236666667
555,128,-0.153333333
555,129,-0.166666667
555,130,-0.123333333
555,131,-0.176666667
555,133,-0.54
555,134,-0.76
555,135,-0.885966667
555,136,-0.863333333
555,137,-0.893333333
555,138,-0.603333333
555,139,-0.75
555,140,-0.32
555,141,0.11
555,142,0.196666667
555,143,0.186666667
555,144,0.11
555,145,0.24
555,146,0.37
555,147,0.166666667
555,148,-0.213333333
555,149,-0.3
555,150,-1.07
557,107,-2.620033333
557,108,-2.036666667
557,109,-1.976666667
557,110,-1.048333333
557,111,-0.294533333
557,112,-0.118033333
557,113,-0.088033333
557,114,0.096666667
557,115,-0.049933333
557,116,-0.453333333
557,118,-0.272166667
557,119,-0.319666667
557,120,-0.323333333
557,121,-0.773333333
557,122,-0.286666667
557,123,NaN
557,124,-0.093333333
557,125,-0.15
557,126,-0.166666667
557,127,-0.186666667
557,128,-0.093333333
557,129,-0.096666667
557,130,-0.163333333
557,131,-0.176666667
557,132,-0.113333333
557,133,-0.03
557,134,-0.13
557,135,-0.076666667
557,136,-0.133333333
557,137,-0.323333333
557,138,-0.493333333
557,139,-0.24
557,140,-0.41
557,141,0.3379
557,142,0.186666667
557,143,0.146666667
557,144,0.0533000000000001
557,145,0.489
557,146,0.3475
557,147,0.396666667
557,148,-0.180033333
557,149,-0.5067
557,150,-1.0633
558,112,-0.264533333
558,114,-0.034033333
558,115,-0.128833333
558,116,-0.318333333
558,117,-0.712333333
558,118,-0.497666667
558,119,-0.623866667
558,120,-0.747833333
558,121,-0.258133333
558,122,-0.249166667
559,109,-1.826666667
559,111,NaN
559,116,-0.873333333
559,120,-0.933333333
559,122,NaN
559,123,0.036666667
559,124,-0.013333333
559,125,-0.05
559,126,-0.066666667
559,127,-0.036666667
559,128,-0.053333333
559,131,-0.176666667
559,132,-0.093333333
559,133,-0.1
559,134,-0.71
559,135,-0.396666667
559,136,-0.613333333
559,137,-0.503333333
559,138,-0.453333333
559,140,-0.19
559,141,0.16
559,142,0.206666667
559,144,0.24
559,146,0.7
559,147,0.296666667
559,149,-0.3
560,110,-2.093333333
560,111,-0.943333333
560,112,-0.893333333
560,113,-0.853333333
560,114,-0.743333333
560,115,-0.763333333
560,116,-0.773333333
560,117,-0.853333333
560,118,NaN
560,119,NaN
560,122,-0.396666667
560,125,-0.1072
560,126,-0.066666667
560,127,-0.309666667
560,129,-0.126666667
560,134,NaN
560,136,0.136666667
560,137,-0.093333333
560,142,NaN
560,143,NaN
563,116,-0.173333333
563,117,-0.173333333
563,118,-0.216666667
563,119,-0.146666667
563,120,-0.093333333
563,121,0.016666667
563,122,0.063333333
563,123,0.066666667
563,124,-0.023333333
563,125,-0.08
563,126,-0.106666667
563,127,-0.046666667
563,128,-0.053333333
563,129,-0.056666667
563,130,-0.033333333
563,131,-0.066666667
563,132,-0.053333333
563,133,-0.05
563,134,-0.03
563,135,0.033333333
563,136,0.186666667
563,137,-0.243333333
563,138,-0.303333333
563,139,0.28
563,140,0.26
563,141,0.49
563,142,0.666666667
563,143,0.656666667
563,144,0.56
563,145,0.54
563,146,0.74
563,147,0.616666667
563,148,0.486666667
563,149,0.0999999999999996
563,150,-0.42
568,119,-0.126666667
568,120,-0.063333333
568,121,0.036666667
568,122,0.083333333
568,123,0.076666667
568,124,0.016666667
568,125,-0.02
568,126,-0.066666667
568,127,-0.036666667
568,128,-0.053333333
568,130,-0.023333333
568,131,-0.026666667
568,132,-0.023333333
568,133,-0.18
568,134,-0.46
568,135,-0.376666667
568,136,-0.213333333
568,137,-0.493333333
568,138,-0.853333333
568,139,-0.32
568,140,-0.0600000000000001
568,141,0.27
568,142,0.286666667
568,143,0.206666667
568,144,0.31
568,145,0.49
568,146,0.54
568,147,0.116666667
568,148,-0.113333333
568,149,-0.28
568,150,-0.72
569,123,-0.113333333
569,124,-0.113333333
569,126,-0.066666667
569,127,-0.036666667
569,128,-0.053333333
569,130,-0.073333333
569,132,-0.373333333
569,133,-0.58
569,134,-0.56
569,135,-0.476666667
569,136,-0.613333333
569,137,-0.643333333
569,138,-0.603333333
569,139,-0.57
569,140,-0.61
569,141,-0.31
569,142,-0.0633333330000001
569,143,-0.193333333
569,144,-0.14
569,145,-0.0599999999999998
569,146,0.14
569,147,0.0666666669999998
569,148,-0.113333333
569,149,-0.5
569,150,-1.02
570,126,-0.066666667
570,127,-0.036666667
570,128,-0.053333333
570,129,-0.066666667
570,130,-0.023333333
570,131,-0.046666667
570,132,-0.043333333
570,133,-0.08
570,134,-0.21
570,135,-0.226666667
570,136,-0.363333333
570,137,-0.433833333
570,138,-0.453333333
570,139,-0.3435
570,140,-0.21
570,141,0.39
570,142,0.286666667
570,143,0.154366667
570,144,0.3011
570,145,0.44
570,146,0.64
570,147,0.461466667
570,148,-0.0919333330000001
570,149,-0.1875
570,150,-0.77
572,125,-0.1
572,127,-0.046666667
572,129,-0.066666667
572,130,-0.033333333
572,131,-0.036666667
572,132,-0.073333333
572,133,-0.18
572,134,-0.3
572,135,-0.476666667
572,136,-0.493333333
572,137,-0.523333333
572,138,-0.353333333
572,139,-0.17
572,140,-0.31
572,141,0.36
572,142,0.236666667
572,143,0.026666667
572,144,0.0900000000000001
572,145,0.17
572,146,0.47
572,147,0.386666667
572,148,0.236666667
572,149,-0.43
572,150,-0.92
574,128,-0.053333333
574,129,-0.216666667
574,130,-0.223333333
574,131,-0.176666667
574,132,-0.073333333
574,133,-0.2333
574,134,-0.5133
574,135,-0.763366667
574,136,-0.810033333
574,137,-1.226633333
574,138,-0.903333333
574,139,-0.3333
574,140,-0.4217
574,141,0.0650000000000001
574,142,0.089966667
574,143,-0.0233333330000001
574,144,0.11
574,145,-0.11
574,146,0.1501
574,147,0.116666667
574,148,-0.133333333
574,149,-0.2933
574,150,-0.9933
576,129,-0.006666667
576,130,-0.013333333
576,131,-0.016666667
576,132,-0.043333333
576,136,-0.303333333
576,137,-0.393333333
576,138,-0.703333333
576,139,-0.51
576,140,-0.5
576,141,-0.34
576,142,0.316666667
576,143,0.056666667
576,144,0.17
576,145,0.8879
576,146,0.63
576,147,0.766666667
576,148,0.426666667
576,149,0.22
576,150,-0.79
577,129,-0.066666667
577,130,-0.053333333
577,131,-0.196666667
577,132,-0.053333333
577,133,-0.07
577,134,-0.02
577,135,0.093333333
577,136,0.256666667
577,137,0.216666667
577,139,-0.37
577,140,-0.04
577,142,0.636666667
577,143,-0.123333333
577,145,0.21
577,149,-0.21
577,150,-0.45
578,131,-0.076666667
578,132,-0.073333333
578,133,-0.1967
578,134,-0.69
578,135,-1.026666667
578,136,-0.693733333
578,137,-0.603333333
578,138,-0.563333333
578,139,-0.35
578,140,-0.19
578,141,0.11
578,142,0.176666667
578,143,-0.0733333330000001
578,144,0.1967
578,146,0.4767
578,147,0.203366667
578,148,-0.126633333
578,149,-0.3633
578,150,-0.88
