Bias_data_mat_h41,Bias_data_mat_h42,Bias_data_mat_h43
9,2,-2.093333333
9,3,-2.893333333
9,4,-0.603333333
9,5,0.140000000000001
9,6,1.2
9,7,1.17
9,8,1.296666667
9,9,1.92
9,10,NaN
9,11,-0.416666666999999
9,12,-1.54
9,14,-1.933333333
9,15,-1.803333333
9,16,-1.46
9,17,-3.276666667
9,18,-1.906666667
9,19,-1.363333333
9,21,0.343333332999999
9,22,0.293333333
9,23,-0.276666667
9,24,0.41
9,25,1.21
9,28,2.59
9,29,0.443333333
9,30,0.0533333330000003
12,1,NaN
12,2,NaN
12,4,NaN
12,6,NaN
12,7,1.17
12,8,1.896666667
12,9,2.02
12,10,0.00333333299999872
12,11,-0.916666666999999
12,12,-2.54
12,14,-1.733333333
12,17,-1.676666667
12,18,-1.446666667
12,20,-1.323333333
12,21,0.793333333
12,22,0.563333333
12,23,-0.476666667
12,24,-0.24
12,27,2.09
12,28,1.91
12,31,-1.49
12,32,-1.153333333
12,33,-0.923333333
12,34,-1.01
13,1,NaN
13,2,-6.093333333
13,4,-3.503333333
13,6,-0.0999999999999996
13,8,1.896666667
13,9,2.22
13,10,0.703333333
13,11,-0.516666666999999
13,12,-1.81
13,13,-2.643333333
13,16,-2.56
13,17,-2.576666667
13,18,-2.546666667
13,19,-2.263333333
13,20,-1.843333333
13,22,0.163333333
13,29,0.143333333
15,4,-4.603333333
15,12,-4.54
15,13,-4.393333333
15,15,NaN
15,16,-1.11
15,17,-1.876666667
15,18,-1.946666667
15,20,-0.493333333000001
15,21,0.443333333
15,22,1.113333333
15,23,0.623333333000001
15,24,0.00999999999999979
15,25,0.16
15,26,1.826666667
15,27,1.79
15,28,-0.0899999999999999
15,30,0.00333333299999961
15,31,0.71
15,33,0.226666667
15,34,-0.51
15,35,-1.776666667
16,1,-2.683333333
16,2,-8.093333333
16,3,-4.393333333
16,4,-1.103333333
16,5,-0.859999999999999
16,7,0.67
16,8,1.796666667
16,9,1.42
16,10,-0.496666667000001
16,12,-2.04
19,1,-4.683333333
19,2,-6.093333333
19,3,-5.393333333
19,4,-3.803333333
19,5,-0.859999999999999
19,6,1.8
19,7,1.37
19,8,1.796666667
19,9,1.32
19,10,-0.196666667000001
19,11,-1.016666667
19,12,-3.24
19,13,-4.393333333
19,14,-3.133333333
19,15,-1.603333333
20,2,-5.093333333
20,4,-3.103333333
20,5,-2.86
20,9,1.42
20,11,-0.516666666999999
20,12,-2.54
20,14,-1.333333333
20,15,-1.603333333
20,16,-2.36
20,17,-2.976666667
20,18,-1.746666667
20,19,-1.763333333
20,20,-1.443333333
20,21,-0.256666667
20,23,0.323333333
20,24,0.71
20,26,1.126666667
20,27,2.44
20,28,2.41
20,29,1.843333333
20,32,-0.253333333
20,33,-0.823333333000001
20,35,-1.976666667
20,36,-2.54
20,38,-2.86
20,40,-2.52
20,42,-2.53
20,43,-1.54
20,45,0.603333333
20,46,-0.0299999999999998
20,47,NaN
20,48,1.016666667
20,49,1.506666667
20,50,2.29
20,51,2.676666667
20,52,2.296666667
20,54,0.359999999999999
20,55,-1.08
20,56,-1.08
20,57,-0.523333333
20,58,-0.923333333
20,59,-0.140000000000001
20,61,-0.153333333
20,63,0.0433333330000005
20,64,-0.123333333
20,66,-0.806666667
20,67,-0.683333333
20,69,-0.33
20,70,0.293333333
20,72,1.113333333
20,73,1.616666667
20,74,1.416666667
20,75,-0.383333333
20,76,-2.24
20,77,-2.58
20,78,-4.293333333
20,79,-4.28
20,80,-2.886666667
20,81,-2.056666667
20,82,-1.776666667
20,83,-0.843333333
20,84,-0.74
20,85,-0.79
20,86,-0.713333333
20,87,-0.403333333
20,88,-0.133333333
20,89,0.326666667
20,90,0.996666667
20,91,1.606666667
20,92,1.913333333
20,93,2.06
20,94,2.236666667
20,95,1.493333333
20,98,0.893333333
20,99,1.073333333
20,100,-0.363333333
20,101,-0.416666666999999
20,102,-1.46
20,103,-2.856666667
20,104,-3.333333333
20,105,-3.296666667
20,106,-3.953333333
20,108,-3.356666667
20,109,-2.333333333
20,112,-0.253333333
23,1,-5.283333333
23,2,-4.593333333
23,3,-2.393333333
23,5,-1.36
23,6,1.8
23,8,2.236666667
23,9,2.22
23,10,0.203333333
23,12,-1.64
23,14,-3.333333333
23,15,-4.203333333
23,16,-3.86
23,17,-4.346666667
23,18,-3.046666667
23,20,-1.743333333
23,21,0.643333332999999
30,1,-4.483333333
30,2,-5.093333333
30,3,-4.393333333
30,4,-4.203333333
30,5,-3.66
30,6,1
30,7,0.82
30,8,0.996666667
30,9,-0.279999999999999
30,10,-1.196666667
30,11,-2.316666667
30,12,-3.34
30,13,-3.493333333
30,14,-3.333333333
30,15,-3.603333333
30,16,-4.26
30,17,-2.576666667
30,18,-2.236666667
30,19,-1.663333333
30,20,-1.573333333
30,21,-0.956666667
30,22,-0.186666667
30,23,-0.576666667
30,24,0.0199999999999996
30,25,1.17
30,26,0.626666667
30,27,1.79
30,28,1.46
30,29,0.563333333
30,30,-0.246666667
30,31,-1.34
30,32,-1.003333333
30,33,-1.223333333
30,34,-1.26
30,35,-1.976666667
30,36,-2.74
30,38,-3.26
30,40,-3.52
30,41,-2.916666667
30,42,-2.21
30,43,-1.94
30,44,-1.533333333
30,45,-1.086666667
30,46,-0.24
30,47,-0.856666667
30,48,-0.00333333300000005
30,50,1.28
31,1,0.0166666669999991
31,2,-3.093333333
31,3,-1.193333333
31,4,-0.603333333
31,6,1.05
31,8,2.296666667
31,10,-1.196666667
31,12,-4.34
31,13,-4.893333333
31,14,-4.133333333
31,16,-3.41
31,17,-3.226666667
31,20,-2.643333333
35,1,-3.183333333
35,2,-6.593333333
35,3,NaN
35,4,-3.103333333
35,5,NaN
35,6,-0.399999999999999
35,7,1.67
35,8,2.496666667
35,9,4.02
35,10,1.203333333
35,11,NaN
35,12,NaN
35,14,NaN
35,15,NaN
35,16,-2.66
35,17,-2.976666667
35,18,-2.446666667
35,19,-2.663333333
35,20,-0.883333333
35,21,0.0233333330000001
35,22,0.163333333
35,23,-0.176666667
35,24,0.00999999999999979
35,25,0.71
35,26,1.226666667
35,27,1.94
35,28,1.51
35,29,0.443333333
35,30,-0.246666667
35,31,-1.04
35,32,0.0466666670000002
35,33,0.0766666669999996
35,34,-0.51
35,35,-1.906666667
35,36,-2.46
35,37,-2.423333333
35,38,-2.69
35,39,-2.706666667
35,40,-3.02
35,41,-3.716666667
35,42,-3.03
35,43,-1.34
35,44,-1.733333333
40,1,-3.783333333
40,2,-5.843333333
40,3,-5.393333333
40,4,-4.433333333
40,6,1.11
40,7,1.86
40,8,2.496666667
40,9,1.46
40,10,0.853333332999999
40,11,-0.626666667
40,12,-2.22
40,13,-3.693333333
40,14,-2.033333333
40,15,-0.853333333
40,16,-1.05
40,17,-1.556666667
40,18,-1.706666667
40,19,-1.463333333
40,20,0.466666666999999
40,21,0.463333333
40,22,0.833333333
40,23,-0.336666666999999
40,24,0.46
40,26,1.946666667
40,27,2.62
40,28,1.78
40,30,-0.226666667
40,31,-0.0499999999999998
40,32,0.676666667
40,34,-0.529999999999999
40,35,-1.576666667
40,36,-1.97
40,38,-2.08
40,39,-2.946666667
40,40,-2.17
40,42,-2.42
40,43,-1.65
40,44,-1.643333333
40,46,-0.35
40,47,-0.186666667
40,51,1.896666667
40,52,0.966666667
40,53,0.596666667
40,54,-0.12
40,55,-1.16
40,56,-1.07
40,57,-0.583333333
40,58,-0.133333333
40,59,0.329999999999999
40,60,-0.0433333329999996
40,61,-0.0533333329999994
40,63,0.0233333330000001
40,64,NaN
40,66,-1.026666667
40,67,-0.703333333000001
40,68,-0.646666667
40,70,0.823333333
40,71,1.26
40,72,0.793333333
40,73,1.016666667
40,74,0.896666667
40,75,-0.943333333
40,77,-2.93
40,78,-4.203333333
40,79,-3.7
40,80,-1.996666667
40,81,-1.526666667
40,82,-0.786666667
40,83,-1.083333333
40,84,-1.54
40,85,-1.2
40,86,-0.883333333
40,87,-0.893333333
40,88,-0.483333333
40,89,-0.113333333
40,90,0.306666667
40,91,0.636666667
40,93,0.96
43,1,-2.483333333
43,5,0.640000000000001
43,6,0.300000000000001
43,7,0.92
43,8,1.796666667
43,9,2.32
43,10,0.803333332999999
43,11,-0.316666667
43,12,-4.04
43,13,-4.893333333
43,14,-3.333333333
43,15,NaN
43,16,NaN
43,17,-0.776666667
43,18,-1.466666667
43,19,NaN
43,21,-0.206666667
43,22,-0.336666667
43,23,-1.076666667
43,24,-0.39
43,25,0.51
43,26,0.726666667
43,28,0.00999999999999979
43,29,-0.256666666999999
47,2,-5.093333333
47,3,-5.893333333
47,4,-4.103333333
47,5,-2.06
47,6,-0.199999999999999
47,7,0.27
47,8,0.986666667
47,9,0.32
47,10,-1.096666667
47,11,-1.316666667
51,4,-4.003333333
51,5,0.34
51,6,1.3
51,7,1.67
51,10,0.203333333
51,14,-2.933333333
51,17,-1.876666667
51,19,-1.663333333
51,20,-0.693333333
51,21,0.243333333
51,22,0.683333333
51,23,-0.0766666669999996
51,24,0.21
51,25,0.91
51,26,1.726666667
51,30,0.253333333
51,31,-0.24
51,33,-0.623333333
51,34,-0.51
60,3,-2.193333333
60,4,-2.503333333
60,5,-1.26
60,6,1.4
60,7,2.37
60,8,2.896666667
60,9,2.92
60,10,1.003333333
60,11,-0.116666667000001
60,12,-2.74
60,13,-2.993333333
60,14,-1.833333333
60,16,-1.26
60,17,-1.476666667
60,18,-1.646666667
60,19,-1.463333333
60,20,-0.143333333
60,21,1.043333333
60,22,0.863333333
60,23,0.423333333
60,24,0.21
60,25,1.01
60,26,2.226666667
60,27,3.04
60,28,2.41
60,29,1.043333333
60,30,0.853333333
60,31,-0.04
60,32,0.246666667
60,33,0.176666667
60,34,-0.00999999999999979
60,35,-0.976666667
60,36,-1.44
60,37,-1.623333333
60,38,-2.46
60,39,-2.406666667
60,40,-2.32
60,41,-3.416666667
60,42,-1.93
60,43,-1.44
60,44,-1.533333333
60,45,-0.996666667
60,46,-0.74
60,47,-0.756666667
60,48,-0.313333333
60,49,0.176666667
62,1,-0.683333333
62,2,-2.093333333
62,3,NaN
62,4,-0.603333333
62,5,0.640000000000001
62,6,1.8
62,7,1.97
62,8,2.796666667
62,9,1.82
62,10,2.803333333
62,11,1.183333333
62,12,NaN
62,13,-1.393333333
62,14,-0.633333332999999
62,15,-0.103333333
62,16,-0.86
62,17,-0.476666667
62,18,-0.846666667
62,19,-0.963333333
62,20,0.056666667
62,22,0.0633333330000001
62,23,-0.0766666669999996
62,24,-0.59
62,25,0.41
62,26,2.226666667
62,27,2.74
62,28,NaN
62,29,0.743333333000001
62,30,0.653333333
62,31,-0.640000000000001
62,32,0.146666667000001
62,33,0.976666667
62,34,0.49
62,35,-0.476666667
62,36,-1.19
62,37,-1.123333333
62,38,-1.96
62,39,-2.356666667
62,40,-2.52
62,41,-3.316666667
62,42,-2.03
62,43,-0.84
62,44,-1.833333333
62,45,-0.996666667
62,46,-0.34
65,1,-1.183333333
65,3,-1.293333333
65,4,-3.103333333
65,5,-1.96
65,7,NaN
65,9,1.42
65,11,-1.566666667
65,12,NaN
65,13,-3.193333333
65,15,NaN
65,16,-1.91
65,17,-1.676666667
65,18,-1.646666667
65,19,-1.263333333
65,20,-0.543333333000001
65,21,-0.00666666700000018
65,22,0.613333333
65,23,NaN
65,24,-1.09
65,25,-0.890000000000001
65,27,3.74
65,34,0.24
65,36,-2.09
65,37,-1.873333333
65,38,-2.66
65,39,-2.006666667
65,40,-2.35
65,41,-3.166666667
65,42,-2.49
65,43,NaN
65,44,-2.333333333
65,45,-1.696666667
65,46,-1.02
65,47,-1.006666667
65,48,0.436666667
65,49,1.076666667
65,50,2.07
65,51,2.436666667
65,52,1.876666667
65,53,1.466666667
65,54,0.21
65,55,-0.62
65,56,-1.38
65,57,-0.403333333
65,58,0.226666667
65,59,NaN
65,60,0.096666667
65,61,-0.353333333
65,62,0.14
65,63,0.103333333
65,64,-0.473333333
65,65,-0.0766666670000005
65,66,-0.646666667000001
65,67,0.106666667
65,68,-0.546666667
65,69,-0.0499999999999998
65,70,1.143333333
65,71,1.22
65,72,1.613333333
65,73,1.116666667
65,74,1.116666667
65,75,-0.883333333
65,76,-2.34
65,77,-2.73
65,78,-3.593333333
65,79,-2.98
65,80,-2.186666667
65,81,-1.756666667
65,82,-1.466666667
65,83,-0.993333333
65,84,-1.16
65,86,-1.083333333
65,87,-0.283333333
65,88,-0.223333333
65,89,0.286666667
65,90,0.806666667
65,92,1.063333333
65,93,-0.49
65,94,-0.273333333
65,95,0.793333333
65,96,1.103333333
65,97,1.106666667
65,98,0.903333333
65,99,0.583333333
65,100,0.0366666669999995
65,101,-0.696666667
65,102,-1.51
65,104,-3.573333333
65,105,-3.506666667
66,1,NaN
66,2,NaN
66,4,NaN
66,5,-1.06
66,6,1
66,7,1.17
66,8,1.796666667
66,9,1.32
66,10,-0.696666667000001
66,11,-0.916666666999999
66,12,-1.64
66,13,-2.193333333
66,14,-2.633333333
66,15,-1.203333333
66,16,-1.76
66,17,-1.976666667
66,19,-1.763333333
66,20,-1.443333333
66,22,-0.336666667
66,23,-0.376666666999999
66,24,-0.0899999999999999
66,25,0.21
66,26,1.326666667
66,27,2.44
66,28,1.91
66,29,1.043333333
66,31,-0.24
66,34,-0.71
67,2,-3.093333333
67,3,-2.893333333
67,4,-3.103333333
67,6,1.8
67,7,NaN
67,8,2.296666667
67,9,2.12
67,10,0.203333333
67,13,-2.593333333
67,14,-2.433333333
67,17,-2.226666667
68,1,-6.183333333
68,2,-5.693333333
68,3,-5.893333333
68,4,-3.803333333
68,5,-1.16
68,6,-0.199999999999999
68,8,1.296666667
68,9,0.720000000000001
68,11,NaN
68,12,-3.14
68,13,-4.793333333
68,14,-2.633333333
68,15,-2.503333333
68,16,-2.26
68,17,-2.976666667
68,18,-2.296666667
68,19,-1.863333333
68,20,-0.743333333000001
68,21,0.243333333
68,22,0.363333333
69,1,-5.683333333
69,2,NaN
69,3,NaN
69,4,-3.103333333
69,5,-1.86
69,6,-0.199999999999999
69,7,NaN
69,11,-1.816666667
69,13,-4.393333333
69,17,-1.476666667
69,18,-1.396666667
69,19,-1.463333333
69,20,-0.843333333
69,21,0.193333333
69,24,-0.49
69,25,0.00999999999999979
69,26,1.926666667
69,29,1.043333333
69,30,0.753333333
69,31,NaN
69,33,0.276666667
69,34,-0.41
70,1,-3.683333333
70,2,-6.093333333
70,3,-7.093333333
70,4,-7.003333333
70,5,-3.36
70,6,-0.699999999999999
70,7,0.67
70,8,0.796666667
70,9,0.32
70,10,-2.196666667
70,11,-3.616666667
70,12,-4.04
70,13,-4.093333333
70,14,-2.733333333
70,15,-3.903333333
70,16,-3.16
70,17,-2.276666667
70,18,-1.746666667
70,19,-1.763333333
70,20,0.356666667
70,21,1.443333333
70,22,1.463333333
70,23,0.223333333
70,24,0.71
70,25,1.41
70,26,2.426666667
70,27,1.54
70,28,0.81
70,29,0.643333333
70,30,0.653333333
70,31,0.46
70,32,1.146666667
70,33,0.976666667
70,34,0.49
70,36,-2.04
70,37,-1.623333333
70,38,-1.76
70,40,-2.62
72,1,-1.983333333
72,2,NaN
72,3,-2.893333333
72,4,-3.703333333
72,5,NaN
72,6,1.3
72,8,2.546666667
72,9,2.82
72,11,-0.516666666999999
72,12,-2.04
72,14,-1.833333333
72,15,-1.103333333
72,18,-1.396666667
72,19,-1.463333333
72,20,-2.343333333
72,22,1.363333333
72,23,NaN
72,24,0.46
72,25,2.01
72,26,NaN
72,27,3.04
72,29,NaN
72,30,1.153333333
75,1,-2.183333333
75,2,-4.093333333
75,3,-2.393333333
75,4,-2.103333333
75,5,-0.859999999999999
75,6,-0.199999999999999
75,8,2.296666667
75,12,-3.74
75,16,-3.86
75,17,-3.476666667
79,1,-3.483333333
79,2,-3.293333333
79,3,-6.293333333
79,4,-3.803333333
79,5,-2.16
79,6,1.2
79,7,0.77
79,8,1.996666667
79,9,0.82
79,10,-0.696666667000001
79,14,-5.033333333
79,15,-2.003333333
79,16,-0.760000000000001
79,17,-0.476666667
79,18,-1.446666667
79,20,-0.943333333
79,21,-0.756666667
79,22,-0.336666667
79,23,-0.576666667
79,24,-0.0899999999999999
79,25,0.609999999999999
79,26,-0.0733333329999999
80,2,-5.493333333
80,4,-3.003333333
80,5,-0.959999999999999
80,7,1.57
80,8,2.396666667
80,9,1.42
80,10,0.803333332999999
80,13,-3.693333333
80,17,-1.376666667
80,18,-1.746666667
80,19,-1.563333333
80,22,0.363333333
80,24,-0.0899999999999999
82,1,-2.983333333
82,2,-0.943333333
82,7,1.37
82,8,2.546666667
82,9,2.12
82,10,0.503333332999999
82,11,-0.966666667
82,12,-3.54
82,13,-4.493333333
82,14,-4.583333333
82,15,-2.603333333
82,16,-1.76
82,17,-2.976666667
82,18,-2.346666667
82,19,-1.163333333
82,20,-0.843333333
82,21,1.043333333
82,22,0.463333333
82,23,-0.276666667
82,24,-0.29
82,25,0.31
82,26,2.026666667
82,27,2.64
82,31,-1.24
82,32,0.246666667
82,35,-0.276666667
84,1,-6.683333333
84,2,-8.093333333
84,4,-2.603333333
84,5,2.14
84,6,1.3
84,7,0.92
84,9,-0.68
84,10,-1.396666667
84,11,-2.116666667
84,12,-5.54
84,14,-2.833333333
84,15,-2.603333333
84,16,-2.36
84,17,NaN
84,18,-3.046666667
84,19,-2.463333333
84,20,-0.643333333
84,21,1.443333333
84,22,1.063333333
84,24,-0.59
84,25,NaN
84,26,-0.773333333
84,28,-1.59
84,29,-1.656666667
84,30,-1.546666667
84,31,-3.74
84,32,-1.753333333
84,33,-1.523333333
84,34,-1.26
84,35,-1.776666667
84,36,NaN
84,37,-1.123333333
84,38,-1.96
84,39,NaN
84,40,-2.52
84,41,-3.816666667
84,42,-1.93
84,43,-0.34
84,44,0.0666666670000002
84,45,0.503333333
84,46,0.46
84,48,NaN
84,49,NaN
84,50,1.88
84,51,1.236666667
84,52,-0.403333333
84,53,-1.133333333
84,54,-2.44
84,55,NaN
84,56,-1.98
84,57,-1.803333333
84,58,-1.423333333
84,59,NaN
84,60,-0.753333333
84,61,NaN
84,62,-0.71
84,63,NaN
84,64,-1.623333333
84,65,-1.276666667
84,66,-1.046666667
84,67,-0.993333333000001
84,68,NaN
84,70,2.043333333
84,71,NaN
84,72,1.213333333
84,73,1.116666667
84,74,1.316666667
84,75,NaN
84,76,NaN
84,77,-2.33
84,78,-3.793333333
84,79,NaN
84,80,-1.586666667
84,81,-1.756666667
84,82,-0.166666667
84,83,NaN
84,84,NaN
84,85,-0.77
84,86,-0.283333333
84,88,0.076666667
84,89,0.586666667
84,90,0.606666667
84,92,0.0633333330000001
84,93,0.46
84,94,0.726666667
84,96,-0.196666667000001
84,97,-0.293333333000001
84,98,-1.096666667
84,100,-0.763333333
84,101,-1.696666667
84,102,-1.91
84,103,NaN
84,104,-3.573333333
84,105,-3.006666667
84,106,-3.203333333
84,108,-1.726666667
84,109,-1.543333333
84,110,-0.643333333
84,112,-0.153333333
84,113,-0.243333333
84,114,-0.163333333
86,1,0.916666666999999
86,3,-3.193333333
86,5,-1.16
86,11,0.0833333330000006
86,12,-1.74
86,13,-3.293333333
86,16,-3.96
86,21,0.243333333
86,23,-0.876666666999999
86,24,-1.49
86,25,-0.890000000000001
87,1,-3.683333333
87,3,NaN
87,5,NaN
87,6,2.8
87,7,1.67
87,8,2.496666667
87,10,NaN
87,11,-1.316666667
87,13,-4.893333333
87,15,-2.103333333
87,16,-1.36
87,26,NaN
87,27,NaN
87,28,NaN
87,33,1.226666667
87,34,0.49
94,5,NaN
94,6,0.200000000000001
94,7,1.52
94,8,1.996666667
94,9,1.22
94,10,0.00333333299999872
94,12,-2.64
94,14,-1.733333333
94,15,-1.203333333
94,16,-1.86
94,18,-1.046666667
94,19,-1.163333333
94,21,0.203333333
94,22,0.463333333
94,23,0.0133333330000003
94,24,0.00999999999999979
94,25,1.19
94,26,2.556666667
94,28,2.11
94,29,0.0433333330000005
94,31,0.66
94,32,NaN
94,35,-1.276666667
94,37,-1.123333333
94,39,-2.006666667
94,40,-2.72
94,41,-3.216666667
94,42,-2.13
94,43,-1.84
94,44,-1.633333333
94,45,-0.896666667
94,46,-0.64
94,47,-0.956666667
94,48,0.286666667
94,49,NaN
94,50,1.98
94,51,2.136666667
94,52,0.696666667
94,53,0.166666666999999
94,54,0.0599999999999996
94,56,-0.180000000000001
94,57,0.796666667
94,58,0.276666667
94,59,0.359999999999999
94,60,-0.553333332999999
94,61,-0.953333333
94,63,-0.546666666999999
94,64,-1.123333333
94,65,-0.376666667
94,66,-1.446666667
94,68,-0.146666667
94,69,0.45
94,71,1.1
94,72,1.233333333
94,73,0.906666667
94,75,-0.913333333000001
94,79,-2.58
94,80,-1.486666667
99,7,2.34
99,8,1.786666667
99,9,1.89
99,10,0.703333333
99,11,0.133333332999999
99,14,-1.333333333
99,15,-1.603333333
99,16,-1.36
99,17,-2.676666667
99,18,-2.446666667
99,19,-1.663333333
99,20,-1.343333333
99,25,0.609999999999999
99,27,2.44
99,28,2.11
99,29,1.443333333
99,30,-0.246666667
99,31,-0.140000000000001
99,32,0.0466666670000002
99,33,-0.823333333000001
99,35,-2.076666667
99,37,NaN
99,39,-2.506666667
99,40,-2.52
99,41,-2.816666667
99,42,-2.53
99,43,-1.24
99,44,-1.333333333
99,46,-0.34
99,47,-0.056666667
99,48,0.586666667
99,49,0.976666667
99,50,1.68
99,51,2.036666667
99,53,0.566666667
99,55,-0.970000000000001
99,56,-0.880000000000001
99,58,-0.423333333
99,60,0.346666667
99,62,-0.11
99,64,-0.323333333
99,66,-0.746666667
99,68,-1.046666667
99,70,1.143333333
99,71,1.02
99,74,0.216666667
99,78,-4.093333333
99,79,-3.78
99,81,-2.356666667
99,83,-1.793333333
99,84,-1.86
99,85,-1.27
99,86,-1.283333333
99,87,-1.583333333
99,88,-1.223333333
99,90,0.606666667
99,91,0.336666667
99,92,0.663333333
99,94,0.526666667
99,95,0.793333333
99,96,0.603333333
99,98,0.603333333
99,99,0.483333333
99,100,0.0366666669999995
99,102,-0.91
99,104,-3.273333333
99,107,-2.586666667
99,109,-2.243333333
99,110,-1.343333333
99,114,-0.563333333
100,9,1.31
100,17,-2.476666667
100,19,-1.763333333
100,20,-0.143333333
100,21,-0.456666667
100,22,0.293333333
100,23,-0.526666667
100,24,-0.04
100,25,0.76
100,26,2.226666667
100,27,2.04
100,28,1.16
100,29,-0.056666667
100,30,-0.596666667
100,31,-1.24
100,33,-0.773333333
100,34,-0.76
100,35,-2.976666667
404,37,-1.073333333
404,38,-2.02
404,39,-2.196666667
404,40,-2.63
404,41,-2.646666667
404,42,-1.85
404,43,-1.82
404,44,-1.463333333
404,45,-1.006666667
404,46,-0.73
404,47,-0.616666667
404,48,0.416666667
404,49,0.846666667
404,50,1.52
404,52,0.746666667
404,53,-0.553333333
404,54,-1.46
404,55,-2.19
404,56,-0.99
404,57,-0.393333333
404,58,-0.193333333
404,59,-0.28
404,60,-0.513333332999999
404,61,-0.573333333
404,62,-0.38
404,63,-0.376666666999999
404,64,-0.493333333
404,65,-0.206666667
404,66,-0.956666667
404,67,-0.823333333000001
404,70,0.783333333
404,71,1.02
404,73,0.706666667
405,37,0.476666667
405,38,-1.29
405,39,-1.606666667
405,40,-1.62
405,41,-2.416666667
405,42,-1.73
405,43,-1.94
405,45,-0.196666667
405,46,-0.34
405,48,NaN
405,49,0.876666667
405,50,1.48
405,51,2.036666667
405,52,1.196666667
405,53,0.566666667
405,55,-1.97
405,56,-1.98
405,58,-0.223333333
405,60,0.146666667
405,61,0.946666667000001
405,71,1.52
405,74,NaN
405,84,-2.06
405,85,-1.47
405,86,-0.983333333
405,87,-1.283333333
405,89,-0.813333333
405,90,0.00666666700000018
405,94,0.726666667
405,99,0.383333333
405,100,0.136666667
405,102,-1.01
405,103,-2.356666667
405,104,-2.773333333
407,37,-0.823333333
407,38,-2.26
407,39,-1.906666667
407,40,-2.62
407,41,-3.316666667
407,42,-2.43
407,43,-1.89
407,44,-1.633333333
407,45,-1.196666667
407,46,-0.94
407,47,-0.956666667
407,48,-0.143333333
407,49,0.976666667
407,50,1.62
407,51,1.836666667
407,52,1.196666667
407,53,-0.533333333000001
407,54,-0.640000000000001
407,55,-0.970000000000001
407,56,-0.78
407,57,0.496666667
407,58,-0.223333333
407,59,0.48
407,60,0.0366666670000004
407,61,-0.353333333
407,62,-0.41
407,63,-0.646666667
407,65,-1.476666667
407,67,-1.393333333
407,68,-1.446666667
407,69,-0.85
407,70,1.043333333
407,71,0.619999999999999
407,72,1.113333333
407,73,0.916666667
407,74,1.116666667
407,75,-0.983333333
407,76,-2.34
407,77,-2.63
407,78,-3.893333333
407,80,-2.986666667
407,81,-2.456666667
407,82,-2.466666667
407,83,-3.343333333
407,84,-2.46
407,85,-1.77
407,86,-1.083333333
407,87,-1.383333333
407,88,-1.223333333
407,89,-0.313333333
407,97,0.586666666999999
407,99,0.283333333
407,101,-0.896666667
407,102,-1.11
407,103,-2.624666667
407,104,-3.273333333
407,106,-3.910333333
407,107,-2.986666667
407,108,-2.797666667
407,109,-3.104333333
407,110,-1.985333333
407,112,-1.753333333
407,118,-1.174666667
407,119,-1.358333333
407,120,-1.613333333
407,121,-0.371666667
407,122,-0.626333333
407,125,-0.166666667
407,126,-0.436666667
407,130,-0.119666667
407,131,-0.448333333
409,38,-2.21
409,43,-1.54
409,44,-2.133333333
409,45,-1.646666667
409,46,-1.49
409,48,-0.463333333
409,51,0.986666667
409,52,0.746666667
409,53,0.016666667
409,54,-1.04
409,55,-1.02
409,56,-0.98
409,57,-0.00333333299999961
409,58,-0.0233333330000001
409,59,-0.04
411,38,-1.79
411,39,-1.846666667
411,40,-2.52
411,42,-2.23
411,43,-0.99
411,44,-1.233333333
411,45,-0.786666667
411,46,-0.24
411,47,-0.156666667
411,48,1.116666667
411,49,0.876666667
411,50,1.61
411,51,2.066666667
411,52,1.046666667
411,54,-1.13
411,55,-1.12
411,56,-1.13
411,57,-0.0733333329999999
411,58,-0.0733333329999999
411,61,0.0766666670000005
411,62,0.0899999999999999
411,63,0.0433333330000005
411,64,-0.143333333
411,65,-0.216666667
411,66,-0.746666667
411,67,-0.653333333
411,68,-0.576666667
411,69,-0.33
411,70,0.793333333
411,73,1.416666667
411,75,-0.833333333000001
411,78,-4.293333333
411,79,-3.08
411,80,-1.816666667
411,81,-1.806666667
411,82,-1.986666667
411,83,-2.383333333
411,85,-1.84
411,87,-1.133333333
411,89,-0.113333333
411,91,1.286666667
411,92,0.778333333
411,94,0.556666667
411,95,0.793333333
411,96,0.643333333
411,97,0.556666667
411,98,0.343333333
411,99,0.223333333
411,100,-0.0133333330000003
411,102,-1.55
411,103,-2.886666667
411,104,-3.303333333
411,105,-3.286666667
411,106,-3.803333333
411,107,-2.956666667
411,108,-2.266666667
411,109,-3.093333333
411,110,-0.643333333
411,111,-0.323333333
411,112,-0.123333333
411,113,-0.103333333
411,114,-0.143333333
411,115,-0.153333333
411,116,-0.653333333
411,117,-0.286666667
411,118,-0.266666667
411,119,-0.633333333
411,120,-0.873333333
411,122,-0.133333333
411,125,-0.256666667
411,126,-0.056566667
411,127,-0.034833333
411,128,-0.097466667
411,129,-0.023333333
411,131,-0.094933333
411,133,-0.4547
411,134,-0.386666667
411,135,-0.573333333
411,136,-0.503333333
411,137,-0.853333333
411,138,NaN
411,141,0.206666667
411,142,0.106666667
411,143,0.36
411,144,0.24
411,145,0.24
411,146,0.516666667
411,147,0.0866666670000003
411,148,-0.4
411,149,-0.82
411,150,-1.523333333
414,38,-1.66
414,39,-2.506666667
414,40,-1.62
414,41,-2.016666667
414,42,-2.23
414,43,-2.14
414,44,-0.683333333
414,45,-0.596666667
414,46,-0.39
414,47,0.193333333
414,48,1.336666667
414,49,1.626666667
414,50,2.38
414,51,2.236666667
414,52,2.096666667
414,53,1.366666667
414,55,-0.42
414,56,-1.73
414,57,-0.653333333
414,60,0.166666667
414,61,-0.553333332999999
414,62,-0.00999999999999979
414,63,0.153333333
414,64,0.096666667
414,65,-0.0766666670000005
414,66,-0.746666667
414,67,-0.693333333
414,68,-1.256666667
414,69,-0.75
414,71,1.22
414,72,1.113333333
414,73,0.916666667
414,75,-1.283333333
416,38,-2.46
416,39,-2.906666667
416,40,-3.52
416,41,-3.716666667
416,42,-2.83
416,43,-1.94
416,44,-2.133333333
416,45,-1.246666667
416,46,-0.94
416,47,-0.856666667
416,48,0.736666667
416,49,0.976666667
416,50,1.88
416,51,1.896666667
416,52,0.996666667
416,54,0.76
416,55,-0.970000000000001
416,56,0.0199999999999996
420,38,-1.66
420,40,-2.07
420,42,-2.05
420,43,-0.44
420,45,-0.146666667
420,46,-0.44
420,47,-0.256666667
420,49,0.976666667
420,50,1.73
420,51,NaN
420,52,1.696666667
420,53,1.116666667
420,54,-0.74
420,55,-1.57
420,56,-0.73
420,57,-0.653333333
420,58,-0.673333333
420,59,-0.24
420,60,-0.203333333
420,62,0.24
420,63,0.0533333330000003
420,64,0.0266666669999998
420,65,-0.126666667
420,66,-0.696666667000001
420,67,-0.593333333
420,68,-0.796666667
420,69,-0.699999999999999
420,70,0.243333333
420,72,1.313333333
420,73,1.116666667
420,74,NaN
420,75,-0.883333333
420,76,-2.84
420,77,-2.43
420,78,-3.443333333
420,81,-1.656666667
420,82,-0.766666667
420,84,-2.08
420,85,-1.87
420,87,-2.283333333
420,88,-2.123333333
420,89,-0.513333333
420,90,0.0566666670000002
420,92,0.613333333
420,93,0.81
420,94,0.976666667
420,95,1.013333333
420,97,1.106666667
420,98,0.603333333
420,99,0.533333333
420,101,-0.296666666999999
420,102,-0.91
420,103,-2.256666667
420,104,-2.373333333
420,105,-2.506666667
420,106,-3.203333333
420,107,-2.086666667
420,109,-1.843333333
420,110,-1.243333333
420,111,-0.193333333
420,112,-0.253333333
420,113,-0.143333333
420,115,-0.573333333
420,117,-0.376666667
420,118,-0.286666667
420,119,-0.233333333
420,120,-0.413333333
420,121,-0.046666667
420,122,-0.013333333
420,123,-0.013333333
420,124,-0.05
420,125,-0.016666667
420,127,-0.053333333
420,128,-0.066666667
420,129,-0.123333333
420,130,-0.076666667
420,131,-0.073333333
420,132,-0.13
420,133,-0.16
421,38,-2.31
421,39,-2.306666667
421,40,-2.47
421,41,-3.216666667
421,42,-2.83
421,43,-2.04
421,44,-2.583333333
421,45,-0.796666667
421,46,-0.54
421,47,-0.756666667
421,48,NaN
421,49,0.526666667
421,50,1.55
421,51,2.036666667
421,52,1.346666667
421,53,0.616666667
421,54,-0.640000000000001
421,55,-0.77
421,56,-0.680000000000001
421,57,0.796666667
421,58,0.776666667
421,59,1.41
421,60,0.146666667
421,61,0.196666667000001
421,62,0.34
421,63,0.803333333
421,64,-0.223333333
421,65,-0.526666667
421,66,-1.146666667
421,68,-1.446666667
421,69,-1.25
421,70,0.793333333
421,71,0.869999999999999
421,72,1.063333333
421,74,0.116666667
421,75,-0.983333333
421,76,-2.59
421,77,-2.73
421,78,-3.893333333
421,79,-3.58
421,80,-3.186666667
421,81,-3.356666667
421,83,-3.393333333
421,84,-3.66
421,85,-2.82
421,86,-1.833333333
421,87,-2.583333333
421,88,-0.323333333
421,89,-1.013333333
421,90,-0.943333333
421,91,-0.613333333
421,92,-0.436666667
421,93,-1.04
421,94,-0.773333333
421,95,-0.00666666700000018
421,96,0.203333333
421,97,0.306666667
421,98,0.203333333
421,99,0.133333333
421,100,-0.113333333
421,102,-0.86
421,103,-2.256666667
421,104,-2.473333333
421,106,-3.303333333
421,107,-3.086666667
421,108,-3.626666667
421,109,-3.343333333
421,110,-2.193333333
421,111,-0.893333333
421,112,-1.503333333
421,114,-2.713333333
421,115,-3.223333333
421,116,-2.553333333
421,117,-1.876666667
421,118,-1.786666667
421,122,-0.163333333
421,123,-0.163333333
421,124,-0.25
421,125,-0.236666667
421,127,-0.173333333
421,128,-0.216666667
421,129,-0.193333333
421,130,-0.326666667
421,131,-0.523333333
421,132,-0.68
421,134,-1.626666667
421,135,-1.313333333
421,137,-1.503333333
421,138,-1.07
421,139,-1.36
421,140,-1.26
421,141,-0.663333333
421,142,-0.143333333
421,143,-0.19
421,144,-0.01
421,145,-0.19
421,146,0.0866666669999998
421,147,-0.0933333329999999
421,148,-0.39
421,149,-0.97
421,150,-1.573333333
422,38,-2.36
422,39,-1.206666667
422,40,-1.52
422,41,-2.416666667
422,42,-1.83
422,43,-1.64
422,44,-2.133333333
422,46,-0.34
422,47,-0.756666667
422,48,-0.213333333
422,49,0.776666667
422,50,1.28
422,51,1.736666667
422,98,0.403333333
422,99,0.383333333
422,100,0.236666667
422,101,-0.196666667
422,102,-1.11
422,104,-2.773333333
422,105,-2.506666667
422,106,-3.703333333
422,107,-2.286666667
422,108,-1.826666667
422,113,-0.843333333
422,114,-1.063333333
422,115,-1.073333333
422,116,-1.453333333
422,117,-0.626666667
422,118,-0.636666667
422,119,-0.483333333
422,120,-0.563333333
422,121,-0.546666667
422,122,0.006666667
422,123,0.036666667
422,124,0
422,125,-0.016666667
422,127,-0.053333333
422,128,-0.066666667
422,129,-0.023333333
422,130,-0.006666667
422,131,-0.053333333
422,132,-0.28
422,133,-0.21
422,134,0.093333333
422,135,0.016666667
422,136,-0.013333333
422,137,-0.553333333
422,138,-0.52
422,139,0.0299999999999999
422,140,0.39
422,141,0.105366667
422,142,0.146666667
422,143,0.0543
422,144,-0.01
422,145,0.38
422,146,0.557866667
422,147,-0.0322333329999998
422,148,-0.4875
422,149,-1.092
423,38,-2.92
423,40,-2.19
423,41,-2.516666667
423,42,-1.98
423,43,-1.68
423,44,-1.283333333
423,45,-0.806666667
423,46,0.21
423,47,-0.036666667
423,48,0.966666667
423,49,1.256666667
423,52,1.856666667
423,54,-0.48
423,56,-0.91
423,57,-0.603333333
423,58,-0.323333333
423,60,-0.173333333
423,63,0.143333333
423,64,-0.493333333
423,65,-0.146666667
423,69,NaN
423,70,0.173333333
423,73,1.476666667
423,74,NaN
423,76,-2.05
423,77,-2.43
423,78,-4.273333333
423,79,-4.17
423,80,-2.496666667
423,82,-0.966666667
423,83,-0.403333333
423,84,-0.75
423,86,-0.453333333
423,91,NaN
423,94,2.166666667
423,96,0.693333333
423,97,0.906666667
423,100,-0.263333333
423,101,-1.196666667
423,104,-3.197533333
423,107,-2.386666667
423,110,-0.623333333
423,111,-0.303333333
423,112,-0.163333333
423,113,-0.083333333
423,116,-0.333333333
423,117,-0.446666667
423,119,-0.183333333
423,120,-0.526933333
423,121,-0.186666667
423,123,-0.007433333
423,124,-0.04
423,125,-0.051766667
423,127,-0.023333333
423,134,-0.146666667
423,135,0.00666666699999996
424,38,-2.21
424,39,NaN
424,40,NaN
424,41,-3.916666667
424,42,-2.43
424,43,NaN
424,44,-1.283333333
424,45,0.503333333
424,46,0.56
424,47,-0.456666667
424,48,NaN
424,49,1.476666667
424,50,2.08
424,52,0.096666667
424,96,NaN
424,97,NaN
424,98,NaN
424,99,NaN
424,100,NaN
424,101,NaN
424,102,NaN
424,103,NaN
424,104,NaN
424,105,NaN
424,106,NaN
424,107,NaN
424,108,NaN
424,109,NaN
424,111,NaN
424,112,NaN
424,113,NaN
424,114,NaN
424,115,NaN
424,116,NaN
424,117,NaN
424,118,NaN
424,119,NaN
424,120,NaN
424,122,NaN
424,123,NaN
424,124,NaN
424,125,NaN
424,129,NaN
424,131,NaN
424,136,NaN
424,137,NaN
424,138,NaN
424,139,NaN
424,140,NaN
424,141,NaN
424,142,NaN
424,143,NaN
424,144,NaN
424,146,NaN
424,147,NaN
424,148,NaN
424,149,NaN
426,39,-2.706666667
426,40,-2.58
426,41,-3.456666667
426,42,-1.8
426,43,-1.13
426,44,-1.463333333
426,45,-0.826666667
426,46,-0.7
426,47,-0.706666667
426,48,0.206666667
426,49,0.966666667
426,50,1.92
426,51,2.076666667
426,52,1.166666667
426,53,0.416666666999999
426,54,-0.16
426,55,-1.07
426,56,-0.340000000000001
426,57,-0.863333333
426,58,-0.0733333329999999
426,59,0.23
426,60,-0.00333333299999961
426,61,0.366666667000001
426,62,0.42
426,63,0.103333333
426,64,-0.553333333
426,65,-0.666666667
426,66,-1.076666667
426,67,-0.573333333000001
426,69,0.24
426,70,1.013333333
426,71,1.13
426,72,1.573333333
426,73,1.716666667
426,75,-0.723333333
426,76,-1.72
426,77,-2.59
426,78,-4.073333333
426,81,-1.696666667
426,82,-1.316666667
426,83,-1.283333333
426,84,-1.62
426,85,-1.95
426,86,-1.183333333
426,87,-1.403333333
426,88,-0.663333333
426,89,0.376666667
426,90,0.656666667
426,91,1.136666667
426,92,1.183333333
426,94,0.646666667
426,95,1.043333333
426,97,1.036666667
426,98,0.543333333
426,99,0.113333333
426,100,0.00666666699999929
426,101,-0.216666666999999
426,102,-1.03
426,103,-2.376666667
426,104,-2.873333333
426,105,-2.956666667
426,107,-2.906666667
426,108,-1.936666667
426,109,-2.323333333
426,110,-1.163333333
426,111,-0.223333333
426,112,-0.191633333
426,113,-0.500033333
426,114,-0.849233333
426,115,-0.984933333
426,116,-1.163433333
426,117,-1.139966667
426,118,-1.136666667
426,119,-0.068533333
426,120,-0.651533333
426,121,-0.592466667
426,122,0.071666667
426,123,0.072666667
426,124,-0.0271
426,125,-0.040666667
426,126,-0.00966666699999999
426,127,-0.033433333
426,128,-0.139766667
426,129,-0.144733333
426,130,-0.032466667
426,131,-0.018333333
426,132,-0.1061
426,133,-0.0847
426,134,-0.059966667
426,135,-0.220933333
426,136,-0.778433333
426,137,-0.889333333
426,138,-1.64
426,139,-0.8983
426,140,-0.3483
426,141,0.084366667
426,142,-0.115033333
426,143,0.2155
426,144,0.31
426,145,0.51
426,148,0.645
426,149,0.325
426,150,-1.065033333
427,39,-2.306666667
427,40,-1.92
427,41,-2.316666667
427,42,-2.03
427,43,-1.54
427,44,-1.933333333
427,45,-1.496666667
427,46,NaN
427,47,-0.456666667
427,48,0.286666667
427,49,0.776666667
427,50,1.68
428,39,-2.656666667
428,40,-3.18
428,41,-3.296666667
428,42,-1.58
428,43,-1.47
428,44,-1.883333333
428,45,-0.886666667
428,46,-0.55
428,47,-0.636666667
428,49,1.686666667
428,51,1.846666667
428,52,1.016666667
428,53,0.906666667
428,54,-0.99
428,55,-2.09
428,56,-1.96
428,57,-1.343333333
428,58,-0.623333333
428,59,0.369999999999999
428,60,-0.113333333
428,61,-0.503333333
428,62,-0.42
428,63,-0.436666667
428,64,-0.593333333
428,65,-0.876666667
428,66,-1.456666667
428,67,-1.323333333
428,68,-0.676666667
428,69,-0.55
428,70,0.793333333
428,71,1.07
428,72,1.173333333
428,73,1.016666667
428,74,0.746666667
428,75,-1.033333333
428,76,-2.5
428,77,-2.93
428,78,-4.113333333
428,79,-3.44
428,80,-3.446666667
428,81,-2.516666667
428,82,-2.586666667
428,83,-2.263333333
428,84,-2.28
428,85,-1.76
428,86,-1.593333333
428,87,-2.233333333
428,88,-1.753333333
428,89,-0.713333333
428,90,0.0866666670000003
428,91,0.00666666700000018
428,92,0.133333333
428,94,0.526666667
428,95,0.753333333
428,96,0.603333333
428,97,0.216666666999999
428,98,0.173333333
428,99,0.343333333
428,100,0.246666667
428,101,-0.496666667
428,102,-1.24
428,103,-2.987666667
428,105,-3.496666667
428,106,-4.083333333
428,108,-1.426666667
428,109,-2.483333333
428,110,-1.983333333
428,111,-0.253333333
428,112,-0.00333333299999999
428,114,-0.583333333
428,115,-1.043333333
428,116,-1.213333333
428,117,-1.186666667
428,118,-0.486666667
428,119,-0.713333333
428,123,0.106666667
428,124,-0.0487
428,125,-0.156666667
428,126,-0.176666667
428,127,-0.203333333
428,129,-0.133333333
428,130,-0.046666667
428,131,-0.043333333
428,132,-0.07
428,133,-0.13
428,134,-0.466666667
428,135,-0.697333333
428,136,-0.905333333
428,137,-0.943333333
428,138,-0.34
428,146,0.166666667
428,147,-0.143333333
428,148,-0.8314
428,149,-1.0397
428,150,-1.421433333
429,39,-2.166666667
429,40,-1.89
429,41,-2.616666667
429,42,-1.76
429,43,-2.1
429,44,-2.273333333
429,45,-0.676666667
429,46,-0.72
429,47,-0.156666667
429,48,1.206666667
429,49,1.366666667
429,50,1.94
429,51,2.266666667
429,52,2.006666667
429,53,1.496666667
429,55,-1.82
429,56,-0.510000000000001
429,57,-0.253333333
429,58,-0.423333333
429,60,-0.183333333
429,61,-0.113333333
429,62,0.0700000000000003
429,63,-0.0466666669999993
429,64,-0.513333333
429,65,-0.356666667
429,66,-2.216666667
429,67,-0.623333333000001
429,68,-0.566666667
429,69,-0.35
429,70,1.553333333
429,71,1.06
429,72,1.253333333
429,74,0.496666667
429,75,-1.793333333
429,79,-3.07
429,80,-1.666666667
429,81,-2.016666667
429,82,-0.676666667
429,83,-1.753333333
429,84,-2.15
429,85,-1.89
429,86,-1.413333333
429,87,-1.353333333
429,88,-0.673333333
429,89,-0.743333333
429,90,-0.183333333
429,91,0.476666667
429,92,0.503333333
429,93,0.58
429,94,1.126666667
429,95,1.063333333
429,97,0.756666666999999
429,98,0.233333333
429,99,0.353333333
429,100,-0.163333333000001
429,101,-0.586666666999999
429,102,-1.43
429,104,-3.183333333
429,105,-3.336666667
429,106,-3.373333333
429,108,-1.346666667
429,110,-0.453333333
429,130,-0.171666667
429,131,-0.184333333
429,132,-0.226
429,134,-0.406666667
429,135,-0.493333333
429,136,-0.597333333
429,138,-0.865
429,140,0.044
429,142,0.177966667
429,143,0.4346
429,144,0.2942
429,146,0.670866667
429,148,-0.4
429,150,-1.192633333
431,39,-1.506666667
431,40,-1.82
431,42,-1.23
431,44,-0.633333333
431,45,-0.596666667
431,46,-0.44
431,47,-0.156666667
431,48,0.986666667
431,49,1.476666667
431,50,1.88
431,51,2.136666667
431,52,1.096666667
431,54,0.26
431,55,-0.57
431,57,0.346666667
431,58,0.326666667
431,59,0.56
431,60,0.546666667
431,61,0.296666667
431,62,0.29
431,63,0.0533333330000003
431,64,-0.423333333
431,66,-0.796666667
431,67,-0.693333333
431,68,-0.636666667
431,70,1.243333333
431,71,1.37
431,72,1.213333333
431,74,1.286666667
431,75,-0.983333333
431,76,-2.74
431,77,-2.83
431,78,-4.093333333
431,79,-2.83
431,80,-1.436666667
431,81,-1.056666667
431,83,-1.193333333
431,84,-2.26
431,86,-0.653333333
431,87,-1.653333333
431,88,-0.693333333
431,90,0.786666667
431,91,1.096666667
431,95,0.913333333
431,96,1.043333333
431,97,1.003666667
431,98,0.553333333
431,99,0.573333333
431,100,-0.0133333330000003
431,102,-1.17
431,103,-2.886666667
431,104,-3.303333333
431,105,-3.286666667
431,106,-3.663333333
431,107,-2.296666667
431,108,-1.856666667
431,109,-2.103333333
431,110,-1.143333333
431,111,-1.343333333
431,112,-0.233333333
431,116,-0.933333333
431,118,-0.606666667
431,120,-0.183333333
431,121,NaN
431,122,-0.023333333
431,123,-0.00333333299999999
431,124,-0.04
431,125,-0.126666667
432,39,NaN
432,40,NaN
432,41,NaN
432,42,-1.93
432,43,-0.74
432,44,-1.033333333
432,45,-0.846666667
432,46,0.0600000000000001
432,47,NaN
432,48,1.236666667
432,49,1.576666667
432,50,1.78
432,51,NaN
432,52,-0.00333333299999961
432,53,-0.133333333
433,39,-2.636666667
433,40,-2.62
433,41,-2.916666667
433,42,-2.13
433,43,-1.24
433,44,-1.243333333
433,45,-0.766666667
433,46,-0.34
433,47,-0.156666667
433,48,0.926666667
433,49,1.236666667
433,50,1.85
433,51,2.216666667
433,52,1.486666667
433,53,0.846666667
433,54,-0.62
433,55,-1.65
433,56,-1.08
433,57,0.546666667
433,58,0.436666667
433,59,0.920999999999999
433,60,0.646666667
433,61,0.766666667
433,62,0.55
433,63,0.773333333
433,64,-0.203333333
433,65,-0.226666667
433,66,-1.016666667
433,67,-0.723333333
433,68,-0.546666667
433,69,-0.6
433,70,1.043333333
433,71,1.52
433,72,1.813333333
433,74,1.186666667
433,75,-0.773333333
433,76,-2.49
433,77,-2.92
433,78,-4.643333333
433,79,-2.97
433,80,-2.016666667
433,81,-1.986666667
433,82,-0.966666667
433,83,-1.043333333
433,84,-1.52
433,85,-1.53
433,86,-1.153333333
433,87,-1.523333333
433,88,-0.963333333
433,89,-0.0133333330000001
433,90,-0.163333333
433,91,-0.363333333
433,92,-0.136666667
433,93,-0.46
433,94,-0.143333333
433,95,0.0833333330000006
433,96,0.263333332999999
433,97,0.506666666999999
433,98,0.153333333
433,99,0.333333333
433,100,-0.163333333000001
433,101,-0.696666667
433,103,-2.516666667
433,105,-2.926666667
433,110,-0.443333333
433,112,-0.533333333
433,113,-0.973333333
433,121,0.00333333299999999
433,122,0.081666667
433,123,-0.013333333
433,124,0.04
433,125,-0.066666667
433,126,0.043333333
433,127,-0.023333333
433,128,-0.036666667
433,129,-0.023333333
433,130,-0.020866667
433,131,-0.063333333
433,132,-0.0457
433,133,-0.37
433,134,-0.491066667
433,135,-0.038233333
433,136,-0.295933333
433,137,-0.521333333
433,138,-0.09
433,139,-0.2967
433,140,-0.2067
433,141,0.149966667
433,142,0.356666667
433,143,0.41
433,144,0.04
433,145,0.43
433,146,0.456666667
433,147,0.206666667
433,148,-0.3
433,149,-0.96
433,150,-1.563333333
437,40,-2.32
437,42,-1.53
437,43,-2.14
437,44,-2.433333333
437,46,-0.74
437,49,0.176666667
437,51,1.736666667
437,52,0.796666667
437,53,-0.0333333330000007
437,54,-1.34
439,41,-3.416666667
439,42,-3.43
439,43,-1.54
439,44,-1.783333333
439,45,NaN
439,46,NaN
439,47,NaN
439,48,NaN
439,49,NaN
439,50,NaN
439,51,1.736666667
439,52,0.596666667
439,53,0.366666667
439,54,-1.24
439,55,-2.57
439,57,-0.403333333
439,58,-0.0233333330000001
439,59,-0.19
439,60,0.346666667
439,61,-0.203333333
439,62,-0.66
439,63,-0.446666667
439,64,-0.273333333
439,65,-0.676666667
439,66,-1.496666667
439,68,-1.146666667
439,69,-0.949999999999999
439,71,1.22
439,72,0.713333333
439,74,0.766666667
439,76,-3.14
439,78,-4.593333333
439,79,-3.53
439,81,-1.656666667
439,83,-1.493333333
439,84,-2.01
439,85,-1.89
439,86,-0.933333333
439,87,-1.163333333
439,88,-0.793333333
439,104,-3.850033333
440,41,-2.666666667
440,42,-2.21
440,43,-1.47
440,44,-2.083333333
440,45,-1.096666667
440,46,-0.69
440,47,-0.186666667
440,48,0.686666667
440,49,0.976666667
440,50,1.51
440,51,1.926666667
440,52,1.156666667
442,46,-0.0600000000000001
442,47,-0.256666667
442,48,1.156666667
442,49,1.346666667
442,50,2.33
442,51,2.376666667
442,52,0.946666667
442,53,0.606666667
442,54,-0.470000000000001
442,55,-1.32
442,56,-0.53
442,57,0.166666667
442,58,0.126666667
442,59,0.81
442,60,0.496666667
442,61,0.546666667
442,63,-0.00666666699999929
442,65,-0.426666667
442,66,-0.836666667
442,67,-0.613333333
446,48,0.686666667
446,50,1.58
446,51,1.936666667
446,52,0.196666667
446,53,-0.0333333330000007
446,54,-1.04
446,55,-1.37
446,56,-1.18
446,57,-0.303333333
446,58,0.0766666669999996
446,59,0.359999999999999
446,60,0.246666667
446,61,0.246666667
446,62,0.29
446,63,0.0533333330000003
446,64,-0.323333333
446,65,-0.176666667
446,67,-0.593333333
446,68,-0.646666667
446,69,0.25
446,70,1.643333333
446,71,1.52
446,72,1.113333333
446,73,1.216666667
446,74,0.816666667
446,76,-3.04
446,77,-3.23
446,78,-4.093333333
446,79,-2.58
446,80,-2.086666667
446,82,-1.866666667
446,83,-2.043333333
446,84,-2.36
446,85,-1.47
446,86,-1.483333333
446,87,-1.483333333
446,88,-0.823333333
446,89,-0.113333333
446,91,1.036666667
446,92,0.463333333
446,93,0.26
446,94,0.526666667
446,95,0.693333333
446,96,0.503333333
446,97,0.506666666999999
446,98,0.403333333
446,99,0.483333333
446,100,-0.163333333000001
446,101,-0.596666667
446,102,-1.51
446,103,-2.856666667
446,104,-3.273333333
446,105,-3.406666667
446,106,-3.603333333
446,107,-2.186666667
446,108,-1.476666667
446,109,-2.143333333
446,110,-0.543333333
446,111,-0.193333333
446,112,-0.133333333
446,113,-0.143333333
446,114,-0.163333333
446,115,-0.173333333
446,116,-0.453333333
446,117,-0.476666667
446,118,-0.136666667
446,119,-0.233333333
446,120,-0.713333333
446,121,-0.246666667
446,122,-0.113333333
446,123,-0.113333333
446,124,-0.2
446,125,-0.216666667
446,126,-0.086366667
446,127,-0.069233333
446,128,-0.070866667
446,129,-0.052633333
446,130,-0.043666667
446,131,-0.060833333
446,132,-0.069
446,133,-0.114
446,134,-1.051666667
446,140,-0.235
446,141,-0.139933333
446,142,-0.0109333330000001
446,143,0.1584
446,144,0.0150000000000001
446,146,0.496666667
446,147,0.176666667
446,148,-0.4407
448,48,0.186666667
448,49,1.176666667
448,50,2.08
448,51,1.736666667
448,52,0.196666667
448,53,NaN
448,54,NaN
448,55,NaN
448,56,-1.48
448,57,-1.103333333
448,58,0.126666667
448,85,-2.57
448,86,-1.833333333
448,88,-0.423333333
448,89,0.436666667
448,90,0.506666667
448,91,0.786666667
448,92,0.213333333
448,93,-0.57
448,94,0.826666667
448,95,0.493333333
448,96,0.453333333
448,97,0.156666667
448,98,0.153333333
448,99,0.633333333
448,100,0.486666667
448,101,-0.446666667
448,102,-1.11
448,103,-2.206666667
448,106,-2.953333333
448,107,-2.436666667
451,50,1.28
451,51,1.736666667
451,52,1.396666667
451,53,0.566666667
451,55,-1.07
451,56,-0.98
451,57,-0.903333333
451,58,-0.123333333
451,60,0.446666667000001
451,61,0.0466666670000002
451,65,-0.176666667
452,52,0.996666667
452,53,1.166666667
452,54,-0.04
452,55,-0.67
452,56,-1.08
452,57,-0.803333333
452,58,-0.623333333
452,59,0.96
452,60,NaN
452,62,NaN
452,63,0.253333333
452,64,-0.123333333
452,65,-0.246666667
452,66,-0.746666667
452,67,-1.193333333
452,68,0.353333333
452,69,-0.649999999999999
452,70,0.693333333
456,54,-1.74
456,55,-2.27
456,56,-2.78
456,57,-1.603333333
456,58,NaN
456,59,-1.14
456,60,-1.353333333
456,61,-1.253333333
456,62,NaN
456,63,NaN
456,64,NaN
456,66,-1.646666667
456,67,-1.293333333
456,68,NaN
456,69,NaN
456,70,NaN
456,71,NaN
456,72,NaN
456,73,NaN
456,74,NaN
456,75,-1.233333333
456,76,-3.39
456,77,NaN
456,78,NaN
456,79,NaN
456,80,-1.686666667
456,81,NaN
456,82,NaN
456,84,NaN
456,85,NaN
456,87,-0.233333333
456,88,0.176666667
456,90,1.006666667
456,91,1.436666667
456,92,0.763333333
456,93,NaN
456,94,NaN
456,95,NaN
456,96,0.203333333
456,97,NaN
456,98,NaN
456,99,NaN
456,100,NaN
456,103,-2.406666667
456,104,-2.823333333
456,105,-3.656666667
456,106,-3.603333333
456,113,-0.093333333
456,114,-0.013333333
456,115,0.076666667
456,116,-0.103333333
456,118,-0.136666667
456,119,-0.183333333
456,121,-0.046666667
456,122,NaN
456,123,0.086666667
456,125,0.033333333
456,127,-0.003333333
456,129,-0.023333333
456,135,-0.588333333
456,136,-0.868333333
456,137,NaN
456,138,-0.945
456,139,-0.685
456,140,-0.11
456,141,0.0116666670000001
456,142,-0.068333333
456,143,0.0350000000000001
456,144,0.0650000000000002
456,145,0.0150000000000001
456,146,0.0416666669999999
456,147,NaN
456,149,-1.045
458,56,-1.48
458,57,-1.403333333
458,59,-0.69
458,61,-0.953333333
458,62,-0.91
458,63,-1.446666667
458,64,-1.623333333
458,65,-1.726666667
458,66,-2.046666667
458,67,-1.593333333
458,69,-1.1
458,70,-0.206666667
458,71,0.0199999999999996
458,72,0.213333333
458,74,-0.233333333
458,76,-3.14
462,56,-0.9
462,57,-0.0933333330000004
462,58,-0.503333333
462,59,NaN
462,60,0.306666667
462,61,-0.383333332999999
462,62,-0.33
462,64,-0.553333333
462,65,NaN
462,66,-0.676666667
462,67,NaN
462,68,-0.226666667
462,70,1.273333333
462,71,1.14
463,56,-0.0800000000000001
463,57,-0.803333333
463,58,-0.223333333
463,59,0.56
463,60,0.446666667000001
463,61,0.0466666670000002
463,62,0.19
463,63,0.253333333
463,64,-0.273333333
463,65,-0.326666667
463,66,-1.046666667
463,67,-0.773333333
463,68,-0.646666667
463,69,-0.55
463,70,0.943333333
463,71,1.57
463,72,1.713333333
463,73,1.216666667
463,74,1.316666667
463,75,-1.033333333
463,76,-2.54
463,77,-2.88
463,78,-4.193333333
463,79,-2.98
463,80,-1.786666667
463,81,-2.156666667
463,82,-2.216666667
463,83,-2.443333333
463,84,-3.06
463,85,-1.77
463,86,-3.083333333
463,87,-1.083333333
463,88,-0.923333333
463,90,0.506666667
463,91,0.636666667
463,92,0.763333333
463,95,0.443333333
463,96,-0.0466666670000002
463,97,0.556666667
463,98,0.153333333
463,99,-0.216666667
463,100,-0.563333333
463,101,-1.326666667
463,102,-2.11
463,103,-3.456666667
463,104,-3.923333333
463,105,-4.056666667
463,106,-4.583333333
463,107,-3.086666667
463,108,-2.726666667
463,109,-3.003333333
463,110,-1.943333333
463,111,-0.493333333
463,112,-0.903333333
463,113,-1.043333333
463,114,-1.063333333
463,115,-0.833333333
463,116,-1.453333333
463,117,-0.926666667
463,118,-0.586666667
463,120,-1.413333333
463,121,-0.496666667
463,122,-0.013333333
463,124,-0.45
463,125,-0.566666667
463,126,-0.386666667
463,127,-0.103333333
463,128,-0.116666667
463,129,-0.277533333
463,130,-0.176666667
463,131,-0.213333333
463,132,-0.43
463,133,-0.81
463,136,-1.264233333
463,137,-0.950433333
463,138,-0.2189
463,140,-0.16
463,141,0.141066667
463,142,0.106666667
463,143,0.29
463,144,0.14
463,145,0.04
463,150,-1.373333333
464,56,-1.28
464,57,NaN
464,58,-0.0233333330000001
464,61,-0.203333333
464,63,NaN
464,65,-0.726666667
464,66,-1.246666667
464,67,-0.593333333
464,70,1.143333333
464,71,0.72
464,72,1.213333333
464,73,0.716666667
464,75,-0.883333333
464,77,-3.03
465,58,0.476666667
465,59,0.81
465,60,-0.653333333
465,61,0.346666667
465,62,0.34
465,63,0.553333333
465,64,0.176666667
465,65,-0.176666667
465,66,-0.246666667
465,67,-0.193333333
465,69,-0.0999999999999996
465,71,1.62
465,72,1.413333333
465,73,1.516666667
465,74,1.116666667
465,75,-1.233333333
465,76,-2.21
465,78,-3.743333333
465,79,-2.78
465,80,-2.686666667
465,81,-2.256666667
465,83,-1.843333333
465,84,-1.83
465,85,-1.62
465,86,-0.883333333
465,87,-1.083333333
466,56,-0.98
466,57,-1.153333333
466,60,-1.103333333
466,63,-0.296666666999999
466,64,-1.273333333
466,65,-1.426666667
466,66,-1.446666667
466,69,-0.85
466,70,0.243333333
466,71,0.819999999999999
466,73,1.016666667
466,74,0.366666667
469,56,-0.180000000000001
469,57,-0.103333333
469,58,-0.323333333
469,59,0.56
469,60,0.146666667
469,61,-0.153333333
469,62,0.0899999999999999
469,63,0.0533333330000003
469,64,-0.373333333
469,65,-0.376666667
469,66,-0.846666667
469,67,-0.693333333
469,69,-0.35
469,70,0.443333333
469,71,0.42
469,72,0.613333333
469,73,0.716666667
469,74,1.216666667
469,75,-1.183333333
469,76,-2.64
470,57,NaN
470,60,0.096666667
470,61,-0.653333333
470,64,-0.723333333
470,65,-1.076666667
470,66,-1.646666667
470,67,-0.593333333
470,69,-0.5
470,70,0.583333333
470,72,1.013333333
470,73,1.106666667
470,74,NaN
470,75,NaN
471,56,-0.98
471,57,-0.403333333
471,58,-0.123333333
471,59,0.279999999999999
471,60,-0.623333333
471,61,-0.853333333
471,62,-0.49
471,63,-0.376666666999999
471,64,-0.183333333
471,65,-0.326666667
471,66,-0.676666667
472,56,-0.27
472,57,-0.173333333
472,58,0.536666667
472,59,0.71
472,60,0.536666667
472,61,0.186666667
472,62,0.48
472,63,-0.736666667
472,64,-0.193333333
472,65,-0.0666666669999998
472,66,-0.786666667
472,67,-0.753333333
472,68,-0.946666667000001
472,69,-0.55
472,70,0.473333332999999
472,71,1.11
472,72,1.613333333
472,73,1.816666667
472,74,1.496666667
472,75,NaN
472,76,-2.07
472,77,-2.34
472,79,-3.43
472,80,-2.576666667
472,82,-1.946666667
472,84,-2.72
472,86,-0.813333333
472,90,-0.493333333
472,92,-0.586666667
472,94,0.573666667
472,95,0.380333333
472,96,0.501333333
472,97,0.947666667
472,98,0.718333333
472,99,0.249333333
472,100,0.397266666999999
472,101,-0.207166667
472,102,-1.17
472,103,-2.936666667
472,104,-2.743333333
472,105,-2.546666667
472,106,-3.353333333
472,107,NaN
472,108,-2.543366667
472,109,-3.091133333
472,110,-1.393333333
472,111,-0.906633333
472,112,-1.180033333
472,113,-1.123333333
472,114,-0.940033333
472,115,-0.124933333
472,116,-0.770033333
472,117,-0.527366667
472,118,-0.593666667
472,120,-0.981533333
472,121,-0.446666667
472,122,0.046666667
472,123,0.076666667
472,125,-0.056666667
472,126,-0.036666667
472,127,-0.083333333
472,138,-0.74
472,139,-0.86
472,140,0.3
472,141,0.486666667
472,142,-0.233333333
472,143,0.03
472,145,0.19
472,146,0.536666667
472,147,0.256666667
472,148,0.02
472,149,-0.54
472,150,-1.443333333
475,56,-0.48
475,57,0.096666667
475,58,-0.0233333330000001
475,59,0.0599999999999996
475,60,0.0466666670000002
475,61,-0.453333333
475,62,-0.41
475,63,-0.666666666999999
475,64,-0.823333333
475,65,-0.776666667
475,66,-0.746666667
475,67,-0.943333333
475,68,-0.796666667
475,69,-0.52
475,71,0.73
475,72,0.913333333
475,73,1.016666667
475,74,0.716666667
475,76,-2.88
475,77,-2.08
475,78,-3.593333333
475,79,-1.68
481,56,-1.48
481,57,-0.903333333
481,58,-0.623333333
481,59,0.26
481,60,-0.113333333
481,62,-0.46
481,63,-0.446666667
481,64,-0.623333333
481,65,-0.926666667
481,66,-1.346666667
481,67,NaN
481,68,-0.846666667
481,69,-0.5
481,70,0.793333333
481,71,1.17
481,74,0.516666667
481,75,-1.183333333
483,56,-2.6
483,57,NaN
483,60,-0.103333333
483,61,0.276666667000001
483,64,-0.123333333
483,65,-0.176666667
483,66,-1.396666667
483,68,-1.196666667
483,69,-0.0499999999999998
483,71,0.92
483,74,0.366666667
483,76,-2.59
483,78,-4.343333333
483,79,-1.78
483,81,-1.106666667
483,83,-0.543333333
483,84,-0.91
483,85,-0.77
483,87,-1.033333333
483,88,-0.583333333
483,89,-0.173333333
483,91,0.726666667
483,92,0.803333333
483,93,1.053
483,94,0.919666667
483,95,0.486333333
483,96,0.496333333
483,97,-0.400333333000001
483,98,-0.294666667
483,99,-0.423666667
483,100,-1.420033333
483,101,-1.746666667
483,102,-0.86
483,103,-3.206666667
483,104,-3.623333333
483,105,-3.706666667
483,106,-3.953333333
483,107,-1.536666667
483,108,-1.376666667
483,109,-0.593333333
483,110,-0.193333333
483,111,-0.643333333
483,112,-0.853333333
483,113,-0.763333333
483,114,-0.783333333
483,115,-1.293333333
483,116,-1.123333333
483,117,-0.296666667
483,118,-0.506666667
483,119,-0.553333333
483,120,-0.533333333
483,121,0.033333333
483,122,0.016666667
483,123,0.016666667
483,124,-0.02
483,125,-0.036666667
483,126,-0.036666667
484,56,-0.0300000000000002
484,58,-0.723333333
484,59,-0.340000000000001
484,60,-0.153333333
484,62,-0.21
484,63,-0.496666667
484,64,-0.573333333
484,65,-0.326666667
484,66,-0.936666667000001
484,67,-0.773333333
484,68,-0.806666667
484,69,-0.56
484,70,0.0933333329999995
484,71,0.72
484,72,0.863333333
484,73,1.066666667
484,74,1.066666667
484,75,-0.533333333
484,76,-1.91
484,77,NaN
484,79,-3.92
484,80,-3.456666667
484,81,-2.186666667
484,83,-0.963333333
484,84,-1.2
484,85,-1.09
484,87,-0.723333333
484,88,-0.333333333
484,89,0.186666667
484,90,0.406666667
484,91,1.536666667
484,93,1.71
484,94,1.326666667
484,95,1.793333333
484,97,1.406666667
484,98,1.253333333
484,99,0.673333333
484,100,0.0366666669999995
484,101,-0.596666667
484,102,-1.51
484,103,-2.756666667
484,104,-3.243333333
484,105,-3.626666667
484,106,-4.203333333
484,107,-2.986666667
484,108,-3.126666667
484,109,-3.243333333
484,110,-0.643333333
484,111,-0.693333333
484,112,-0.753333333
484,114,-0.413333333
484,115,-0.323333333
484,116,-0.453333333
484,117,-0.526666667
484,118,-0.386666667
484,119,-0.783333333
484,120,-0.763333333
484,121,-0.546666667
484,123,-0.013333333
484,124,-0.05
484,125,-0.106666667
484,126,-0.086666667
484,127,-0.063333333
484,128,-0.086666667
484,129,-0.103333333
484,131,-0.113333333
484,132,-0.07
484,133,-0.05
484,134,0.083333333
484,136,0.216666667
484,137,0.046666667
484,138,0.23
484,139,0.22
484,140,0.52
484,141,0.676666667
484,142,0.826666667
484,143,0.71
484,144,0.74
484,145,0.84
484,146,0.766666667
484,147,0.486666667
484,148,-0.02
484,149,-0.52
484,150,-1.023333333
485,56,-1.23
485,57,-1.153333333
485,58,0.226666667
485,59,0.0599999999999996
485,60,0.296666667
485,61,-0.953333333
485,62,0.84
485,63,0.0533333330000003
485,64,-1.023333333
485,65,-0.926666667
485,66,-1.246666667
485,67,0.156666667
485,68,-1.546666667
485,70,1.043333333
485,77,-2.73
485,78,-2.343333333
485,79,-3.03
485,80,-2.036666667
485,81,-1.356666667
485,82,0.583333333
485,83,-0.0933333329999999
485,84,-1.96
485,86,-0.333333333
485,87,-0.333333333
485,88,-0.673333333
485,89,0.486666667
485,90,0.856666667
485,91,1.036666667
486,56,-1.48
486,57,-0.653333333
486,58,-0.373333333
486,61,-0.303333332999999
486,62,-0.31
486,64,-0.423333333
486,66,-0.946666667000001
486,67,-0.693333333
486,68,-0.896666667
486,74,0.566666667
486,75,NaN
486,76,-2.94
488,56,0.119999999999999
488,57,-0.103333333
488,58,-0.123333333
488,59,NaN
488,60,-0.853333333
488,61,-0.753333333
488,62,0.0899999999999999
488,63,NaN
488,64,-0.423333333
488,65,-0.776666667
488,66,-1.346666667
488,67,NaN
488,69,-0.449999999999999
488,71,NaN
488,73,0.816666667
488,74,0.516666667
488,78,-4.493333333
488,81,-2.056666667
488,82,-1.866666667
497,69,-0.319999999999999
497,70,0.993333333
497,71,1.12
497,73,1.116666667
497,76,-2.92
497,77,NaN
497,78,-4.293333333
497,79,-3.08
497,80,-2.286666667
497,82,NaN
497,84,NaN
497,85,NaN
497,86,-1.283333333
497,87,-1.133333333
497,90,0.796666667
497,91,0.296666667
497,92,0.495333333
497,93,0.4
497,94,0.748666667
497,95,0.793333333
497,97,0.347666666999999
497,98,0.133333333
497,99,0.669333333
497,100,-0.0148333330000003
497,101,-0.400866667
497,102,-0.9883
497,103,-2.680266667
497,104,-2.876533333
497,105,-2.869166667
497,109,-3.096833333
497,110,-0.640533333
498,70,1.343333333
498,71,1.22
498,72,1.313333333
498,73,1.316666667
498,74,1.166666667
498,75,-0.883333333
498,76,NaN
498,77,-2.28
498,78,-4.093333333
498,79,-2.68
498,80,-1.536666667
498,81,-1.856666667
498,82,-1.766666667
498,83,-1.793333333
498,85,-1.97
498,86,-0.983333333
498,87,-0.723333333
498,89,NaN
498,90,0.506666667
498,92,NaN
498,93,NaN
498,94,NaN
498,95,NaN
498,99,NaN
498,102,-0.56
498,104,-2.123333333
498,106,-3.303333333
498,107,-0.786666667
498,112,-0.203333333
498,113,-0.093333333
498,114,-0.313333333
498,115,-0.623333333
498,116,-1.003333333
498,117,-0.226666667
498,118,-0.136666667
498,119,-0.133333333
498,120,NaN
498,121,-0.096666667
498,122,-0.013333333
499,72,1.013333333
499,73,1.816666667
499,74,0.716666667
499,75,-1.433333333
499,77,-2.83
499,78,-4.593333333
499,79,-3.03
499,80,-2.786666667
499,81,-1.596666667
499,82,-1.966666667
499,83,-0.843333333
500,73,0.616666667
500,74,0.446666667
500,75,-0.983333333
500,76,-2.74
500,77,NaN
500,78,-4.343333333
500,79,-3.31
500,80,-2.596666667
500,81,-1.806666667
500,83,-1.803333333
500,84,-2.29
500,85,-1.84
500,86,-1.283333333
500,87,-1.223333333
500,88,-1.043333333
502,72,1.313333333
502,73,1.516666667
502,74,NaN
502,76,-2.34
502,77,-2.93
502,78,-3.793333333
502,79,-3.28
502,80,-1.986666667
502,81,-1.956666667
502,83,-1.843333333
502,84,-1.96
502,85,-1.57
502,87,-1.483333333
502,89,0.286666667
502,91,1.236666667
502,95,1.193333333
504,72,1.213333333
504,73,1.016666667
504,74,1.116666667
504,75,NaN
504,77,NaN
504,78,NaN
504,79,NaN
504,80,NaN
504,81,NaN
504,82,NaN
504,84,NaN
504,85,NaN
504,86,NaN
504,87,NaN
504,88,NaN
504,89,NaN
504,90,NaN
504,91,NaN
504,92,NaN
504,93,-0.44
504,94,-0.423333333
504,95,0.343333333
504,96,0.653333333
504,97,0.856666667
504,98,0.353333333
504,99,NaN
504,100,NaN
504,101,NaN
504,102,-1.9527
504,103,-2.756666667
504,105,-3.326666667
504,106,-2.773333333
504,107,-2.356666667
504,108,-1.396666667
504,109,-1.413333333
504,110,-0.513333333
504,111,-0.503333333
504,112,-0.063333333
504,113,-0.033333333
504,114,-0.128333333
504,115,0.066666667
504,116,-0.113333333
504,117,-0.281666667
504,118,-0.271666667
504,119,-0.178333333
504,120,-0.078333333
504,121,-0.241666667
504,122,0.066666667
504,123,0.066666667
504,124,-0.02
504,125,-0.056666667
504,126,-0.036666667
504,127,-0.003333333
504,128,-0.036666667
504,129,-0.013333333
504,130,0.003333333
504,131,-0.043333333
504,132,-0.03
504,133,0
504,134,0.103333333
504,135,0.246666667
504,136,-0.398333333
504,137,-0.463333333
504,138,-0.6162
504,139,-0.7062
504,140,-0.3469
504,141,-0.469533333
504,142,-0.124533333
504,143,-0.2412
504,144,0.04
504,145,0.24
504,146,0.00666666699999974
504,147,-0.253333333
504,148,-0.68
504,149,-1.2
504,150,-1.738333333
506,72,1.313333333
506,73,1.016666667
506,74,0.946666667
506,75,-0.733333333
506,76,-2.54
506,77,-3.23
506,78,-4.093333333
506,79,-2.78
506,80,-1.836666667
506,82,-1.666666667
506,86,-1.333333333
506,87,-1.653333333
506,88,-0.363333333
506,89,0.476666667
506,90,0.806666667
506,91,0.736666667
506,92,0.773333333
506,93,0.48
506,94,0.916666667
506,95,1.033333333
506,96,0.743333333
506,97,0.566666667
506,98,0.300333333
506,99,0.403333333
506,100,-0.0633333330000001
506,101,-0.616666667
506,102,-0.9698
506,104,-3.273333333
506,105,-3.466666667
506,108,-1.269366667
506,110,-0.973333333
506,111,-0.213333333
506,112,-0.323333333
506,114,-0.803333333
506,115,-1.233333333
506,116,-1.723333333
506,118,-0.416666667
506,119,-0.533233333
506,120,-0.783333333
506,122,0.023866667
506,123,0.026666667
506,124,-0.0429
506,126,-0.046666667
506,127,-0.035533333
506,128,-0.061166667
506,129,-0.063333333
506,130,-0.046666667
506,131,-0.049833333
506,132,-0.1154
506,133,-0.3313
506,134,-0.678666667
506,135,-0.711733333
506,136,-0.753233333
506,137,NaN
506,138,-0.7662
506,139,-0.3887
506,140,-0.3089
506,141,0.085666667
506,142,0.298566667
506,143,0.1741
506,145,0.2992
507,72,0.813333332999999
507,73,0.916666667
507,74,0.716666667
507,75,-0.583333333000001
507,76,-2.74
507,77,-2.63
507,79,-4.08
507,80,-3.786666667
507,81,-2.456666667
507,82,-2.066666667
507,83,-1.843333333
507,84,-2.26
507,85,-2.97
507,86,-3.133333333
507,87,-1.383333333
507,88,-0.823333333
507,89,-1.063333333
507,90,0.256666667
507,91,0.306666667
507,92,0.183333333
507,93,-0.0600000000000001
507,94,0.159666667
507,95,0.226333333
507,97,0.748666666999999
507,99,0.283333333
507,100,-0.0465333330000002
507,101,-0.496466667
507,102,-1.56
507,103,-3.123366667
507,104,-3.473333333
507,105,-3.606666667
507,106,-3.953333333
507,107,-2.786666667
507,108,-1.776666667
507,110,-1.470033333
507,111,-0.810033333
507,112,-0.686633333
507,114,-0.496633333
507,115,-0.673333333
507,116,-1.353333333
507,117,-0.426666667
507,118,-0.466666667
507,119,-0.190033333
507,120,-0.580033333
507,121,-0.046666667
507,122,-0.063333333
507,123,-0.00333333299999999
507,124,-0.06
507,125,-0.086666667
507,126,-0.036666667
507,127,-0.053333333
507,128,-0.051666667
507,129,-0.049333333
507,130,-0.051666667
507,131,-0.123333333
507,133,-0.31
507,134,-0.501666667
507,135,-0.463333333
507,136,-0.383333333
507,138,-0.42
507,139,0.0317
507,140,-0.0192
507,141,0.036666667
507,142,0.331666667
507,144,0.24
507,145,0.48
507,146,0.716666667
507,149,-0.645
507,150,-1.048933333
508,72,0.743333333
508,73,0.796666667
508,74,0.926666667
508,75,-0.283333333
508,76,-2.94
508,77,-2.43
508,78,NaN
508,79,-3.51
508,80,NaN
508,81,-2.086666667
508,82,-1.186666667
508,83,-2.003333333
508,84,-2.62
508,85,-2.07
508,86,-1.163333333
508,88,NaN
508,90,0.426666667
508,92,0.289333333
508,93,0.803
508,94,0.598666667
508,95,0.467333333
508,96,1.300333333
508,97,0.888666667
508,98,0.365333333
508,99,-0.543666667
508,100,-0.296233333
508,103,-2.280966667
508,104,-3.031433333
508,105,-2.837566667
508,106,-3.866533333
508,107,-2.094966667
508,108,-2.218966667
508,110,-1.107133333
508,111,-0.589433333
508,112,-0.604533333
508,114,-0.783933333
508,115,-1.129633333
508,118,-0.530366667
508,119,-0.505433333
508,120,-0.779233333
508,122,-0.109133333
508,123,0.006666667
508,124,-0.295
508,125,-0.066666667
508,128,-0.046666667
508,130,-0.173266667
508,131,-0.053333333
508,132,-0.06
508,133,-0.46
508,135,-0.813333333
508,137,-1.103333333
508,138,-0.4641
508,139,-0.7402
508,140,-0.0675
508,141,0.215966667
508,142,0.225666667
508,143,0.4291
508,144,0.14
508,145,0.1407
508,146,0.678366667
508,147,0.160966667
508,148,-0.1646
508,149,-0.8638
508,150,-1.459733333
510,72,0.713333333
510,73,1.016666667
510,74,1.016666667
510,75,-0.683333333
510,76,-2.14
510,77,-1.63
510,79,-2.58
510,80,-2.586666667
510,81,-2.156666667
510,83,-2.043333333
510,84,-2.96
510,86,-2.833333333
510,87,-2.083333333
510,89,-1.513333333
510,92,-0.386666667
510,93,-0.24
510,94,0.126666667
510,95,0.693333333
510,96,1.203333333
510,97,1.206666667
510,98,1.103333333
510,99,0.883333333
510,100,-0.0133333330000003
510,101,-0.096666667
510,102,-0.61
510,103,-1.956666667
510,104,-2.373333333
510,105,-2.806666667
510,106,-3.503333333
510,107,-2.536666667
510,108,-1.826666667
510,109,-2.143333333
510,110,-1.943333333
510,111,-0.893333333
510,112,-0.353333333
510,113,-0.643333333
510,114,-1.363333333
510,115,-1.273333333
510,116,-2.153333333
510,120,-1.413333333
510,121,-1.396666667
510,122,-0.113333333
510,123,-0.093333333
510,124,NaN
510,125,-0.086666667
510,126,-0.136666667
510,127,-0.103333333
510,128,-0.086666667
510,129,-0.133333333
510,130,-0.176666667
510,131,-0.223333333
510,132,-0.26
510,133,-0.96
510,134,-1.126666667
510,135,-0.863333333
510,136,-0.993333333
510,137,-0.703333333
510,138,-0.32
510,139,-0.41
510,140,-0.36
510,141,-0.163333333
510,142,0.056666667
510,143,0.16
510,144,0.29
510,145,0.34
510,146,0.566666667
510,147,0.256666667
510,148,0.2
510,149,-0.52
510,150,-1.123333333
512,74,1.266666667
512,75,-0.383333333
512,76,-2.04
512,77,-2.23
512,78,-4.093333333
512,79,-2.78
512,80,-2.086666667
512,81,-2.856666667
512,82,-2.366666667
512,83,-2.243333333
512,84,-2.66
512,85,-1.07
512,86,-1.183333333
512,87,-0.733333333
512,88,-0.523333333
512,89,-0.0133333330000001
512,90,0.506666667
512,91,1.436666667
512,92,0.813333333
512,93,1.41
512,95,0.393333333
512,96,0.903333333
512,97,0.406666667
512,98,-0.496666667
512,99,-0.216666667
512,100,-0.263333333
512,101,-0.896666667
512,102,-1.81
512,103,-3.256666667
512,104,-3.623333333
512,105,-3.506666667
512,106,-3.953333333
512,107,-1.606666667
512,108,-1.736666667
512,109,-1.963333333
512,110,-1.123333333
512,111,-0.413333333
512,112,-0.803333333
512,113,-1.573333333
512,124,-0.06
512,126,-0.166666667
512,127,-0.203333333
512,128,-0.066666667
512,129,-0.143333333
512,130,-0.136666667
512,131,-0.163333333
512,132,-0.1
512,133,-0.11
512,134,-0.066666667
512,135,0.256666667
512,136,0.00666666700000001
512,137,0.046666667
512,139,0.34
512,141,0.786666667
512,142,0.656666667
512,143,0.81
512,144,0.61
512,145,0.57
512,146,0.816666667
516,79,-2.88
516,80,-1.886666667
516,81,-2.456666667
516,82,-1.916666667
516,83,-2.393333333
516,84,-2.96
516,85,-1.97
516,86,-1.883333333
516,87,-1.433333333
516,88,-0.123333333
516,90,0.156666667
516,91,0.186666667
516,93,-0.19
516,94,-0.123333333
516,95,0.293333333000001
516,96,0.603333333
516,97,0.306666667
516,98,0.303333333
516,99,0.158333333
516,100,0.0866666669999994
516,101,-0.646666667
516,102,-1.035
516,103,-2.706666667
516,104,-3.273333333
516,105,-3.551266667
516,106,-3.503333333
516,107,-1.786666667
516,108,-2.326666667
516,109,-1.893333333
516,110,-0.243333333
516,111,0.006666667
516,112,-0.028333333
516,113,-0.143333333
516,114,-0.063333333
516,115,-0.423333333
516,116,-0.553333333
516,118,-0.186666667
516,119,-0.233333333
516,120,-0.513333333
516,121,-0.446666667
518,80,-1.956666667
518,81,-2.356666667
518,82,-0.646666667
518,83,-1.403333333
518,84,-2.38
518,85,-1.07
518,86,-0.803333333
518,88,-1.023333333
518,89,0.296666667
518,90,0.556666667
518,91,0.686666667
518,92,0.560333333
518,93,0.506
518,94,0.482666667
518,95,0.788333333
518,96,0.739333333
518,97,0.571666667
518,98,0.115333333
518,99,0.380333333
518,100,0.147866667
518,101,-0.419666667
518,103,-2.326566667
518,104,-2.837533333
518,105,-2.828466667
518,106,-3.721933333
518,107,-2.453666667
518,109,-2.543333333
518,110,-1.465233333
518,111,-0.699433333
518,112,-0.208233333
518,113,-0.710733333
518,114,-0.703733333
518,115,-1.895933333
518,116,-1.768033333
518,117,-0.623566667
518,118,-0.367366667
518,119,-0.546333333
518,120,-0.750933333
518,121,-0.079966667
518,122,-0.090833333
518,123,0.059666667
518,124,0.0212
518,125,0.012133333
518,126,-0.043466667
518,127,0.000266667000000005
518,128,-0.043266667
518,129,-0.023333333
518,130,-0.012866667
518,132,-0.1036
518,133,-0.3908
518,134,-0.124766667
518,135,-0.526633333
518,136,-0.902433333
518,137,-0.983633333
518,138,-0.2037
518,139,-0.2
518,140,-0.01
518,141,0.413466667
518,142,0.318666667
518,143,0.81
518,144,0.3846
518,145,0.3125
518,146,0.490666667
518,147,0.422866667
518,148,0.0498999999999996
518,149,-0.4463
518,150,-0.958533333
519,82,-2.146666667
519,83,-2.933333333
519,84,-2.7
519,85,-1.95
519,86,NaN
519,87,-1.743333333
519,88,-2.113333333
519,89,-0.693333333
519,90,-0.343333333
519,91,0.236666667
519,92,0.373333333
519,93,0.46
519,96,0.701333333
519,97,0.548666667
519,98,0.305333333
519,99,0.573333333
519,100,0.0666666669999998
519,101,-0.716666666999999
519,103,-2.886666667
519,104,-3.113333333
519,105,-3.366666667
519,106,-3.863333333
519,107,-2.566666667
519,108,-2.969766667
519,109,-2.743333333
519,110,-1.563333333
520,83,-1.923333333
520,84,-2.73
520,85,-2.87
520,86,-1.583333333
520,87,-1.683333333
520,88,-1.663333333
520,89,-0.113333333
520,91,0.836666667
520,92,0.463333333
520,93,0.56
520,94,0.526666667
520,95,0.193333333
520,97,0.706666666999999
520,98,0.603333333
520,100,-0.263333333
520,101,-0.696666667
520,102,-1.51
520,103,-2.856666667
520,104,-3.273333333
520,106,-3.703333333
520,107,NaN
520,108,-2.026666667
520,109,-2.143333333
520,110,-1.693333333
520,111,-1.143333333
520,112,-0.853333333
520,113,-1.093333333
520,114,-0.563333333
520,115,-0.973333333
520,116,-1.453333333
520,117,-0.626666667
520,118,-0.336666667
520,119,-0.283333333
520,120,-0.413333333
520,121,-0.496666667
520,122,-0.163333333
520,123,-0.063333333
520,124,-0.15
520,125,-0.216666667
520,126,-0.186666667
520,127,-0.153333333
520,128,-0.166666667
520,129,-0.173333333
520,130,-0.176666667
520,131,-0.073333333
520,132,-0.13
520,133,NaN
520,134,-0.126666667
520,135,-0.463333333
520,136,-0.743333333
520,137,-0.953333333
520,138,-0.52
520,139,-0.56
520,140,-0.01
520,141,0.136666667
521,83,NaN
521,84,-2.66
521,85,-1.27
521,86,-1.183333333
521,87,NaN
521,88,NaN
521,90,1.006666667
521,91,1.186666667
521,92,0.963333333
521,93,0.46
521,94,NaN
521,95,0.643333333
521,96,0.303333332999999
521,97,0.806666667
521,98,NaN
521,99,0.333333333
521,100,-0.513333333
521,101,-1.196666667
521,102,-1.91
521,103,-3.056666667
521,104,-3.495533333
521,105,-3.486666667
521,106,-3.403333333
521,107,-2.186666667
521,108,-1.059966667
521,109,-1.293333333
523,87,-1.683333333
523,88,-0.923333333
523,90,NaN
523,93,-0.44
523,94,1.326666667
523,97,1.206666667
523,98,0.403333333
523,101,-0.796666666999999
523,102,-2.32
523,107,-3.286666667
523,108,-2.626666667
523,109,-3.183333333
523,120,-1.743333333
523,123,0.056666667
523,136,-1.693333333
523,138,0.33
523,140,-1.49
523,141,-0.293333333
523,143,0.786
523,148,NaN
523,150,-1.023333333
524,87,-1.483333333
524,89,-0.213333333
524,90,-1.193333333
524,91,-0.963333333
524,92,0.333333333
524,93,-0.34
524,94,0.366666667
524,95,0.793333333
524,96,0.713333333
524,97,0.606666667
524,99,0.620333333
524,100,-0.0933333330000004
524,101,-0.335866666999999
524,102,-1.2285
524,103,-2.560366667
524,104,-2.873333333
524,105,-2.836666667
524,106,-4.008933333
524,107,-2.366666667
524,108,-1.649766667
524,110,-0.457733333
524,111,-0.143333333
524,112,-0.043333333
524,113,-0.303333333
524,114,-0.763333333
524,115,-0.813333333
524,116,-1.223333333
524,118,-1.366666667
524,119,-1.303333333
524,120,-1.233333333
524,121,-0.806666667
524,122,-0.023333333
524,123,-0.013333333
524,124,-0.07
524,125,-0.086666667
524,126,-0.056666667
524,127,-0.063733333
524,128,-0.056666667
524,129,-0.063333333
524,130,-0.086666667
524,131,-0.193333333
524,132,-0.44
524,133,-0.77
524,134,-0.646666667
524,135,-1.351533333
524,138,-1.5286
524,139,-0.6126
524,140,-0.3245
524,145,0.0196999999999998
524,146,0.305466667
524,149,-0.9885
526,89,0.176666667
526,90,0.806666667
526,92,0.758333333
526,93,0.92
526,94,0.958666667
526,95,0.762333333
526,96,0.732333333
526,97,0.930666667
526,98,0.415333333
526,99,0.753333333
526,100,0.756666667
526,101,-0.186666667
526,102,-1.104
526,103,-1.936666667
526,104,-3.035333333
526,105,-2.746966667
526,106,-3.159333333
526,107,NaN
526,108,-0.932666667
526,109,-0.778033333
526,111,-0.309333333
526,112,-0.534333333
526,118,-0.356666667
526,119,-0.073333333
526,120,-0.343333333
526,122,-0.068933333
526,125,-0.126666667
526,126,-0.096666667
526,127,-0.115333333
526,128,-0.115666667
526,130,-0.110666667
526,132,-0.418
526,133,-0.657
526,134,-0.573666667
527,93,-0.5
527,94,0.526666667
527,95,0.443333333
527,96,0.453333333
527,97,0.456666666999999
527,98,0.453333333
527,99,0.633333333
527,100,-0.263333333
527,101,-0.296666666999999
527,102,-1.36
527,103,-2.806666667
527,104,-2.823333333
527,105,-3.506666667
527,106,-3.203333333
527,107,-1.386666667
527,109,-2.643333333
527,110,-1.893333333
527,112,-0.753333333
527,113,-0.343333333
527,114,-0.863333333
527,115,-1.273333333
527,116,-1.703333333
527,117,-0.476666667
527,118,-0.136666667
527,119,-0.133333333
527,120,-0.963333333
527,121,-0.146666667
527,122,0.026666667
527,123,0.056666667
527,124,-0.03
527,125,-0.056666667
527,126,-0.036666667
527,127,-0.033333333
527,128,-0.046666667
527,130,-0.056666667
527,131,-0.153333333
527,133,-0.71
527,134,-0.426666667
527,135,-0.363333333
527,136,-0.593333333
527,137,-0.853333333
527,139,-0.41
527,141,0.306666667
527,142,0.306666667
527,143,0.16
527,144,0.49
527,145,0.44
527,146,0.466666667
528,95,NaN
528,96,NaN
528,97,NaN
528,98,NaN
528,99,NaN
528,100,NaN
528,101,NaN
528,102,NaN
528,103,NaN
528,104,NaN
528,105,NaN
528,106,NaN
528,107,NaN
528,108,NaN
528,109,NaN
528,110,NaN
528,111,NaN
528,112,-0.375033333
528,113,-0.893333333
528,114,-1.327633333
528,115,-1.273333333
528,116,-1.753333333
528,117,-0.926666667
528,118,-0.206666667
528,119,-0.563333333
528,127,-0.063333333
528,128,-0.026666667
528,129,-0.093333333
528,137,-0.818333333
528,138,-0.845
528,139,-0.685
528,141,0.761666667
528,149,-0.7983
528,150,-1.196333333
533,96,1.203333333
533,97,0.906666667
533,98,0.903333333
533,99,0.833333333
533,101,-0.096666667
533,103,-2.206666667
533,105,-3.006666667
533,109,-1.193333333
533,120,-0.263333333
533,125,0.023333333
533,132,-0.08
533,134,-0.176666667
533,136,-0.643333333
533,137,-0.703333333
533,138,-0.07
533,139,-0.03
533,140,0.27
533,147,0.636666667
535,96,-0.266666667
535,97,-0.263333333
535,98,-0.396666667
535,99,-0.416666667
535,100,-0.663333333000001
535,101,-0.876666666999999
535,102,-1.91
535,103,-3.356666667
535,104,-3.953333333
535,105,-4.106666667
535,106,-4.403333333
535,107,-1.786666667
535,108,-2.026666667
535,109,-2.943333333
535,110,-0.893333333
535,111,-0.493333333
535,112,-0.653333333
535,113,-1.493333333
535,115,-3.473333333
535,116,-1.653333333
535,117,-1.076666667
535,118,-0.586666667
535,119,-1.633333333
535,120,-2.513333333
535,122,0.036666667
535,123,0.036666667
535,124,-0.15
535,125,-0.496666667
535,127,-0.053333333
535,128,-0.066666667
535,130,-0.076666667
535,131,-0.073333333
535,132,-0.14
535,133,-0.76
535,134,-1.116666667
535,136,-1.183333333
535,137,-1.603333333
535,138,-1.45
535,139,-1.31
535,140,-0.51
535,141,-0.213333333
535,142,-0.293333333
535,143,-0.22
535,144,-0.11
535,145,0.11
535,146,0.136666667
535,147,-0.0633333330000001
535,148,-0.47
535,149,-1.02
535,150,-1.603333333
540,101,-1.616666667
540,102,-2.1
540,103,-3.336666667
540,104,-4.083333333
540,105,-3.556666667
540,106,-3.943333333
540,107,-2.086666667
540,108,-2.446666667
540,109,-2.573333333
540,110,-2.093333333
540,111,-0.533333333
540,112,-0.483333333
540,113,-0.513333333
540,114,-0.683333333
540,115,-0.673333333
540,116,-0.683333333
540,117,-0.486666667
540,118,-0.366666667
540,119,-0.243333333
540,120,-0.243333333
540,121,-0.616666667
540,122,-0.243333333
540,123,-0.153333333
540,124,-0.33
540,125,-0.086666667
540,126,-0.186666667
540,127,-0.113333333
540,128,-0.146666667
540,129,-0.103333333
540,130,-0.126666667
540,138,-0.53
541,96,0.703333333
541,97,0.906666667
541,98,0.403333333
541,99,NaN
541,100,NaN
541,101,-0.296666666999999
541,102,NaN
541,103,NaN
541,104,-3.623333333
541,105,-3.956666667
541,107,NaN
541,108,NaN
541,109,NaN
541,111,NaN
541,112,NaN
541,114,-0.063333333
541,115,-0.573333333
541,116,-0.753333333
541,118,-0.146666667
542,96,NaN
542,97,0.736666667
542,98,0.493333333
542,99,0.211333333
542,100,-0.543333333000001
542,102,-2.3075
542,103,-3.506666667
542,104,-3.983333333
542,105,-4.156466667
542,106,-4.343733333
542,107,-2.386666667
542,108,-2.401066667
542,109,-2.791833333
542,110,NaN
542,111,-0.193333333
542,112,-0.053333333
542,115,-0.873333333
542,116,-0.953333333
542,118,-0.136666667
542,119,-0.133333333
542,120,-0.213333333
542,121,NaN
542,122,NaN
542,123,NaN
542,124,NaN
542,125,NaN
542,126,NaN
542,127,NaN
542,128,NaN
542,129,NaN
542,130,NaN
542,131,NaN
542,132,NaN
542,133,NaN
542,134,NaN
542,135,NaN
542,136,NaN
542,137,NaN
542,138,NaN
542,139,NaN
542,140,NaN
542,141,NaN
542,143,NaN
542,145,NaN
542,146,NaN
542,150,NaN
543,96,0.643333333
543,97,0.608666667
543,98,0.343333333
543,99,NaN
543,100,-0.0148333330000003
543,101,-0.649866667
543,102,-1.5632
543,103,-2.891366667
543,104,-3.298733333
543,105,-3.300566667
543,106,-3.877733333
543,107,-2.264966667
543,108,-2.188366667
543,109,-2.539333333
543,110,-0.640533333
543,111,-0.267233333
543,112,-0.081633333
543,113,-0.121133333
544,96,0.503333333
544,97,0.456666666999999
544,98,0.343333333
544,99,0.0833333329999997
544,100,-0.363333333
544,101,-0.896666667
544,102,-1.56
544,103,-2.856666667
544,104,-3.323333333
544,105,-3.456666667
544,106,-3.853333333
544,108,-1.776666667
544,110,-0.393333333
544,111,-0.263333333
544,112,-0.133333333
546,97,0.306666667
546,98,-0.546666667
546,99,-0.366666667
546,100,-0.713333333
546,101,-1.296666667
546,102,-2.21
546,103,-3.506666667
546,104,-3.273333333
546,105,-3.506666667
546,106,-3.803333333
546,107,-2.286666667
546,108,-1.626666667
546,109,-2.743333333
546,110,-1.593333333
546,111,-0.493333333
546,112,-0.953333333
546,114,-1.363333333
546,115,-0.823333333
546,116,-0.903333333
546,117,-0.426666667
546,118,-0.436666667
546,120,-1.413333333
546,121,-0.296666667
546,122,0.036666667
546,123,0.036666667
546,124,-0.05
546,125,-0.116666667
546,126,-0.036666667
546,127,-0.053333333
546,128,-0.066666667
546,129,-0.073333333
546,130,-0.126666667
546,131,-0.173333333
546,132,-0.43
546,133,-0.66
546,134,-0.676666667
546,135,-1.113333333
546,136,-1.093333333
546,137,-0.903333333
546,138,-0.67
546,139,-0.76
546,140,-0.31
546,141,0.156666667
546,142,0.256666667
546,143,0.11
546,144,0.14
546,145,0.14
546,146,0.216666667
546,147,0.036666667
546,148,-0.35
546,149,-0.97
546,150,-2.123333333
548,97,0.596666667
548,98,0.300333333
548,99,-0.221666667
548,100,-0.540133333
548,101,-1.091766667
548,102,-0.8806
548,103,-2.546966667
548,104,-3.339433333
548,105,-3.456966667
548,106,-4.250733333
548,107,-1.956666667
548,108,-2.439566667
548,109,-3.644733333
548,110,-1.584333333
548,111,NaN
548,112,-1.015533333
548,114,-1.138533333
548,115,-2.191033333
548,116,-2.137433333
548,118,-0.582566667
548,119,-0.455133333
548,120,-1.339933333
548,122,-0.00613333299999999
548,123,0.045766667
548,124,-0.0257
548,125,-0.043866667
548,126,-0.055066667
548,127,-0.032533333
548,128,-0.058266667
548,129,-0.193233333
548,130,-0.058866667
548,131,-0.083833333
548,132,-0.2259
548,133,-0.9023
548,134,-0.656666667
548,135,-0.293333333
548,136,-0.303333333
548,137,-0.523333333
548,138,-0.53
548,139,-0.62
548,140,-0.08
548,141,-0.213333333
548,142,0.306666667
548,143,0.17
548,144,0.36
548,145,0.33
548,146,0.366666667
548,147,0.396666667
548,148,-0.26
549,99,1.183333333
549,100,1.036666667
549,101,NaN
549,102,-0.31
549,103,NaN
549,104,-2.573333333
549,105,-3.006666667
549,106,-3.053333333
549,107,NaN
549,108,NaN
549,109,-1.293333333
549,110,-0.893333333
549,111,-0.443333333
549,112,-0.353333333
549,113,-0.593333333
549,114,-0.363333333
549,115,-0.973333333
549,116,-1.583333333
549,117,-0.786666667
549,118,-0.406666667
549,119,NaN
549,120,NaN
549,121,NaN
549,122,NaN
549,123,NaN
549,124,NaN
549,125,NaN
549,126,NaN
549,127,NaN
549,128,NaN
549,129,NaN
549,130,NaN
549,131,NaN
549,132,-0.08
549,133,-0.21
549,134,-0.596666667
549,135,-0.663333333
549,136,-0.473333333
549,137,-0.703333333
549,138,-0.27
549,139,-0.4
549,140,0.09
549,141,NaN
549,142,0.446666667
549,143,0.61
549,144,0.59
549,145,0.53
549,146,0.456666667
549,147,0.216666667
549,148,-0.19
549,149,-0.63
549,150,-1.233333333
553,106,-4.103333333
553,107,-3.686666667
553,108,-2.326666667
553,109,-2.543333333
553,110,-0.443333333
553,111,-0.193333333
553,112,-0.453333333
553,114,-0.563333333
553,115,-1.073333333
553,116,-1.353333333
553,119,-0.073333333
553,120,-0.663333333
553,122,0.006666667
553,123,0.076666667
553,124,-0.05
553,125,-0.066666667
553,126,-0.046666667
553,127,-0.253333333
553,128,-0.116666667
553,129,0.011666667
553,130,-0.176666667
553,131,-0.093333333
553,132,-0.08
553,133,-0.16
553,134,-0.676666667
553,135,-0.813333333
553,137,-0.653333333
553,138,-0.77
553,139,-0.71
553,140,-0.41
553,141,0.206666667
553,142,0.206666667
553,143,0.32
553,145,0.59
553,146,0.466666667
553,147,0.0346666670000002
553,148,-0.2
553,149,-0.72
555,106,-3.703333333
555,107,-2.886666667
555,108,-2.326666667
555,109,-1.743333333
555,110,-0.693333333
555,111,-0.393333333
555,112,-0.353333333
555,113,-0.343333333
555,114,-0.463333333
555,115,-1.123333333
555,116,-1.953333333
555,117,-0.376666667
555,118,-0.486666667
555,119,-0.233333333
555,120,-1.013333333
555,121,-0.196666667
555,122,-0.113333333
555,123,-0.113333333
555,125,-0.166666667
555,126,-0.186666667
555,127,-0.253333333
555,128,-0.166666667
555,129,-0.173333333
555,130,-0.176666667
555,131,-0.273333333
555,133,-0.8
555,134,-0.926666667
555,135,-0.968533333
555,136,-1.173333333
555,137,-1.033333333
555,138,-0.73
555,139,-0.74
555,140,-0.29
555,141,0.196666667
555,142,0.186666667
555,143,0.46
555,144,0.34
555,145,0.24
555,146,0.466666667
555,147,0.036666667
555,148,-0.35
555,149,-0.67
555,150,-1.523333333
557,107,-3.619966667
557,108,-2.226666667
557,109,-2.298333333
557,110,-1.155833333
557,111,-0.257033333
557,112,-0.078033333
557,113,-0.078033333
557,114,-0.063333333
557,115,-0.487433333
557,116,-0.823333333
557,118,-0.319666667
557,119,-0.303833333
557,120,-0.593333333
557,121,-1.046666667
557,122,-0.333333333
557,123,NaN
557,124,-0.18
557,125,-0.196666667
557,126,-0.136666667
557,127,-0.253333333
557,128,-0.126666667
557,129,-0.163333333
557,130,-0.196666667
557,131,-0.183333333
557,132,-0.12
557,133,-0.13
557,134,-0.206666667
557,135,-0.00333333299999999
557,136,-0.363333333
557,137,-0.503333333
557,138,-0.48
557,139,-0.25
557,140,-0.37
557,141,0.434566667
557,142,0.236666667
557,143,0.38
557,144,0.0933000000000002
557,145,0.5711
557,146,0.442066667
557,147,0.323366667
557,148,-0.54
557,149,-1.0367
557,150,-1.603333333
558,112,-0.224533333
558,114,-0.072133333
558,115,-0.317833333
558,116,-0.667333333
558,117,-0.860666667
558,118,-0.659666667
558,119,-0.703633333
558,120,-0.841833333
558,121,-0.307066667
558,122,-0.394033333
559,109,-2.343333333
559,111,NaN
559,116,-1.453333333
559,120,-1.413333333
559,122,NaN
559,123,0.036666667
559,124,-0.05
559,125,-0.066666667
559,126,-0.036666667
559,127,-0.053333333
559,128,-0.066666667
559,131,-0.273333333
559,132,-0.13
559,133,-0.08
559,134,-1.376666667
559,135,-0.573333333
559,136,-1.143333333
559,137,-0.853333333
559,138,-0.56
559,140,-0.07
559,141,0.216666667
559,142,0.126666667
559,144,0.29
559,146,0.776666667
559,147,0.336666667
559,149,-0.82
560,110,-2.443333333
560,111,-0.993333333
560,112,-0.953333333
560,113,-0.943333333
560,114,-0.763333333
560,115,-0.773333333
560,116,-0.853333333
560,117,-0.876666667
560,118,NaN
560,119,NaN
560,122,-0.663333333
560,125,-0.140066667
560,126,-0.036666667
560,127,-0.374333333
560,129,-0.253333333
560,134,NaN
560,136,0.056666667
560,137,-0.103333333
560,142,NaN
560,143,NaN
563,116,-0.303333333
563,117,-0.216666667
563,118,-0.246666667
563,119,-0.133333333
563,120,-0.113333333
563,121,-0.006666667
563,122,0.006666667
563,123,0.066666667
563,124,-0.07
563,125,-0.106666667
563,126,-0.086666667
563,127,-0.073333333
563,128,-0.066666667
563,129,-0.073333333
563,130,-0.026666667
563,131,-0.073333333
563,132,-0.07
563,133,-0.04
563,134,0.043333333
563,135,0.176666667
563,136,0.136666667
563,137,-0.403333333
563,138,-0.27
563,139,0.41
563,140,0.54
563,141,0.586666667
563,142,0.796666667
563,143,0.96
563,144,0.74
563,145,0.64
563,146,0.916666667
563,147,0.586666667
563,148,0.3
563,149,-0.32
563,150,-0.823333333
568,119,-0.233333333
568,120,-0.163333333
568,121,0.053333333
568,122,0.066666667
568,123,0.076666667
568,124,-0.02
568,125,-0.036666667
568,126,-0.036666667
568,127,-0.053333333
568,128,-0.066666667
568,130,-0.026666667
568,131,-0.023333333
568,132,-0.08
568,133,-0.46
568,134,-0.626666667
568,135,-0.463333333
568,136,-0.493333333
568,137,-0.703333333
568,138,-0.97
568,139,-0.41
568,140,-0.11
568,141,0.286666667
568,142,0.326666667
568,143,0.56
568,144,0.49
568,145,0.54
568,146,0.816666667
568,147,0.136666667
568,148,-0.28
568,149,-0.72
568,150,-1.243333333
569,123,-0.413333333
569,124,-0.35
569,126,-0.036666667
569,127,-0.053333333
569,128,-0.066666667
569,130,-0.326666667
569,132,-0.68
569,133,-0.76
569,134,-0.676666667
569,135,-0.613333333
569,136,-0.843333333
569,137,-0.803333333
569,138,-0.67
569,139,-0.61
569,140,-0.61
569,141,-0.463333333
569,142,-0.193333333
569,143,-0.14
569,144,-0.0599999999999998
569,145,-0.16
569,146,0.116666667
569,147,-0.113333333
569,148,-0.5
569,149,-1.02
569,150,-1.423333333
570,126,-0.036666667
570,127,-0.053333333
570,128,-0.066666667
570,129,-0.073333333
570,130,-0.026666667
570,131,-0.043333333
570,132,-0.08
570,133,-0.06
570,134,-0.376666667
570,135,-0.363333333
570,136,-0.493333333
570,137,-0.690433333
570,138,-0.32
570,139,-0.2419
570,140,-0.01
570,141,0.286666667
570,142,0.356666667
570,143,0.41
570,144,0.3273
570,145,0.54
570,146,0.716666667
570,147,0.234266667
570,148,-0.302
570,149,-0.689
570,150,-1.323333333
572,125,-0.166666667
572,127,-0.063333333
572,129,-0.093333333
572,130,-0.046666667
572,131,-0.043333333
572,132,-0.18
572,133,-0.41
572,134,-0.536666667
572,135,-0.793333333
572,136,-0.773333333
572,137,-0.733333333
572,138,-0.47
572,139,-0.27
572,140,-0.18
572,141,0.236666667
572,142,0.326666667
572,143,0.0900000000000001
572,144,0.11
572,145,0.12
572,146,0.646666667
572,147,0.286666667
572,148,-0.1
572,149,-0.7
572,150,-1.313333333
574,128,-0.091666667
574,129,-0.273333333
574,130,-0.326666667
574,131,-0.273333333
574,132,-0.13
574,133,-0.5133
574,134,-0.846666667
574,135,-0.933333333
574,136,-1.256633333
574,137,-1.603333333
574,138,-0.97
574,139,-0.3733
574,140,-0.3217
574,141,-0.113333333
574,142,0.0599666669999999
574,143,0.13
574,144,0.14
574,145,-0.16
574,146,0.176766667
574,147,-0.0633333330000001
574,148,-0.46
574,149,-0.8533
574,150,-1.596633333
576,129,-0.073333333
576,130,-0.016666667
576,131,-0.043333333
576,132,-0.1
576,136,-0.303333333
576,137,-0.513333333
576,138,-0.76
576,139,-0.47
576,140,-0.37
576,141,-0.393333333
576,142,0.356666667
576,143,0.27
576,144,0.28
576,145,1.1015
576,146,1.076666667
576,147,0.856666667
576,148,0.27
576,149,-0.12
576,150,-1.313333333
577,129,-0.083333333
577,130,-0.066666667
577,131,-0.213333333
577,132,-0.08
577,133,-0.05
577,134,0.063333333
577,135,0.256666667
577,136,0.216666667
577,137,0.256666667
577,139,-0.41
577,140,-0.13
577,142,0.836666667
577,143,0.21
577,145,0.17
577,149,-0.47
577,150,-0.773333333
578,131,-0.073333333
578,132,-0.41
578,133,-0.5767
578,134,-1.026666667
578,135,-1.283333333
578,136,-1.069533333
578,137,-0.813333333
578,138,-0.93
578,139,-0.44
578,140,0.03
578,141,0.089966667
578,142,0.176666667
578,143,0.1967
578,144,0.2267
578,146,0.536666667
578,147,0.106666667
578,148,-0.4467
578,149,-0.8833
578,150,-1.453333333
